<?xml version="1.0"?>
<MethodSetup Method="BDT::BDT">
  <Variables NVar="14">
    <Variable Expression="f0" Internal="f0" Label="f0" Max="0.0e+00" Min="0.0e+00" Title="f0" Type="F" Unit="" VarIndex="0"/>
    <Variable Expression="f1" Internal="f1" Label="f1" Max="0.0e+00" Min="0.0e+00" Title="f1" Type="F" Unit="" VarIndex="1"/>
    <Variable Expression="f2" Internal="f2" Label="f2" Max="0.0e+00" Min="0.0e+00" Title="f2" Type="F" Unit="" VarIndex="2"/>
    <Variable Expression="f3" Internal="f3" Label="f3" Max="0.0e+00" Min="0.0e+00" Title="f3" Type="F" Unit="" VarIndex="3"/>
    <Variable Expression="f4" Internal="f4" Label="f4" Max="0.0e+00" Min="0.0e+00" Title="f4" Type="F" Unit="" VarIndex="4"/>
    <Variable Expression="f5" Internal="f5" Label="f5" Max="0.0e+00" Min="0.0e+00" Title="f5" Type="F" Unit="" VarIndex="5"/>
    <Variable Expression="f6" Internal="f6" Label="f6" Max="0.0e+00" Min="0.0e+00" Title="f6" Type="F" Unit="" VarIndex="6"/>
    <Variable Expression="f7" Internal="f7" Label="f7" Max="0.0e+00" Min="0.0e+00" Title="f7" Type="F" Unit="" VarIndex="7"/>
    <Variable Expression="f8" Internal="f8" Label="f8" Max="0.0e+00" Min="0.0e+00" Title="f8" Type="F" Unit="" VarIndex="8"/>
    <Variable Expression="f9" Internal="f9" Label="f9" Max="0.0e+00" Min="0.0e+00" Title="f9" Type="F" Unit="" VarIndex="9"/>
    <Variable Expression="f10" Internal="f10" Label="f10" Max="0.0e+00" Min="0.0e+00" Title="f10" Type="F" Unit="" VarIndex="10"/>
    <Variable Expression="f11" Internal="f11" Label="f11" Max="0.0e+00" Min="0.0e+00" Title="f11" Type="F" Unit="" VarIndex="11"/>
    <Variable Expression="f12" Internal="f12" Label="f12" Max="0.0e+00" Min="0.0e+00" Title="f12" Type="F" Unit="" VarIndex="12"/>
    <Variable Expression="f13" Internal="f13" Label="f13" Max="0.0e+00" Min="0.0e+00" Title="f13" Type="F" Unit="" VarIndex="13"/>
  </Variables>
  <GeneralInfo>
    <Info name="Creator" value="xgboost2TMVA"/>
    <Info name="AnalysisType" value="Classification"/>
  </GeneralInfo>
  <Options>
    <Option modified="No" name="NodePurityLimit">5.00e-01</Option>
    <Option modified="Yes" name="BoostType">Grad</Option>
  </Options>
  <Weights AnalysisType="1" NTrees="200">
    <BinaryTree boostWeight="1.0e+00" itree="0" type="DecisionTree">
      <Node Cut="2.81411505" IVar="13" NCoef="0" cType="1" depth="0" nType="0" pos="s" purity="0.0e+00" res="0.0e+00" rms="0.0e+00">
        <Node Cut="3.15197754" IVar="12" NCoef="0" cType="1" depth="1" nType="0" pos="l" purity="0.0e+00" res="0.0e+00" rms="0.0e+00">
          <Node Cut="-1.57471561" IVar="9" NCoef="0" cType="1" depth="2" nType="0" pos="l" purity="0.0e+00" res="0.0e+00" rms="0.0e+00">
            <Node Cut="-0.672432661" IVar="2" NCoef="0" cType="1" depth="3" nType="0" pos="l" purity="0.0e+00" res="0.0e+00" rms="0.0e+00">
              <Node Cut="0.0e+00" IVar="-1" NCoef="0" cType="1" depth="4" nType="-99" pos="l" purity="0.0e+00" res="0.125099793" rms="0.0e+00"/>
              <Node Cut="0.0e+00" IVar="-1" NCoef="0" cType="1" depth="4" nType="-99" pos="r" purity="0.0e+00" res="-0.226807818" rms="0.0e+00"/>
            </Node>
            <Node Cut="1.13476694" IVar="13" NCoef="0" cType="1" depth="3" nType="0" pos="r" purity="0.0e+00" res="0.0e+00" rms="0.0e+00">
              <Node Cut="0.360238969" IVar="0" NCoef="0" cType="1" depth="4" nType="0" pos="l" purity="0.0e+00" res="0.0e+00" rms="0.0e+00">
                <Node Cut="0.0e+00" IVar="-1" NCoef="0" cType="1" depth="5" nType="-99" pos="l" purity="0.0e+00" res="-0.226609364" rms="0.0e+00"/>
                <Node Cut="-0.424358159" IVar="11" NCoef="0" cType="1" depth="5" nType="0" pos="r" purity="0.0e+00" res="0.0e+00" rms="0.0e+00">
                  <Node Cut="0.78002888" IVar="1" NCoef="0" cType="1" depth="6" nType="0" pos="l" purity="0.0e+00" res="0.0e+00" rms="0.0e+00">
                    <Node Cut="0.651107848" IVar="1" NCoef="0" cType="1" depth="7" nType="0" pos="l" purity="0.0e+00" res="0.0e+00" rms="0.0e+00">
                      <Node Cut="-0.505615592" IVar="4" NCoef="0" cType="1" depth="8" nType="0" pos="l" purity="0.0e+00" res="0.0e+00" rms="0.0e+00">
                        <Node Cut="0.551456153" IVar="0" NCoef="0" cType="1" depth="9" nType="0" pos="l" purity="0.0e+00" res="0.0e+00" rms="0.0e+00">
                          <Node Cut="0.0e+00" IVar="-1" NCoef="0" cType="1" depth="10" nType="-99" pos="l" purity="0.0e+00" res="-0.161896154" rms="0.0e+00"/>
                          <Node Cut="0.0e+00" IVar="-1" NCoef="0" cType="1" depth="10" nType="-99" pos="r" purity="0.0e+00" res="-0.227027923" rms="0.0e+00"/>
                        </Node>
                        <Node Cut="0.498697847" IVar="1" NCoef="0" cType="1" depth="9" nType="0" pos="r" purity="0.0e+00" res="0.0e+00" rms="0.0e+00">
                          <Node Cut="0.0e+00" IVar="-1" NCoef="0" cType="1" depth="10" nType="-99" pos="l" purity="0.0e+00" res="-0.227229849" rms="0.0e+00"/>
                          <Node Cut="0.0e+00" IVar="-1" NCoef="0" cType="1" depth="10" nType="-99" pos="r" purity="0.0e+00" res="-0.205934778" rms="0.0e+00"/>
                        </Node>
                      </Node>
                      <Node Cut="0.0e+00" IVar="-1" NCoef="0" cType="1" depth="8" nType="-99" pos="r" purity="0.0e+00" res="-0.19430925" rms="0.0e+00"/>
                    </Node>
                    <Node Cut="0.0e+00" IVar="-1" NCoef="0" cType="1" depth="7" nType="-99" pos="r" purity="0.0e+00" res="-0.227355212" rms="0.0e+00"/>
                  </Node>
                  <Node Cut="3.29669905" IVar="0" NCoef="0" cType="1" depth="6" nType="0" pos="r" purity="0.0e+00" res="0.0e+00" rms="0.0e+00">
                    <Node Cut="1.32536232" IVar="2" NCoef="0" cType="1" depth="7" nType="0" pos="l" purity="0.0e+00" res="0.0e+00" rms="0.0e+00">
                      <Node Cut="0.0e+00" IVar="-1" NCoef="0" cType="1" depth="8" nType="-99" pos="l" purity="0.0e+00" res="-0.224165082" rms="0.0e+00"/>
                      <Node Cut="0.0e+00" IVar="-1" NCoef="0" cType="1" depth="8" nType="-99" pos="r" purity="0.0e+00" res="-0.184903309" rms="0.0e+00"/>
                    </Node>
                    <Node Cut="0.0e+00" IVar="-1" NCoef="0" cType="1" depth="7" nType="-99" pos="r" purity="0.0e+00" res="-0.171753794" rms="0.0e+00"/>
                  </Node>
                </Node>
              </Node>
              <Node Cut="-1.3478595" IVar="9" NCoef="0" cType="1" depth="4" nType="0" pos="r" purity="0.0e+00" res="0.0e+00" rms="0.0e+00">
                <Node Cut="0.0e+00" IVar="-1" NCoef="0" cType="1" depth="5" nType="-99" pos="l" purity="0.0e+00" res="-0.00500647817" rms="0.0e+00"/>
                <Node Cut="-0.693008184" IVar="9" NCoef="0" cType="1" depth="5" nType="0" pos="r" purity="0.0e+00" res="0.0e+00" rms="0.0e+00">
                  <Node Cut="-0.376224965" IVar="5" NCoef="0" cType="1" depth="6" nType="0" pos="l" purity="0.0e+00" res="0.0e+00" rms="0.0e+00">
                    <Node Cut="0.0e+00" IVar="-1" NCoef="0" cType="1" depth="7" nType="-99" pos="l" purity="0.0e+00" res="-0.226404354" rms="0.0e+00"/>
                    <Node Cut="-0.342801541" IVar="4" NCoef="0" cType="1" depth="7" nType="0" pos="r" purity="0.0e+00" res="0.0e+00" rms="0.0e+00">
                      <Node Cut="0.0e+00" IVar="-1" NCoef="0" cType="1" depth="8" nType="-99" pos="l" purity="0.0e+00" res="-0.20497039" rms="0.0e+00"/>
                      <Node Cut="0.0e+00" IVar="-1" NCoef="0" cType="1" depth="8" nType="-99" pos="r" purity="0.0e+00" res="-0.146625742" rms="0.0e+00"/>
                    </Node>
                  </Node>
                  <Node Cut="0.0e+00" IVar="-1" NCoef="0" cType="1" depth="6" nType="-99" pos="r" purity="0.0e+00" res="-0.227274984" rms="0.0e+00"/>
                </Node>
              </Node>
            </Node>
          </Node>
          <Node Cut="0.0e+00" IVar="-1" NCoef="0" cType="1" depth="2" nType="-99" pos="r" purity="0.0e+00" res="0.0643745437" rms="0.0e+00"/>
        </Node>
        <Node Cut="-0.516426742" IVar="2" NCoef="0" cType="1" depth="1" nType="0" pos="r" purity="0.0e+00" res="0.0e+00" rms="0.0e+00">
          <Node Cut="-1.06678021" IVar="9" NCoef="0" cType="1" depth="2" nType="0" pos="l" purity="0.0e+00" res="0.0e+00" rms="0.0e+00">
            <Node Cut="-1.45542037" IVar="9" NCoef="0" cType="1" depth="3" nType="0" pos="l" purity="0.0e+00" res="0.0e+00" rms="0.0e+00">
              <Node Cut="-1.00569427" IVar="1" NCoef="0" cType="1" depth="4" nType="0" pos="l" purity="0.0e+00" res="0.0e+00" rms="0.0e+00">
                <Node Cut="0.0e+00" IVar="-1" NCoef="0" cType="1" depth="5" nType="-99" pos="l" purity="0.0e+00" res="0.225074098" rms="0.0e+00"/>
                <Node Cut="-0.655509472" IVar="0" NCoef="0" cType="1" depth="5" nType="0" pos="r" purity="0.0e+00" res="0.0e+00" rms="0.0e+00">
                  <Node Cut="-0.993650317" IVar="1" NCoef="0" cType="1" depth="6" nType="0" pos="l" purity="0.0e+00" res="0.0e+00" rms="0.0e+00">
                    <Node Cut="0.0e+00" IVar="-1" NCoef="0" cType="1" depth="7" nType="-99" pos="l" purity="0.0e+00" res="0.219793156" rms="0.0e+00"/>
                    <Node Cut="0.0e+00" IVar="-1" NCoef="0" cType="1" depth="7" nType="-99" pos="r" purity="0.0e+00" res="0.180402324" rms="0.0e+00"/>
                  </Node>
                  <Node Cut="0.0e+00" IVar="-1" NCoef="0" cType="1" depth="6" nType="-99" pos="r" purity="0.0e+00" res="0.222621545" rms="0.0e+00"/>
                </Node>
              </Node>
              <Node Cut="-0.958960831" IVar="1" NCoef="0" cType="1" depth="4" nType="0" pos="r" purity="0.0e+00" res="0.0e+00" rms="0.0e+00">
                <Node Cut="0.0e+00" IVar="-1" NCoef="0" cType="1" depth="5" nType="-99" pos="l" purity="0.0e+00" res="0.218849093" rms="0.0e+00"/>
                <Node Cut="-0.798413396" IVar="1" NCoef="0" cType="1" depth="5" nType="0" pos="r" purity="0.0e+00" res="0.0e+00" rms="0.0e+00">
                  <Node Cut="0.0e+00" IVar="-1" NCoef="0" cType="1" depth="6" nType="-99" pos="l" purity="0.0e+00" res="0.136818096" rms="0.0e+00"/>
                  <Node Cut="0.0e+00" IVar="-1" NCoef="0" cType="1" depth="6" nType="-99" pos="r" purity="0.0e+00" res="0.193830952" rms="0.0e+00"/>
                </Node>
              </Node>
            </Node>
            <Node Cut="1.21929121" IVar="6" NCoef="0" cType="1" depth="3" nType="0" pos="r" purity="0.0e+00" res="0.0e+00" rms="0.0e+00">
              <Node Cut="-0.903616846" IVar="9" NCoef="0" cType="1" depth="4" nType="0" pos="l" purity="0.0e+00" res="0.0e+00" rms="0.0e+00">
                <Node Cut="0.0e+00" IVar="-1" NCoef="0" cType="1" depth="5" nType="-99" pos="l" purity="0.0e+00" res="0.10583581" rms="0.0e+00"/>
                <Node Cut="0.0e+00" IVar="-1" NCoef="0" cType="1" depth="5" nType="-99" pos="r" purity="0.0e+00" res="-0.0729413331" rms="0.0e+00"/>
              </Node>
              <Node Cut="0.0e+00" IVar="-1" NCoef="0" cType="1" depth="4" nType="-99" pos="r" purity="0.0e+00" res="0.187853366" rms="0.0e+00"/>
            </Node>
          </Node>
          <Node Cut="-1.39943171" IVar="9" NCoef="0" cType="1" depth="2" nType="0" pos="r" purity="0.0e+00" res="0.0e+00" rms="0.0e+00">
            <Node Cut="0.0e+00" IVar="-1" NCoef="0" cType="1" depth="3" nType="-99" pos="l" purity="0.0e+00" res="0.165249601" rms="0.0e+00"/>
            <Node Cut="-0.439865023" IVar="3" NCoef="0" cType="1" depth="3" nType="0" pos="r" purity="0.0e+00" res="0.0e+00" rms="0.0e+00">
              <Node Cut="0.0e+00" IVar="-1" NCoef="0" cType="1" depth="4" nType="-99" pos="l" purity="0.0e+00" res="-0.227042064" rms="0.0e+00"/>
              <Node Cut="0.0e+00" IVar="-1" NCoef="0" cType="1" depth="4" nType="-99" pos="r" purity="0.0e+00" res="-0.17507948" rms="0.0e+00"/>
            </Node>
          </Node>
        </Node>
      </Node>
    </BinaryTree>
    <BinaryTree boostWeight="1.0e+00" itree="1" type="DecisionTree">
      <Node Cut="2.81411505" IVar="13" NCoef="0" cType="1" depth="0" nType="0" pos="s" purity="0.0e+00" res="0.0e+00" rms="0.0e+00">
        <Node Cut="3.14835238" IVar="12" NCoef="0" cType="1" depth="1" nType="0" pos="l" purity="0.0e+00" res="0.0e+00" rms="0.0e+00">
          <Node Cut="-1.54275608" IVar="9" NCoef="0" cType="1" depth="2" nType="0" pos="l" purity="0.0e+00" res="0.0e+00" rms="0.0e+00">
            <Node Cut="-0.681710541" IVar="2" NCoef="0" cType="1" depth="3" nType="0" pos="l" purity="0.0e+00" res="0.0e+00" rms="0.0e+00">
              <Node Cut="0.0e+00" IVar="-1" NCoef="0" cType="1" depth="4" nType="-99" pos="l" purity="0.0e+00" res="0.116315223" rms="0.0e+00"/>
              <Node Cut="-1.58922315" IVar="9" NCoef="0" cType="1" depth="4" nType="0" pos="r" purity="0.0e+00" res="0.0e+00" rms="0.0e+00">
                <Node Cut="0.0e+00" IVar="-1" NCoef="0" cType="1" depth="5" nType="-99" pos="l" purity="0.0e+00" res="-0.204737172" rms="0.0e+00"/>
                <Node Cut="0.0e+00" IVar="-1" NCoef="0" cType="1" depth="5" nType="-99" pos="r" purity="0.0e+00" res="-0.18141304" rms="0.0e+00"/>
              </Node>
            </Node>
            <Node Cut="3.00173235" IVar="12" NCoef="0" cType="1" depth="3" nType="0" pos="r" purity="0.0e+00" res="0.0e+00" rms="0.0e+00">
              <Node Cut="0.438016325" IVar="13" NCoef="0" cType="1" depth="4" nType="0" pos="l" purity="0.0e+00" res="0.0e+00" rms="0.0e+00">
                <Node Cut="1.58180404" IVar="7" NCoef="0" cType="1" depth="5" nType="0" pos="l" purity="0.0e+00" res="0.0e+00" rms="0.0e+00">
                  <Node Cut="-1.68863797" IVar="6" NCoef="0" cType="1" depth="6" nType="0" pos="l" purity="0.0e+00" res="0.0e+00" rms="0.0e+00">
                    <Node Cut="-0.273117691" IVar="4" NCoef="0" cType="1" depth="7" nType="0" pos="l" purity="0.0e+00" res="0.0e+00" rms="0.0e+00">
                      <Node Cut="0.0e+00" IVar="-1" NCoef="0" cType="1" depth="8" nType="-99" pos="l" purity="0.0e+00" res="-0.204148397" rms="0.0e+00"/>
                      <Node Cut="0.0e+00" IVar="-1" NCoef="0" cType="1" depth="8" nType="-99" pos="r" purity="0.0e+00" res="-0.163610026" rms="0.0e+00"/>
                    </Node>
                    <Node Cut="0.0e+00" IVar="-1" NCoef="0" cType="1" depth="7" nType="-99" pos="r" purity="0.0e+00" res="-0.203111917" rms="0.0e+00"/>
                  </Node>
                  <Node Cut="0.130828738" IVar="4" NCoef="0" cType="1" depth="6" nType="0" pos="r" purity="0.0e+00" res="0.0e+00" rms="0.0e+00">
                    <Node Cut="0.0e+00" IVar="-1" NCoef="0" cType="1" depth="7" nType="-99" pos="l" purity="0.0e+00" res="-0.204641894" rms="0.0e+00"/>
                    <Node Cut="0.44469285" IVar="2" NCoef="0" cType="1" depth="7" nType="0" pos="r" purity="0.0e+00" res="0.0e+00" rms="0.0e+00">
                      <Node Cut="0.0e+00" IVar="-1" NCoef="0" cType="1" depth="8" nType="-99" pos="l" purity="0.0e+00" res="-0.149036154" rms="0.0e+00"/>
                      <Node Cut="0.625840127" IVar="4" NCoef="0" cType="1" depth="8" nType="0" pos="r" purity="0.0e+00" res="0.0e+00" rms="0.0e+00">
                        <Node Cut="0.0e+00" IVar="-1" NCoef="0" cType="1" depth="9" nType="-99" pos="l" purity="0.0e+00" res="-0.180189133" rms="0.0e+00"/>
                        <Node Cut="0.0e+00" IVar="-1" NCoef="0" cType="1" depth="9" nType="-99" pos="r" purity="0.0e+00" res="-0.204061911" rms="0.0e+00"/>
                      </Node>
                    </Node>
                  </Node>
                </Node>
                <Node Cut="-1.23084342" IVar="9" NCoef="0" cType="1" depth="5" nType="0" pos="r" purity="0.0e+00" res="0.0e+00" rms="0.0e+00">
                  <Node Cut="0.0e+00" IVar="-1" NCoef="0" cType="1" depth="6" nType="-99" pos="l" purity="0.0e+00" res="-0.155828625" rms="0.0e+00"/>
                  <Node Cut="0.590830147" IVar="12" NCoef="0" cType="1" depth="6" nType="0" pos="r" purity="0.0e+00" res="0.0e+00" rms="0.0e+00">
                    <Node Cut="0.335624903" IVar="5" NCoef="0" cType="1" depth="7" nType="0" pos="l" purity="0.0e+00" res="0.0e+00" rms="0.0e+00">
                      <Node Cut="0.0e+00" IVar="-1" NCoef="0" cType="1" depth="8" nType="-99" pos="l" purity="0.0e+00" res="-0.203906223" rms="0.0e+00"/>
                      <Node Cut="0.0e+00" IVar="-1" NCoef="0" cType="1" depth="8" nType="-99" pos="r" purity="0.0e+00" res="-0.156353921" rms="0.0e+00"/>
                    </Node>
                    <Node Cut="0.58983618" IVar="13" NCoef="0" cType="1" depth="7" nType="0" pos="r" purity="0.0e+00" res="0.0e+00" rms="0.0e+00">
                      <Node Cut="0.0e+00" IVar="-1" NCoef="0" cType="1" depth="8" nType="-99" pos="l" purity="0.0e+00" res="-0.180011526" rms="0.0e+00"/>
                      <Node Cut="0.0e+00" IVar="-1" NCoef="0" cType="1" depth="8" nType="-99" pos="r" purity="0.0e+00" res="-0.203148931" rms="0.0e+00"/>
                    </Node>
                  </Node>
                </Node>
              </Node>
              <Node Cut="0.0e+00" IVar="-1" NCoef="0" cType="1" depth="4" nType="-99" pos="r" purity="0.0e+00" res="-0.11954575" rms="0.0e+00"/>
            </Node>
          </Node>
          <Node Cut="0.0e+00" IVar="-1" NCoef="0" cType="1" depth="2" nType="-99" pos="r" purity="0.0e+00" res="0.058058247" rms="0.0e+00"/>
        </Node>
        <Node Cut="-0.955394328" IVar="9" NCoef="0" cType="1" depth="1" nType="0" pos="r" purity="0.0e+00" res="0.0e+00" rms="0.0e+00">
          <Node Cut="-1.10542405" IVar="9" NCoef="0" cType="1" depth="2" nType="0" pos="l" purity="0.0e+00" res="0.0e+00" rms="0.0e+00">
            <Node Cut="-1.38384092" IVar="9" NCoef="0" cType="1" depth="3" nType="0" pos="l" purity="0.0e+00" res="0.0e+00" rms="0.0e+00">
              <Node Cut="-1.00569427" IVar="1" NCoef="0" cType="1" depth="4" nType="0" pos="l" purity="0.0e+00" res="0.0e+00" rms="0.0e+00">
                <Node Cut="0.0e+00" IVar="-1" NCoef="0" cType="1" depth="5" nType="-99" pos="l" purity="0.0e+00" res="0.20207119" rms="0.0e+00"/>
                <Node Cut="-0.65040493" IVar="0" NCoef="0" cType="1" depth="5" nType="0" pos="r" purity="0.0e+00" res="0.0e+00" rms="0.0e+00">
                  <Node Cut="-0.989358604" IVar="1" NCoef="0" cType="1" depth="6" nType="0" pos="l" purity="0.0e+00" res="0.0e+00" rms="0.0e+00">
                    <Node Cut="0.0e+00" IVar="-1" NCoef="0" cType="1" depth="7" nType="-99" pos="l" purity="0.0e+00" res="0.196733758" rms="0.0e+00"/>
                    <Node Cut="-0.688684881" IVar="0" NCoef="0" cType="1" depth="7" nType="0" pos="r" purity="0.0e+00" res="0.0e+00" rms="0.0e+00">
                      <Node Cut="0.0e+00" IVar="-1" NCoef="0" cType="1" depth="8" nType="-99" pos="l" purity="0.0e+00" res="0.126304328" rms="0.0e+00"/>
                      <Node Cut="0.0e+00" IVar="-1" NCoef="0" cType="1" depth="8" nType="-99" pos="r" purity="0.0e+00" res="0.169572607" rms="0.0e+00"/>
                    </Node>
                  </Node>
                  <Node Cut="-1.51956773" IVar="9" NCoef="0" cType="1" depth="6" nType="0" pos="r" purity="0.0e+00" res="0.0e+00" rms="0.0e+00">
                    <Node Cut="0.0e+00" IVar="-1" NCoef="0" cType="1" depth="7" nType="-99" pos="l" purity="0.0e+00" res="0.200027496" rms="0.0e+00"/>
                    <Node Cut="0.0e+00" IVar="-1" NCoef="0" cType="1" depth="7" nType="-99" pos="r" purity="0.0e+00" res="0.170027867" rms="0.0e+00"/>
                  </Node>
                </Node>
              </Node>
              <Node Cut="-0.92898798" IVar="1" NCoef="0" cType="1" depth="4" nType="0" pos="r" purity="0.0e+00" res="0.0e+00" rms="0.0e+00">
                <Node Cut="0.0e+00" IVar="-1" NCoef="0" cType="1" depth="5" nType="-99" pos="l" purity="0.0e+00" res="0.194048584" rms="0.0e+00"/>
                <Node Cut="-0.195191398" IVar="10" NCoef="0" cType="1" depth="5" nType="0" pos="r" purity="0.0e+00" res="0.0e+00" rms="0.0e+00">
                  <Node Cut="0.0e+00" IVar="-1" NCoef="0" cType="1" depth="6" nType="-99" pos="l" purity="0.0e+00" res="0.152037695" rms="0.0e+00"/>
                  <Node Cut="0.0e+00" IVar="-1" NCoef="0" cType="1" depth="6" nType="-99" pos="r" purity="0.0e+00" res="0.0568568967" rms="0.0e+00"/>
                </Node>
              </Node>
            </Node>
            <Node Cut="0.0e+00" IVar="-1" NCoef="0" cType="1" depth="3" nType="-99" pos="r" purity="0.0e+00" res="0.10770303" rms="0.0e+00"/>
          </Node>
          <Node Cut="-0.893249631" IVar="1" NCoef="0" cType="1" depth="2" nType="0" pos="r" purity="0.0e+00" res="0.0e+00" rms="0.0e+00">
            <Node Cut="0.0e+00" IVar="-1" NCoef="0" cType="1" depth="3" nType="-99" pos="l" purity="0.0e+00" res="0.0966035351" rms="0.0e+00"/>
            <Node Cut="2.65289736" IVar="11" NCoef="0" cType="1" depth="3" nType="0" pos="r" purity="0.0e+00" res="0.0e+00" rms="0.0e+00">
              <Node Cut="0.0e+00" IVar="-1" NCoef="0" cType="1" depth="4" nType="-99" pos="l" purity="0.0e+00" res="-0.207226187" rms="0.0e+00"/>
              <Node Cut="0.337915212" IVar="7" NCoef="0" cType="1" depth="4" nType="0" pos="r" purity="0.0e+00" res="0.0e+00" rms="0.0e+00">
                <Node Cut="0.0e+00" IVar="-1" NCoef="0" cType="1" depth="5" nType="-99" pos="l" purity="0.0e+00" res="-0.139769107" rms="0.0e+00"/>
                <Node Cut="0.0e+00" IVar="-1" NCoef="0" cType="1" depth="5" nType="-99" pos="r" purity="0.0e+00" res="-0.190333262" rms="0.0e+00"/>
              </Node>
            </Node>
          </Node>
        </Node>
      </Node>
    </BinaryTree>
    <BinaryTree boostWeight="1.0e+00" itree="2" type="DecisionTree">
      <Node Cut="2.81411505" IVar="13" NCoef="0" cType="1" depth="0" nType="0" pos="s" purity="0.0e+00" res="0.0e+00" rms="0.0e+00">
        <Node Cut="2.73613548" IVar="12" NCoef="0" cType="1" depth="1" nType="0" pos="l" purity="0.0e+00" res="0.0e+00" rms="0.0e+00">
          <Node Cut="2.42748713" IVar="13" NCoef="0" cType="1" depth="2" nType="0" pos="l" purity="0.0e+00" res="0.0e+00" rms="0.0e+00">
            <Node Cut="2.1714747" IVar="5" NCoef="0" cType="1" depth="3" nType="0" pos="l" purity="0.0e+00" res="0.0e+00" rms="0.0e+00">
              <Node Cut="2.15370703" IVar="12" NCoef="0" cType="1" depth="4" nType="0" pos="l" purity="0.0e+00" res="0.0e+00" rms="0.0e+00">
                <Node Cut="2.08116579" IVar="0" NCoef="0" cType="1" depth="5" nType="0" pos="l" purity="0.0e+00" res="0.0e+00" rms="0.0e+00">
                  <Node Cut="-1.68863797" IVar="6" NCoef="0" cType="1" depth="6" nType="0" pos="l" purity="0.0e+00" res="0.0e+00" rms="0.0e+00">
                    <Node Cut="-0.273117691" IVar="4" NCoef="0" cType="1" depth="7" nType="0" pos="l" purity="0.0e+00" res="0.0e+00" rms="0.0e+00">
                      <Node Cut="0.0e+00" IVar="-1" NCoef="0" cType="1" depth="8" nType="-99" pos="l" purity="0.0e+00" res="-0.187460825" rms="0.0e+00"/>
                      <Node Cut="0.0e+00" IVar="-1" NCoef="0" cType="1" depth="8" nType="-99" pos="r" purity="0.0e+00" res="-0.149934471" rms="0.0e+00"/>
                    </Node>
                    <Node Cut="1.80289936" IVar="7" NCoef="0" cType="1" depth="7" nType="0" pos="r" purity="0.0e+00" res="0.0e+00" rms="0.0e+00">
                      <Node Cut="0.0e+00" IVar="-1" NCoef="0" cType="1" depth="8" nType="-99" pos="l" purity="0.0e+00" res="-0.187203154" rms="0.0e+00"/>
                      <Node Cut="0.0e+00" IVar="-1" NCoef="0" cType="1" depth="8" nType="-99" pos="r" purity="0.0e+00" res="-0.171332493" rms="0.0e+00"/>
                    </Node>
                  </Node>
                  <Node Cut="-0.424358159" IVar="11" NCoef="0" cType="1" depth="6" nType="0" pos="r" purity="0.0e+00" res="0.0e+00" rms="0.0e+00">
                    <Node Cut="0.0e+00" IVar="-1" NCoef="0" cType="1" depth="7" nType="-99" pos="l" purity="0.0e+00" res="-0.184795558" rms="0.0e+00"/>
                    <Node Cut="0.402739435" IVar="9" NCoef="0" cType="1" depth="7" nType="0" pos="r" purity="0.0e+00" res="0.0e+00" rms="0.0e+00">
                      <Node Cut="0.0e+00" IVar="-1" NCoef="0" cType="1" depth="8" nType="-99" pos="l" purity="0.0e+00" res="-0.189338043" rms="0.0e+00"/>
                      <Node Cut="0.0e+00" IVar="-1" NCoef="0" cType="1" depth="8" nType="-99" pos="r" purity="0.0e+00" res="-0.143502697" rms="0.0e+00"/>
                    </Node>
                  </Node>
                </Node>
                <Node Cut="-0.079402864" IVar="5" NCoef="0" cType="1" depth="5" nType="0" pos="r" purity="0.0e+00" res="0.0e+00" rms="0.0e+00">
                  <Node Cut="0.0e+00" IVar="-1" NCoef="0" cType="1" depth="6" nType="-99" pos="l" purity="0.0e+00" res="-0.149640992" rms="0.0e+00"/>
                  <Node Cut="0.0e+00" IVar="-1" NCoef="0" cType="1" depth="6" nType="-99" pos="r" purity="0.0e+00" res="-0.188541114" rms="0.0e+00"/>
                </Node>
              </Node>
              <Node Cut="0.0e+00" IVar="-1" NCoef="0" cType="1" depth="4" nType="-99" pos="r" purity="0.0e+00" res="-0.160063431" rms="0.0e+00"/>
            </Node>
            <Node Cut="0.0e+00" IVar="-1" NCoef="0" cType="1" depth="3" nType="-99" pos="r" purity="0.0e+00" res="-0.129781723" rms="0.0e+00"/>
          </Node>
          <Node Cut="-1.3167969" IVar="9" NCoef="0" cType="1" depth="2" nType="0" pos="r" purity="0.0e+00" res="0.0e+00" rms="0.0e+00">
            <Node Cut="0.0e+00" IVar="-1" NCoef="0" cType="1" depth="3" nType="-99" pos="l" purity="0.0e+00" res="0.199235216" rms="0.0e+00"/>
            <Node Cut="0.0e+00" IVar="-1" NCoef="0" cType="1" depth="3" nType="-99" pos="r" purity="0.0e+00" res="-0.198037326" rms="0.0e+00"/>
          </Node>
        </Node>
        <Node Cut="-0.973281622" IVar="9" NCoef="0" cType="1" depth="1" nType="0" pos="r" purity="0.0e+00" res="0.0e+00" rms="0.0e+00">
          <Node Cut="-1.18134975" IVar="9" NCoef="0" cType="1" depth="2" nType="0" pos="l" purity="0.0e+00" res="0.0e+00" rms="0.0e+00">
            <Node Cut="-0.95491612" IVar="1" NCoef="0" cType="1" depth="3" nType="0" pos="l" purity="0.0e+00" res="0.0e+00" rms="0.0e+00">
              <Node Cut="0.0e+00" IVar="-1" NCoef="0" cType="1" depth="4" nType="-99" pos="l" purity="0.0e+00" res="0.185052395" rms="0.0e+00"/>
              <Node Cut="-1.51160336" IVar="9" NCoef="0" cType="1" depth="4" nType="0" pos="r" purity="0.0e+00" res="0.0e+00" rms="0.0e+00">
                <Node Cut="-1.59160948" IVar="9" NCoef="0" cType="1" depth="5" nType="0" pos="l" purity="0.0e+00" res="0.0e+00" rms="0.0e+00">
                  <Node Cut="0.0e+00" IVar="-1" NCoef="0" cType="1" depth="6" nType="-99" pos="l" purity="0.0e+00" res="0.182784095" rms="0.0e+00"/>
                  <Node Cut="0.0e+00" IVar="-1" NCoef="0" cType="1" depth="6" nType="-99" pos="r" purity="0.0e+00" res="0.174038261" rms="0.0e+00"/>
                </Node>
                <Node Cut="0.129022777" IVar="10" NCoef="0" cType="1" depth="5" nType="0" pos="r" purity="0.0e+00" res="0.0e+00" rms="0.0e+00">
                  <Node Cut="0.0e+00" IVar="-1" NCoef="0" cType="1" depth="6" nType="-99" pos="l" purity="0.0e+00" res="0.0765656382" rms="0.0e+00"/>
                  <Node Cut="0.0e+00" IVar="-1" NCoef="0" cType="1" depth="6" nType="-99" pos="r" purity="0.0e+00" res="0.148320392" rms="0.0e+00"/>
                </Node>
              </Node>
            </Node>
            <Node Cut="0.292867988" IVar="10" NCoef="0" cType="1" depth="3" nType="0" pos="r" purity="0.0e+00" res="0.0e+00" rms="0.0e+00">
              <Node Cut="0.0e+00" IVar="-1" NCoef="0" cType="1" depth="4" nType="-99" pos="l" purity="0.0e+00" res="0.101430133" rms="0.0e+00"/>
              <Node Cut="0.0e+00" IVar="-1" NCoef="0" cType="1" depth="4" nType="-99" pos="r" purity="0.0e+00" res="0.158271864" rms="0.0e+00"/>
            </Node>
          </Node>
          <Node Cut="-0.861702859" IVar="1" NCoef="0" cType="1" depth="2" nType="0" pos="r" purity="0.0e+00" res="0.0e+00" rms="0.0e+00">
            <Node Cut="0.0e+00" IVar="-1" NCoef="0" cType="1" depth="3" nType="-99" pos="l" purity="0.0e+00" res="0.0750260353" rms="0.0e+00"/>
            <Node Cut="-0.451350093" IVar="3" NCoef="0" cType="1" depth="3" nType="0" pos="r" purity="0.0e+00" res="0.0e+00" rms="0.0e+00">
              <Node Cut="-0.491593719" IVar="3" NCoef="0" cType="1" depth="4" nType="0" pos="l" purity="0.0e+00" res="0.0e+00" rms="0.0e+00">
                <Node Cut="0.0e+00" IVar="-1" NCoef="0" cType="1" depth="5" nType="-99" pos="l" purity="0.0e+00" res="-0.165229082" rms="0.0e+00"/>
                <Node Cut="0.0e+00" IVar="-1" NCoef="0" cType="1" depth="5" nType="-99" pos="r" purity="0.0e+00" res="-0.190649062" rms="0.0e+00"/>
              </Node>
              <Node Cut="0.0e+00" IVar="-1" NCoef="0" cType="1" depth="4" nType="-99" pos="r" purity="0.0e+00" res="-0.137841702" rms="0.0e+00"/>
            </Node>
          </Node>
        </Node>
      </Node>
    </BinaryTree>
    <BinaryTree boostWeight="1.0e+00" itree="3" type="DecisionTree">
      <Node Cut="2.81411505" IVar="13" NCoef="0" cType="1" depth="0" nType="0" pos="s" purity="0.0e+00" res="0.0e+00" rms="0.0e+00">
        <Node Cut="-1.54275608" IVar="9" NCoef="0" cType="1" depth="1" nType="0" pos="l" purity="0.0e+00" res="0.0e+00" rms="0.0e+00">
          <Node Cut="1.9437753" IVar="12" NCoef="0" cType="1" depth="2" nType="0" pos="l" purity="0.0e+00" res="0.0e+00" rms="0.0e+00">
            <Node Cut="0.0e+00" IVar="-1" NCoef="0" cType="1" depth="3" nType="-99" pos="l" purity="0.0e+00" res="-0.171479657" rms="0.0e+00"/>
            <Node Cut="0.0e+00" IVar="-1" NCoef="0" cType="1" depth="3" nType="-99" pos="r" purity="0.0e+00" res="0.175246954" rms="0.0e+00"/>
          </Node>
          <Node Cut="-1.3167969" IVar="9" NCoef="0" cType="1" depth="2" nType="0" pos="r" purity="0.0e+00" res="0.0e+00" rms="0.0e+00">
            <Node Cut="1.77730191" IVar="11" NCoef="0" cType="1" depth="3" nType="0" pos="l" purity="0.0e+00" res="0.0e+00" rms="0.0e+00">
              <Node Cut="-0.146819189" IVar="10" NCoef="0" cType="1" depth="4" nType="0" pos="l" purity="0.0e+00" res="0.0e+00" rms="0.0e+00">
                <Node Cut="0.0e+00" IVar="-1" NCoef="0" cType="1" depth="5" nType="-99" pos="l" purity="0.0e+00" res="-0.157743782" rms="0.0e+00"/>
                <Node Cut="0.0e+00" IVar="-1" NCoef="0" cType="1" depth="5" nType="-99" pos="r" purity="0.0e+00" res="-0.17549248" rms="0.0e+00"/>
              </Node>
              <Node Cut="0.0e+00" IVar="-1" NCoef="0" cType="1" depth="4" nType="-99" pos="r" purity="0.0e+00" res="0.0617119893" rms="0.0e+00"/>
            </Node>
            <Node Cut="2.1714747" IVar="5" NCoef="0" cType="1" depth="3" nType="0" pos="r" purity="0.0e+00" res="0.0e+00" rms="0.0e+00">
              <Node Cut="1.30892336" IVar="13" NCoef="0" cType="1" depth="4" nType="0" pos="l" purity="0.0e+00" res="0.0e+00" rms="0.0e+00">
                <Node Cut="0.468572915" IVar="0" NCoef="0" cType="1" depth="5" nType="0" pos="l" purity="0.0e+00" res="0.0e+00" rms="0.0e+00">
                  <Node Cut="0.0e+00" IVar="-1" NCoef="0" cType="1" depth="6" nType="-99" pos="l" purity="0.0e+00" res="-0.174701765" rms="0.0e+00"/>
                  <Node Cut="0.42859301" IVar="9" NCoef="0" cType="1" depth="6" nType="0" pos="r" purity="0.0e+00" res="0.0e+00" rms="0.0e+00">
                    <Node Cut="0.24843283" IVar="9" NCoef="0" cType="1" depth="7" nType="0" pos="l" purity="0.0e+00" res="0.0e+00" rms="0.0e+00">
                      <Node Cut="0.609789371" IVar="1" NCoef="0" cType="1" depth="8" nType="0" pos="l" purity="0.0e+00" res="0.0e+00" rms="0.0e+00">
                        <Node Cut="-0.739354193" IVar="10" NCoef="0" cType="1" depth="9" nType="0" pos="l" purity="0.0e+00" res="0.0e+00" rms="0.0e+00">
                          <Node Cut="0.0e+00" IVar="-1" NCoef="0" cType="1" depth="10" nType="-99" pos="l" purity="0.0e+00" res="-0.128184557" rms="0.0e+00"/>
                          <Node Cut="0.0e+00" IVar="-1" NCoef="0" cType="1" depth="10" nType="-99" pos="r" purity="0.0e+00" res="-0.16761975" rms="0.0e+00"/>
                        </Node>
                        <Node Cut="0.0e+00" IVar="-1" NCoef="0" cType="1" depth="9" nType="-99" pos="r" purity="0.0e+00" res="-0.175567985" rms="0.0e+00"/>
                      </Node>
                      <Node Cut="0.0e+00" IVar="-1" NCoef="0" cType="1" depth="8" nType="-99" pos="r" purity="0.0e+00" res="-0.13036643" rms="0.0e+00"/>
                    </Node>
                    <Node Cut="0.0e+00" IVar="-1" NCoef="0" cType="1" depth="7" nType="-99" pos="r" purity="0.0e+00" res="-0.175810426" rms="0.0e+00"/>
                  </Node>
                </Node>
                <Node Cut="-0.621014237" IVar="2" NCoef="0" cType="1" depth="5" nType="0" pos="r" purity="0.0e+00" res="0.0e+00" rms="0.0e+00">
                  <Node Cut="0.0e+00" IVar="-1" NCoef="0" cType="1" depth="6" nType="-99" pos="l" purity="0.0e+00" res="-0.126180395" rms="0.0e+00"/>
                  <Node Cut="-0.731810033" IVar="9" NCoef="0" cType="1" depth="6" nType="0" pos="r" purity="0.0e+00" res="0.0e+00" rms="0.0e+00">
                    <Node Cut="0.0e+00" IVar="-1" NCoef="0" cType="1" depth="7" nType="-99" pos="l" purity="0.0e+00" res="-0.154634461" rms="0.0e+00"/>
                    <Node Cut="0.0e+00" IVar="-1" NCoef="0" cType="1" depth="7" nType="-99" pos="r" purity="0.0e+00" res="-0.178698927" rms="0.0e+00"/>
                  </Node>
                </Node>
              </Node>
              <Node Cut="0.0e+00" IVar="-1" NCoef="0" cType="1" depth="4" nType="-99" pos="r" purity="0.0e+00" res="-0.149093866" rms="0.0e+00"/>
            </Node>
          </Node>
        </Node>
        <Node Cut="-0.516426742" IVar="2" NCoef="0" cType="1" depth="1" nType="0" pos="r" purity="0.0e+00" res="0.0e+00" rms="0.0e+00">
          <Node Cut="-1.06678021" IVar="9" NCoef="0" cType="1" depth="2" nType="0" pos="l" purity="0.0e+00" res="0.0e+00" rms="0.0e+00">
            <Node Cut="-1.51956773" IVar="9" NCoef="0" cType="1" depth="3" nType="0" pos="l" purity="0.0e+00" res="0.0e+00" rms="0.0e+00">
              <Node Cut="-1.00569427" IVar="1" NCoef="0" cType="1" depth="4" nType="0" pos="l" purity="0.0e+00" res="0.0e+00" rms="0.0e+00">
                <Node Cut="0.0e+00" IVar="-1" NCoef="0" cType="1" depth="5" nType="-99" pos="l" purity="0.0e+00" res="0.172973365" rms="0.0e+00"/>
                <Node Cut="0.0e+00" IVar="-1" NCoef="0" cType="1" depth="5" nType="-99" pos="r" purity="0.0e+00" res="0.169314966" rms="0.0e+00"/>
              </Node>
              <Node Cut="-0.950212896" IVar="1" NCoef="0" cType="1" depth="4" nType="0" pos="r" purity="0.0e+00" res="0.0e+00" rms="0.0e+00">
                <Node Cut="0.0e+00" IVar="-1" NCoef="0" cType="1" depth="5" nType="-99" pos="l" purity="0.0e+00" res="0.167461917" rms="0.0e+00"/>
                <Node Cut="-0.437601298" IVar="3" NCoef="0" cType="1" depth="5" nType="0" pos="r" purity="0.0e+00" res="0.0e+00" rms="0.0e+00">
                  <Node Cut="0.0e+00" IVar="-1" NCoef="0" cType="1" depth="6" nType="-99" pos="l" purity="0.0e+00" res="0.104338154" rms="0.0e+00"/>
                  <Node Cut="0.0e+00" IVar="-1" NCoef="0" cType="1" depth="6" nType="-99" pos="r" purity="0.0e+00" res="0.153565302" rms="0.0e+00"/>
                </Node>
              </Node>
            </Node>
            <Node Cut="1.32147372" IVar="6" NCoef="0" cType="1" depth="3" nType="0" pos="r" purity="0.0e+00" res="0.0e+00" rms="0.0e+00">
              <Node Cut="0.0e+00" IVar="-1" NCoef="0" cType="1" depth="4" nType="-99" pos="l" purity="0.0e+00" res="-0.00404505618" rms="0.0e+00"/>
              <Node Cut="0.0e+00" IVar="-1" NCoef="0" cType="1" depth="4" nType="-99" pos="r" purity="0.0e+00" res="0.152385473" rms="0.0e+00"/>
            </Node>
          </Node>
          <Node Cut="3.17923212" IVar="12" NCoef="0" cType="1" depth="2" nType="0" pos="r" purity="0.0e+00" res="0.0e+00" rms="0.0e+00">
            <Node Cut="0.100739248" IVar="10" NCoef="0" cType="1" depth="3" nType="0" pos="l" purity="0.0e+00" res="0.0e+00" rms="0.0e+00">
              <Node Cut="0.0e+00" IVar="-1" NCoef="0" cType="1" depth="4" nType="-99" pos="l" purity="0.0e+00" res="-0.120384812" rms="0.0e+00"/>
              <Node Cut="0.0e+00" IVar="-1" NCoef="0" cType="1" depth="4" nType="-99" pos="r" purity="0.0e+00" res="-0.183929428" rms="0.0e+00"/>
            </Node>
            <Node Cut="0.0e+00" IVar="-1" NCoef="0" cType="1" depth="3" nType="-99" pos="r" purity="0.0e+00" res="0.0122419531" rms="0.0e+00"/>
          </Node>
        </Node>
      </Node>
    </BinaryTree>
    <BinaryTree boostWeight="1.0e+00" itree="4" type="DecisionTree">
      <Node Cut="2.81411505" IVar="13" NCoef="0" cType="1" depth="0" nType="0" pos="s" purity="0.0e+00" res="0.0e+00" rms="0.0e+00">
        <Node Cut="-1.54275608" IVar="9" NCoef="0" cType="1" depth="1" nType="0" pos="l" purity="0.0e+00" res="0.0e+00" rms="0.0e+00">
          <Node Cut="1.9437753" IVar="12" NCoef="0" cType="1" depth="2" nType="0" pos="l" purity="0.0e+00" res="0.0e+00" rms="0.0e+00">
            <Node Cut="-0.386549324" IVar="4" NCoef="0" cType="1" depth="3" nType="0" pos="l" purity="0.0e+00" res="0.0e+00" rms="0.0e+00">
              <Node Cut="0.0e+00" IVar="-1" NCoef="0" cType="1" depth="4" nType="-99" pos="l" purity="0.0e+00" res="-0.17017284" rms="0.0e+00"/>
              <Node Cut="0.0e+00" IVar="-1" NCoef="0" cType="1" depth="4" nType="-99" pos="r" purity="0.0e+00" res="-0.149673909" rms="0.0e+00"/>
            </Node>
            <Node Cut="0.0e+00" IVar="-1" NCoef="0" cType="1" depth="3" nType="-99" pos="r" purity="0.0e+00" res="0.164322928" rms="0.0e+00"/>
          </Node>
          <Node Cut="-0.748647094" IVar="0" NCoef="0" cType="1" depth="2" nType="0" pos="r" purity="0.0e+00" res="0.0e+00" rms="0.0e+00">
            <Node Cut="-0.751768589" IVar="0" NCoef="0" cType="1" depth="3" nType="0" pos="l" purity="0.0e+00" res="0.0e+00" rms="0.0e+00">
              <Node Cut="0.0e+00" IVar="-1" NCoef="0" cType="1" depth="4" nType="-99" pos="l" purity="0.0e+00" res="-0.150437012" rms="0.0e+00"/>
              <Node Cut="0.0e+00" IVar="-1" NCoef="0" cType="1" depth="4" nType="-99" pos="r" purity="0.0e+00" res="-0.0853649154" rms="0.0e+00"/>
            </Node>
            <Node Cut="2.01843572" IVar="5" NCoef="0" cType="1" depth="3" nType="0" pos="r" purity="0.0e+00" res="0.0e+00" rms="0.0e+00">
              <Node Cut="-1.29794121" IVar="9" NCoef="0" cType="1" depth="4" nType="0" pos="l" purity="0.0e+00" res="0.0e+00" rms="0.0e+00">
                <Node Cut="-0.558751047" IVar="4" NCoef="0" cType="1" depth="5" nType="0" pos="l" purity="0.0e+00" res="0.0e+00" rms="0.0e+00">
                  <Node Cut="0.0e+00" IVar="-1" NCoef="0" cType="1" depth="6" nType="-99" pos="l" purity="0.0e+00" res="-0.119181938" rms="0.0e+00"/>
                  <Node Cut="0.357948482" IVar="5" NCoef="0" cType="1" depth="6" nType="0" pos="r" purity="0.0e+00" res="0.0e+00" rms="0.0e+00">
                    <Node Cut="0.0e+00" IVar="-1" NCoef="0" cType="1" depth="7" nType="-99" pos="l" purity="0.0e+00" res="-0.16722405" rms="0.0e+00"/>
                    <Node Cut="0.0880275816" IVar="7" NCoef="0" cType="1" depth="7" nType="0" pos="r" purity="0.0e+00" res="0.0e+00" rms="0.0e+00">
                      <Node Cut="0.0e+00" IVar="-1" NCoef="0" cType="1" depth="8" nType="-99" pos="l" purity="0.0e+00" res="-0.113841027" rms="0.0e+00"/>
                      <Node Cut="0.0e+00" IVar="-1" NCoef="0" cType="1" depth="8" nType="-99" pos="r" purity="0.0e+00" res="-0.166784301" rms="0.0e+00"/>
                    </Node>
                  </Node>
                </Node>
                <Node Cut="-0.401276827" IVar="13" NCoef="0" cType="1" depth="5" nType="0" pos="r" purity="0.0e+00" res="0.0e+00" rms="0.0e+00">
                  <Node Cut="0.0e+00" IVar="-1" NCoef="0" cType="1" depth="6" nType="-99" pos="l" purity="0.0e+00" res="-0.164782688" rms="0.0e+00"/>
                  <Node Cut="1.80289936" IVar="7" NCoef="0" cType="1" depth="6" nType="0" pos="r" purity="0.0e+00" res="0.0e+00" rms="0.0e+00">
                    <Node Cut="1.64392686" IVar="6" NCoef="0" cType="1" depth="7" nType="0" pos="l" purity="0.0e+00" res="0.0e+00" rms="0.0e+00">
                      <Node Cut="-0.19802092" IVar="2" NCoef="0" cType="1" depth="8" nType="0" pos="l" purity="0.0e+00" res="0.0e+00" rms="0.0e+00">
                        <Node Cut="0.0e+00" IVar="-1" NCoef="0" cType="1" depth="9" nType="-99" pos="l" purity="0.0e+00" res="-0.165075228" rms="0.0e+00"/>
                        <Node Cut="-0.712718904" IVar="9" NCoef="0" cType="1" depth="9" nType="0" pos="r" purity="0.0e+00" res="0.0e+00" rms="0.0e+00">
                          <Node Cut="0.0e+00" IVar="-1" NCoef="0" cType="1" depth="10" nType="-99" pos="l" purity="0.0e+00" res="-0.13655065" rms="0.0e+00"/>
                          <Node Cut="0.0e+00" IVar="-1" NCoef="0" cType="1" depth="10" nType="-99" pos="r" purity="0.0e+00" res="-0.163171485" rms="0.0e+00"/>
                        </Node>
                      </Node>
                      <Node Cut="0.0e+00" IVar="-1" NCoef="0" cType="1" depth="8" nType="-99" pos="r" purity="0.0e+00" res="-0.137950867" rms="0.0e+00"/>
                    </Node>
                    <Node Cut="0.0e+00" IVar="-1" NCoef="0" cType="1" depth="7" nType="-99" pos="r" purity="0.0e+00" res="-0.135394245" rms="0.0e+00"/>
                  </Node>
                </Node>
              </Node>
              <Node Cut="0.44469285" IVar="2" NCoef="0" cType="1" depth="4" nType="0" pos="r" purity="0.0e+00" res="0.0e+00" rms="0.0e+00">
                <Node Cut="0.0e+00" IVar="-1" NCoef="0" cType="1" depth="5" nType="-99" pos="l" purity="0.0e+00" res="-0.1056704" rms="0.0e+00"/>
                <Node Cut="0.0e+00" IVar="-1" NCoef="0" cType="1" depth="5" nType="-99" pos="r" purity="0.0e+00" res="-0.167073309" rms="0.0e+00"/>
              </Node>
            </Node>
          </Node>
        </Node>
        <Node Cut="-0.973281622" IVar="9" NCoef="0" cType="1" depth="1" nType="0" pos="r" purity="0.0e+00" res="0.0e+00" rms="0.0e+00">
          <Node Cut="-1.10542405" IVar="9" NCoef="0" cType="1" depth="2" nType="0" pos="l" purity="0.0e+00" res="0.0e+00" rms="0.0e+00">
            <Node Cut="-0.95491612" IVar="1" NCoef="0" cType="1" depth="3" nType="0" pos="l" purity="0.0e+00" res="0.0e+00" rms="0.0e+00">
              <Node Cut="-1.57737672" IVar="9" NCoef="0" cType="1" depth="4" nType="0" pos="l" purity="0.0e+00" res="0.0e+00" rms="0.0e+00">
                <Node Cut="0.0e+00" IVar="-1" NCoef="0" cType="1" depth="5" nType="-99" pos="l" purity="0.0e+00" res="0.162952662" rms="0.0e+00"/>
                <Node Cut="0.0e+00" IVar="-1" NCoef="0" cType="1" depth="5" nType="-99" pos="r" purity="0.0e+00" res="0.159628943" rms="0.0e+00"/>
              </Node>
              <Node Cut="-1.47700775" IVar="9" NCoef="0" cType="1" depth="4" nType="0" pos="r" purity="0.0e+00" res="0.0e+00" rms="0.0e+00">
                <Node Cut="-0.675569296" IVar="0" NCoef="0" cType="1" depth="5" nType="0" pos="l" purity="0.0e+00" res="0.0e+00" rms="0.0e+00">
                  <Node Cut="0.0e+00" IVar="-1" NCoef="0" cType="1" depth="6" nType="-99" pos="l" purity="0.0e+00" res="0.104724891" rms="0.0e+00"/>
                  <Node Cut="-1.58191919" IVar="9" NCoef="0" cType="1" depth="6" nType="0" pos="r" purity="0.0e+00" res="0.0e+00" rms="0.0e+00">
                    <Node Cut="0.0e+00" IVar="-1" NCoef="0" cType="1" depth="7" nType="-99" pos="l" purity="0.0e+00" res="0.160593703" rms="0.0e+00"/>
                    <Node Cut="-0.019021038" IVar="0" NCoef="0" cType="1" depth="7" nType="0" pos="r" purity="0.0e+00" res="0.0e+00" rms="0.0e+00">
                      <Node Cut="0.0e+00" IVar="-1" NCoef="0" cType="1" depth="8" nType="-99" pos="l" purity="0.0e+00" res="0.141368151" rms="0.0e+00"/>
                      <Node Cut="0.0e+00" IVar="-1" NCoef="0" cType="1" depth="8" nType="-99" pos="r" purity="0.0e+00" res="0.160866469" rms="0.0e+00"/>
                    </Node>
                  </Node>
                </Node>
                <Node Cut="1.28110194" IVar="3" NCoef="0" cType="1" depth="5" nType="0" pos="r" purity="0.0e+00" res="0.0e+00" rms="0.0e+00">
                  <Node Cut="0.0e+00" IVar="-1" NCoef="0" cType="1" depth="6" nType="-99" pos="l" purity="0.0e+00" res="0.0442363955" rms="0.0e+00"/>
                  <Node Cut="0.0e+00" IVar="-1" NCoef="0" cType="1" depth="6" nType="-99" pos="r" purity="0.0e+00" res="0.126125127" rms="0.0e+00"/>
                </Node>
              </Node>
            </Node>
            <Node Cut="0.0e+00" IVar="-1" NCoef="0" cType="1" depth="3" nType="-99" pos="r" purity="0.0e+00" res="0.0723486319" rms="0.0e+00"/>
          </Node>
          <Node Cut="-0.850887477" IVar="1" NCoef="0" cType="1" depth="2" nType="0" pos="r" purity="0.0e+00" res="0.0e+00" rms="0.0e+00">
            <Node Cut="0.0e+00" IVar="-1" NCoef="0" cType="1" depth="3" nType="-99" pos="l" purity="0.0e+00" res="0.0426723957" rms="0.0e+00"/>
            <Node Cut="0.819207609" IVar="7" NCoef="0" cType="1" depth="3" nType="0" pos="r" purity="0.0e+00" res="0.0e+00" rms="0.0e+00">
              <Node Cut="0.0e+00" IVar="-1" NCoef="0" cType="1" depth="4" nType="-99" pos="l" purity="0.0e+00" res="-0.175545424" rms="0.0e+00"/>
              <Node Cut="0.0e+00" IVar="-1" NCoef="0" cType="1" depth="4" nType="-99" pos="r" purity="0.0e+00" res="-0.150157049" rms="0.0e+00"/>
            </Node>
          </Node>
        </Node>
      </Node>
    </BinaryTree>
    <BinaryTree boostWeight="1.0e+00" itree="5" type="DecisionTree">
      <Node Cut="2.81411505" IVar="13" NCoef="0" cType="1" depth="0" nType="0" pos="s" purity="0.0e+00" res="0.0e+00" rms="0.0e+00">
        <Node Cut="2.73613548" IVar="12" NCoef="0" cType="1" depth="1" nType="0" pos="l" purity="0.0e+00" res="0.0e+00" rms="0.0e+00">
          <Node Cut="2.42748713" IVar="13" NCoef="0" cType="1" depth="2" nType="0" pos="l" purity="0.0e+00" res="0.0e+00" rms="0.0e+00">
            <Node Cut="-0.42439571" IVar="11" NCoef="0" cType="1" depth="3" nType="0" pos="l" purity="0.0e+00" res="0.0e+00" rms="0.0e+00">
              <Node Cut="0.0e+00" IVar="-1" NCoef="0" cType="1" depth="4" nType="-99" pos="l" purity="0.0e+00" res="-0.156527832" rms="0.0e+00"/>
              <Node Cut="1.5262959" IVar="6" NCoef="0" cType="1" depth="4" nType="0" pos="r" purity="0.0e+00" res="0.0e+00" rms="0.0e+00">
                <Node Cut="-0.424386293" IVar="11" NCoef="0" cType="1" depth="5" nType="0" pos="l" purity="0.0e+00" res="0.0e+00" rms="0.0e+00">
                  <Node Cut="-0.508435607" IVar="1" NCoef="0" cType="1" depth="6" nType="0" pos="l" purity="0.0e+00" res="0.0e+00" rms="0.0e+00">
                    <Node Cut="0.0e+00" IVar="-1" NCoef="0" cType="1" depth="7" nType="-99" pos="l" purity="0.0e+00" res="-0.0908638239" rms="0.0e+00"/>
                    <Node Cut="0.0e+00" IVar="-1" NCoef="0" cType="1" depth="7" nType="-99" pos="r" purity="0.0e+00" res="-0.157350376" rms="0.0e+00"/>
                  </Node>
                  <Node Cut="3.29669905" IVar="0" NCoef="0" cType="1" depth="6" nType="0" pos="r" purity="0.0e+00" res="0.0e+00" rms="0.0e+00">
                    <Node Cut="-0.401276678" IVar="13" NCoef="0" cType="1" depth="7" nType="0" pos="l" purity="0.0e+00" res="0.0e+00" rms="0.0e+00">
                      <Node Cut="-0.47666958" IVar="3" NCoef="0" cType="1" depth="8" nType="0" pos="l" purity="0.0e+00" res="0.0e+00" rms="0.0e+00">
                        <Node Cut="0.0e+00" IVar="-1" NCoef="0" cType="1" depth="9" nType="-99" pos="l" purity="0.0e+00" res="-0.109985523" rms="0.0e+00"/>
                        <Node Cut="0.0e+00" IVar="-1" NCoef="0" cType="1" depth="9" nType="-99" pos="r" purity="0.0e+00" res="-0.15715462" rms="0.0e+00"/>
                      </Node>
                      <Node Cut="-0.572475314" IVar="4" NCoef="0" cType="1" depth="8" nType="0" pos="r" purity="0.0e+00" res="0.0e+00" rms="0.0e+00">
                        <Node Cut="-0.304510266" IVar="9" NCoef="0" cType="1" depth="9" nType="0" pos="l" purity="0.0e+00" res="0.0e+00" rms="0.0e+00">
                          <Node Cut="0.0e+00" IVar="-1" NCoef="0" cType="1" depth="10" nType="-99" pos="l" purity="0.0e+00" res="-0.158431619" rms="0.0e+00"/>
                          <Node Cut="0.0e+00" IVar="-1" NCoef="0" cType="1" depth="10" nType="-99" pos="r" purity="0.0e+00" res="-0.134966612" rms="0.0e+00"/>
                        </Node>
                        <Node Cut="1.3797375" IVar="6" NCoef="0" cType="1" depth="9" nType="0" pos="r" purity="0.0e+00" res="0.0e+00" rms="0.0e+00">
                          <Node Cut="0.0e+00" IVar="-1" NCoef="0" cType="1" depth="10" nType="-99" pos="l" purity="0.0e+00" res="-0.157061189" rms="0.0e+00"/>
                          <Node Cut="0.0e+00" IVar="-1" NCoef="0" cType="1" depth="10" nType="-99" pos="r" purity="0.0e+00" res="-0.145516708" rms="0.0e+00"/>
                        </Node>
                      </Node>
                    </Node>
                    <Node Cut="0.0e+00" IVar="-1" NCoef="0" cType="1" depth="7" nType="-99" pos="r" purity="0.0e+00" res="-0.122800671" rms="0.0e+00"/>
                  </Node>
                </Node>
                <Node Cut="0.0304860193" IVar="10" NCoef="0" cType="1" depth="5" nType="0" pos="r" purity="0.0e+00" res="0.0e+00" rms="0.0e+00">
                  <Node Cut="0.0e+00" IVar="-1" NCoef="0" cType="1" depth="6" nType="-99" pos="l" purity="0.0e+00" res="-0.158056438" rms="0.0e+00"/>
                  <Node Cut="0.0e+00" IVar="-1" NCoef="0" cType="1" depth="6" nType="-99" pos="r" purity="0.0e+00" res="-0.0982653797" rms="0.0e+00"/>
                </Node>
              </Node>
            </Node>
            <Node Cut="0.0e+00" IVar="-1" NCoef="0" cType="1" depth="3" nType="-99" pos="r" purity="0.0e+00" res="-0.0914744809" rms="0.0e+00"/>
          </Node>
          <Node Cut="-1.21691167" IVar="9" NCoef="0" cType="1" depth="2" nType="0" pos="r" purity="0.0e+00" res="0.0e+00" rms="0.0e+00">
            <Node Cut="0.0e+00" IVar="-1" NCoef="0" cType="1" depth="3" nType="-99" pos="l" purity="0.0e+00" res="0.166301429" rms="0.0e+00"/>
            <Node Cut="1.94216371" IVar="13" NCoef="0" cType="1" depth="3" nType="0" pos="r" purity="0.0e+00" res="0.0e+00" rms="0.0e+00">
              <Node Cut="0.0e+00" IVar="-1" NCoef="0" cType="1" depth="4" nType="-99" pos="l" purity="0.0e+00" res="-0.141220689" rms="0.0e+00"/>
              <Node Cut="0.0e+00" IVar="-1" NCoef="0" cType="1" depth="4" nType="-99" pos="r" purity="0.0e+00" res="-0.164626867" rms="0.0e+00"/>
            </Node>
          </Node>
        </Node>
        <Node Cut="-0.768977284" IVar="9" NCoef="0" cType="1" depth="1" nType="0" pos="r" purity="0.0e+00" res="0.0e+00" rms="0.0e+00">
          <Node Cut="-1.18134975" IVar="9" NCoef="0" cType="1" depth="2" nType="0" pos="l" purity="0.0e+00" res="0.0e+00" rms="0.0e+00">
            <Node Cut="-1.51956773" IVar="9" NCoef="0" cType="1" depth="3" nType="0" pos="l" purity="0.0e+00" res="0.0e+00" rms="0.0e+00">
              <Node Cut="-1.00841177" IVar="1" NCoef="0" cType="1" depth="4" nType="0" pos="l" purity="0.0e+00" res="0.0e+00" rms="0.0e+00">
                <Node Cut="0.0e+00" IVar="-1" NCoef="0" cType="1" depth="5" nType="-99" pos="l" purity="0.0e+00" res="0.155075386" rms="0.0e+00"/>
                <Node Cut="-1.58699059" IVar="9" NCoef="0" cType="1" depth="5" nType="0" pos="r" purity="0.0e+00" res="0.0e+00" rms="0.0e+00">
                  <Node Cut="0.0e+00" IVar="-1" NCoef="0" cType="1" depth="6" nType="-99" pos="l" purity="0.0e+00" res="0.152889743" rms="0.0e+00"/>
                  <Node Cut="0.0e+00" IVar="-1" NCoef="0" cType="1" depth="6" nType="-99" pos="r" purity="0.0e+00" res="0.142599776" rms="0.0e+00"/>
                </Node>
              </Node>
              <Node Cut="-0.95491612" IVar="1" NCoef="0" cType="1" depth="4" nType="0" pos="r" purity="0.0e+00" res="0.0e+00" rms="0.0e+00">
                <Node Cut="-0.732411027" IVar="0" NCoef="0" cType="1" depth="5" nType="0" pos="l" purity="0.0e+00" res="0.0e+00" rms="0.0e+00">
                  <Node Cut="-1.38384092" IVar="9" NCoef="0" cType="1" depth="6" nType="0" pos="l" purity="0.0e+00" res="0.0e+00" rms="0.0e+00">
                    <Node Cut="0.0e+00" IVar="-1" NCoef="0" cType="1" depth="7" nType="-99" pos="l" purity="0.0e+00" res="0.150053024" rms="0.0e+00"/>
                    <Node Cut="0.0e+00" IVar="-1" NCoef="0" cType="1" depth="7" nType="-99" pos="r" purity="0.0e+00" res="0.135678291" rms="0.0e+00"/>
                  </Node>
                  <Node Cut="0.0e+00" IVar="-1" NCoef="0" cType="1" depth="6" nType="-99" pos="r" purity="0.0e+00" res="0.154859751" rms="0.0e+00"/>
                </Node>
                <Node Cut="-0.45065257" IVar="3" NCoef="0" cType="1" depth="5" nType="0" pos="r" purity="0.0e+00" res="0.0e+00" rms="0.0e+00">
                  <Node Cut="0.0e+00" IVar="-1" NCoef="0" cType="1" depth="6" nType="-99" pos="l" purity="0.0e+00" res="0.0746095404" rms="0.0e+00"/>
                  <Node Cut="0.0e+00" IVar="-1" NCoef="0" cType="1" depth="6" nType="-99" pos="r" purity="0.0e+00" res="0.125201762" rms="0.0e+00"/>
                </Node>
              </Node>
            </Node>
            <Node Cut="-1.06678021" IVar="9" NCoef="0" cType="1" depth="3" nType="0" pos="r" purity="0.0e+00" res="0.0e+00" rms="0.0e+00">
              <Node Cut="0.292867988" IVar="10" NCoef="0" cType="1" depth="4" nType="0" pos="l" purity="0.0e+00" res="0.0e+00" rms="0.0e+00">
                <Node Cut="0.0e+00" IVar="-1" NCoef="0" cType="1" depth="5" nType="-99" pos="l" purity="0.0e+00" res="0.0750289485" rms="0.0e+00"/>
                <Node Cut="0.0e+00" IVar="-1" NCoef="0" cType="1" depth="5" nType="-99" pos="r" purity="0.0e+00" res="0.128081173" rms="0.0e+00"/>
              </Node>
              <Node Cut="0.0e+00" IVar="-1" NCoef="0" cType="1" depth="4" nType="-99" pos="r" purity="0.0e+00" res="0.0443008952" rms="0.0e+00"/>
            </Node>
          </Node>
          <Node Cut="-0.421132296" IVar="4" NCoef="0" cType="1" depth="2" nType="0" pos="r" purity="0.0e+00" res="0.0e+00" rms="0.0e+00">
            <Node Cut="-0.259574383" IVar="9" NCoef="0" cType="1" depth="3" nType="0" pos="l" purity="0.0e+00" res="0.0e+00" rms="0.0e+00">
              <Node Cut="0.0e+00" IVar="-1" NCoef="0" cType="1" depth="4" nType="-99" pos="l" purity="0.0e+00" res="-0.0287770573" rms="0.0e+00"/>
              <Node Cut="0.0e+00" IVar="-1" NCoef="0" cType="1" depth="4" nType="-99" pos="r" purity="0.0e+00" res="-0.138582945" rms="0.0e+00"/>
            </Node>
            <Node Cut="3.25910282" IVar="13" NCoef="0" cType="1" depth="3" nType="0" pos="r" purity="0.0e+00" res="0.0e+00" rms="0.0e+00">
              <Node Cut="0.0e+00" IVar="-1" NCoef="0" cType="1" depth="4" nType="-99" pos="l" purity="0.0e+00" res="-0.167966619" rms="0.0e+00"/>
              <Node Cut="0.0e+00" IVar="-1" NCoef="0" cType="1" depth="4" nType="-99" pos="r" purity="0.0e+00" res="-0.142038703" rms="0.0e+00"/>
            </Node>
          </Node>
        </Node>
      </Node>
    </BinaryTree>
    <BinaryTree boostWeight="1.0e+00" itree="6" type="DecisionTree">
      <Node Cut="2.81411505" IVar="13" NCoef="0" cType="1" depth="0" nType="0" pos="s" purity="0.0e+00" res="0.0e+00" rms="0.0e+00">
        <Node Cut="2.97475457" IVar="12" NCoef="0" cType="1" depth="1" nType="0" pos="l" purity="0.0e+00" res="0.0e+00" rms="0.0e+00">
          <Node Cut="-1.54275608" IVar="9" NCoef="0" cType="1" depth="2" nType="0" pos="l" purity="0.0e+00" res="0.0e+00" rms="0.0e+00">
            <Node Cut="-0.470075846" IVar="3" NCoef="0" cType="1" depth="3" nType="0" pos="l" purity="0.0e+00" res="0.0e+00" rms="0.0e+00">
              <Node Cut="0.0e+00" IVar="-1" NCoef="0" cType="1" depth="4" nType="-99" pos="l" purity="0.0e+00" res="-0.157041371" rms="0.0e+00"/>
              <Node Cut="0.0e+00" IVar="-1" NCoef="0" cType="1" depth="4" nType="-99" pos="r" purity="0.0e+00" res="-0.0399320088" rms="0.0e+00"/>
            </Node>
            <Node Cut="2.01843572" IVar="5" NCoef="0" cType="1" depth="3" nType="0" pos="r" purity="0.0e+00" res="0.0e+00" rms="0.0e+00">
              <Node Cut="-0.42439571" IVar="11" NCoef="0" cType="1" depth="4" nType="0" pos="l" purity="0.0e+00" res="0.0e+00" rms="0.0e+00">
                <Node Cut="0.0e+00" IVar="-1" NCoef="0" cType="1" depth="5" nType="-99" pos="l" purity="0.0e+00" res="-0.150378644" rms="0.0e+00"/>
                <Node Cut="-0.698902607" IVar="2" NCoef="0" cType="1" depth="5" nType="0" pos="r" purity="0.0e+00" res="0.0e+00" rms="0.0e+00">
                  <Node Cut="0.0e+00" IVar="-1" NCoef="0" cType="1" depth="6" nType="-99" pos="l" purity="0.0e+00" res="-0.105882309" rms="0.0e+00"/>
                  <Node Cut="-0.0635893792" IVar="7" NCoef="0" cType="1" depth="6" nType="0" pos="r" purity="0.0e+00" res="0.0e+00" rms="0.0e+00">
                    <Node Cut="1.32536232" IVar="2" NCoef="0" cType="1" depth="7" nType="0" pos="l" purity="0.0e+00" res="0.0e+00" rms="0.0e+00">
                      <Node Cut="1.3797375" IVar="6" NCoef="0" cType="1" depth="8" nType="0" pos="l" purity="0.0e+00" res="0.0e+00" rms="0.0e+00">
                        <Node Cut="0.0e+00" IVar="-1" NCoef="0" cType="1" depth="9" nType="-99" pos="l" purity="0.0e+00" res="-0.151815876" rms="0.0e+00"/>
                        <Node Cut="-0.654824376" IVar="7" NCoef="0" cType="1" depth="9" nType="0" pos="r" purity="0.0e+00" res="0.0e+00" rms="0.0e+00">
                          <Node Cut="0.0e+00" IVar="-1" NCoef="0" cType="1" depth="10" nType="-99" pos="l" purity="0.0e+00" res="-0.128573403" rms="0.0e+00"/>
                          <Node Cut="0.0e+00" IVar="-1" NCoef="0" cType="1" depth="10" nType="-99" pos="r" purity="0.0e+00" res="-0.151645094" rms="0.0e+00"/>
                        </Node>
                      </Node>
                      <Node Cut="0.0e+00" IVar="-1" NCoef="0" cType="1" depth="8" nType="-99" pos="r" purity="0.0e+00" res="-0.138647005" rms="0.0e+00"/>
                    </Node>
                    <Node Cut="0.570967376" IVar="5" NCoef="0" cType="1" depth="7" nType="0" pos="r" purity="0.0e+00" res="0.0e+00" rms="0.0e+00">
                      <Node Cut="0.237129599" IVar="5" NCoef="0" cType="1" depth="8" nType="0" pos="l" purity="0.0e+00" res="0.0e+00" rms="0.0e+00">
                        <Node Cut="0.415318131" IVar="2" NCoef="0" cType="1" depth="9" nType="0" pos="l" purity="0.0e+00" res="0.0e+00" rms="0.0e+00">
                          <Node Cut="0.0e+00" IVar="-1" NCoef="0" cType="1" depth="10" nType="-99" pos="l" purity="0.0e+00" res="-0.14951165" rms="0.0e+00"/>
                          <Node Cut="0.0e+00" IVar="-1" NCoef="0" cType="1" depth="10" nType="-99" pos="r" purity="0.0e+00" res="-0.124626502" rms="0.0e+00"/>
                        </Node>
                        <Node Cut="0.564587951" IVar="10" NCoef="0" cType="1" depth="9" nType="0" pos="r" purity="0.0e+00" res="0.0e+00" rms="0.0e+00">
                          <Node Cut="0.0e+00" IVar="-1" NCoef="0" cType="1" depth="10" nType="-99" pos="l" purity="0.0e+00" res="-0.0561745688" rms="0.0e+00"/>
                          <Node Cut="0.0e+00" IVar="-1" NCoef="0" cType="1" depth="10" nType="-99" pos="r" purity="0.0e+00" res="-0.140385717" rms="0.0e+00"/>
                        </Node>
                      </Node>
                      <Node Cut="0.0e+00" IVar="-1" NCoef="0" cType="1" depth="8" nType="-99" pos="r" purity="0.0e+00" res="-0.152035609" rms="0.0e+00"/>
                    </Node>
                  </Node>
                </Node>
              </Node>
              <Node Cut="0.44469285" IVar="2" NCoef="0" cType="1" depth="4" nType="0" pos="r" purity="0.0e+00" res="0.0e+00" rms="0.0e+00">
                <Node Cut="0.0e+00" IVar="-1" NCoef="0" cType="1" depth="5" nType="-99" pos="l" purity="0.0e+00" res="-0.0863109827" rms="0.0e+00"/>
                <Node Cut="0.0e+00" IVar="-1" NCoef="0" cType="1" depth="5" nType="-99" pos="r" purity="0.0e+00" res="-0.152221471" rms="0.0e+00"/>
              </Node>
            </Node>
          </Node>
          <Node Cut="-0.731810033" IVar="9" NCoef="0" cType="1" depth="2" nType="0" pos="r" purity="0.0e+00" res="0.0e+00" rms="0.0e+00">
            <Node Cut="0.0e+00" IVar="-1" NCoef="0" cType="1" depth="3" nType="-99" pos="l" purity="0.0e+00" res="0.160999507" rms="0.0e+00"/>
            <Node Cut="0.0e+00" IVar="-1" NCoef="0" cType="1" depth="3" nType="-99" pos="r" purity="0.0e+00" res="-0.161085263" rms="0.0e+00"/>
          </Node>
        </Node>
        <Node Cut="-0.516426742" IVar="2" NCoef="0" cType="1" depth="1" nType="0" pos="r" purity="0.0e+00" res="0.0e+00" rms="0.0e+00">
          <Node Cut="-1.00345647" IVar="1" NCoef="0" cType="1" depth="2" nType="0" pos="l" purity="0.0e+00" res="0.0e+00" rms="0.0e+00">
            <Node Cut="-0.745821178" IVar="0" NCoef="0" cType="1" depth="3" nType="0" pos="l" purity="0.0e+00" res="0.0e+00" rms="0.0e+00">
              <Node Cut="0.0e+00" IVar="-1" NCoef="0" cType="1" depth="4" nType="-99" pos="l" purity="0.0e+00" res="0.14641875" rms="0.0e+00"/>
              <Node Cut="0.0e+00" IVar="-1" NCoef="0" cType="1" depth="4" nType="-99" pos="r" purity="0.0e+00" res="0.14910908" rms="0.0e+00"/>
            </Node>
            <Node Cut="-0.65040493" IVar="0" NCoef="0" cType="1" depth="3" nType="0" pos="r" purity="0.0e+00" res="0.0e+00" rms="0.0e+00">
              <Node Cut="-0.916868567" IVar="1" NCoef="0" cType="1" depth="4" nType="0" pos="l" purity="0.0e+00" res="0.0e+00" rms="0.0e+00">
                <Node Cut="-0.7236408" IVar="0" NCoef="0" cType="1" depth="5" nType="0" pos="l" purity="0.0e+00" res="0.0e+00" rms="0.0e+00">
                  <Node Cut="-0.452839851" IVar="3" NCoef="0" cType="1" depth="6" nType="0" pos="l" purity="0.0e+00" res="0.0e+00" rms="0.0e+00">
                    <Node Cut="0.0e+00" IVar="-1" NCoef="0" cType="1" depth="7" nType="-99" pos="l" purity="0.0e+00" res="0.0638973787" rms="0.0e+00"/>
                    <Node Cut="0.0e+00" IVar="-1" NCoef="0" cType="1" depth="7" nType="-99" pos="r" purity="0.0e+00" res="0.117336847" rms="0.0e+00"/>
                  </Node>
                  <Node Cut="-0.982686222" IVar="1" NCoef="0" cType="1" depth="6" nType="0" pos="r" purity="0.0e+00" res="0.0e+00" rms="0.0e+00">
                    <Node Cut="0.0e+00" IVar="-1" NCoef="0" cType="1" depth="7" nType="-99" pos="l" purity="0.0e+00" res="0.14421761" rms="0.0e+00"/>
                    <Node Cut="0.0e+00" IVar="-1" NCoef="0" cType="1" depth="7" nType="-99" pos="r" purity="0.0e+00" res="0.119831905" rms="0.0e+00"/>
                  </Node>
                </Node>
                <Node Cut="0.0e+00" IVar="-1" NCoef="0" cType="1" depth="5" nType="-99" pos="r" purity="0.0e+00" res="0.0642130375" rms="0.0e+00"/>
              </Node>
              <Node Cut="-0.593544781" IVar="2" NCoef="0" cType="1" depth="4" nType="0" pos="r" purity="0.0e+00" res="0.0e+00" rms="0.0e+00">
                <Node Cut="-0.209486604" IVar="0" NCoef="0" cType="1" depth="5" nType="0" pos="l" purity="0.0e+00" res="0.0e+00" rms="0.0e+00">
                  <Node Cut="-0.625304222" IVar="1" NCoef="0" cType="1" depth="6" nType="0" pos="l" purity="0.0e+00" res="0.0e+00" rms="0.0e+00">
                    <Node Cut="-0.902233839" IVar="1" NCoef="0" cType="1" depth="7" nType="0" pos="l" purity="0.0e+00" res="0.0e+00" rms="0.0e+00">
                      <Node Cut="0.0e+00" IVar="-1" NCoef="0" cType="1" depth="8" nType="-99" pos="l" purity="0.0e+00" res="0.148005053" rms="0.0e+00"/>
                      <Node Cut="-0.431022704" IVar="3" NCoef="0" cType="1" depth="8" nType="0" pos="r" purity="0.0e+00" res="0.0e+00" rms="0.0e+00">
                        <Node Cut="-0.656575739" IVar="6" NCoef="0" cType="1" depth="9" nType="0" pos="l" purity="0.0e+00" res="0.0e+00" rms="0.0e+00">
                          <Node Cut="0.0e+00" IVar="-1" NCoef="0" cType="1" depth="10" nType="-99" pos="l" purity="0.0e+00" res="0.123797841" rms="0.0e+00"/>
                          <Node Cut="0.0e+00" IVar="-1" NCoef="0" cType="1" depth="10" nType="-99" pos="r" purity="0.0e+00" res="0.0997453481" rms="0.0e+00"/>
                        </Node>
                        <Node Cut="0.0e+00" IVar="-1" NCoef="0" cType="1" depth="9" nType="-99" pos="r" purity="0.0e+00" res="0.147492722" rms="0.0e+00"/>
                      </Node>
                    </Node>
                    <Node Cut="0.0e+00" IVar="-1" NCoef="0" cType="1" depth="7" nType="-99" pos="r" purity="0.0e+00" res="0.111045964" rms="0.0e+00"/>
                  </Node>
                  <Node Cut="0.0e+00" IVar="-1" NCoef="0" cType="1" depth="6" nType="-99" pos="r" purity="0.0e+00" res="0.150250822" rms="0.0e+00"/>
                </Node>
                <Node Cut="0.999992669" IVar="8" NCoef="0" cType="1" depth="5" nType="0" pos="r" purity="0.0e+00" res="0.0e+00" rms="0.0e+00">
                  <Node Cut="0.0e+00" IVar="-1" NCoef="0" cType="1" depth="6" nType="-99" pos="l" purity="0.0e+00" res="0.120073698" rms="0.0e+00"/>
                  <Node Cut="0.0e+00" IVar="-1" NCoef="0" cType="1" depth="6" nType="-99" pos="r" purity="0.0e+00" res="0.104340754" rms="0.0e+00"/>
                </Node>
              </Node>
            </Node>
          </Node>
          <Node Cut="3.07828784" IVar="11" NCoef="0" cType="1" depth="2" nType="0" pos="r" purity="0.0e+00" res="0.0e+00" rms="0.0e+00">
            <Node Cut="0.311148405" IVar="7" NCoef="0" cType="1" depth="3" nType="0" pos="l" purity="0.0e+00" res="0.0e+00" rms="0.0e+00">
              <Node Cut="0.0e+00" IVar="-1" NCoef="0" cType="1" depth="4" nType="-99" pos="l" purity="0.0e+00" res="-0.10731519" rms="0.0e+00"/>
              <Node Cut="0.0e+00" IVar="-1" NCoef="0" cType="1" depth="4" nType="-99" pos="r" purity="0.0e+00" res="-0.167841718" rms="0.0e+00"/>
            </Node>
            <Node Cut="0.0e+00" IVar="-1" NCoef="0" cType="1" depth="3" nType="-99" pos="r" purity="0.0e+00" res="0.0112847332" rms="0.0e+00"/>
          </Node>
        </Node>
      </Node>
    </BinaryTree>
    <BinaryTree boostWeight="1.0e+00" itree="7" type="DecisionTree">
      <Node Cut="2.81411505" IVar="13" NCoef="0" cType="1" depth="0" nType="0" pos="s" purity="0.0e+00" res="0.0e+00" rms="0.0e+00">
        <Node Cut="3.06101847" IVar="12" NCoef="0" cType="1" depth="1" nType="0" pos="l" purity="0.0e+00" res="0.0e+00" rms="0.0e+00">
          <Node Cut="-1.5652287" IVar="9" NCoef="0" cType="1" depth="2" nType="0" pos="l" purity="0.0e+00" res="0.0e+00" rms="0.0e+00">
            <Node Cut="0.0e+00" IVar="-1" NCoef="0" cType="1" depth="3" nType="-99" pos="l" purity="0.0e+00" res="-0.0649517402" rms="0.0e+00"/>
            <Node Cut="-1.01590216" IVar="1" NCoef="0" cType="1" depth="3" nType="0" pos="r" purity="0.0e+00" res="0.0e+00" rms="0.0e+00">
              <Node Cut="0.368722528" IVar="5" NCoef="0" cType="1" depth="4" nType="0" pos="l" purity="0.0e+00" res="0.0e+00" rms="0.0e+00">
                <Node Cut="-0.111254796" IVar="10" NCoef="0" cType="1" depth="5" nType="0" pos="l" purity="0.0e+00" res="0.0e+00" rms="0.0e+00">
                  <Node Cut="0.0e+00" IVar="-1" NCoef="0" cType="1" depth="6" nType="-99" pos="l" purity="0.0e+00" res="-0.123799898" rms="0.0e+00"/>
                  <Node Cut="0.0e+00" IVar="-1" NCoef="0" cType="1" depth="6" nType="-99" pos="r" purity="0.0e+00" res="-0.146634385" rms="0.0e+00"/>
                </Node>
                <Node Cut="0.0e+00" IVar="-1" NCoef="0" cType="1" depth="5" nType="-99" pos="r" purity="0.0e+00" res="-0.0815435201" rms="0.0e+00"/>
              </Node>
              <Node Cut="-1.68863797" IVar="6" NCoef="0" cType="1" depth="4" nType="0" pos="r" purity="0.0e+00" res="0.0e+00" rms="0.0e+00">
                <Node Cut="-0.76435554" IVar="10" NCoef="0" cType="1" depth="5" nType="0" pos="l" purity="0.0e+00" res="0.0e+00" rms="0.0e+00">
                  <Node Cut="0.0e+00" IVar="-1" NCoef="0" cType="1" depth="6" nType="-99" pos="l" purity="0.0e+00" res="-0.103467256" rms="0.0e+00"/>
                  <Node Cut="0.0e+00" IVar="-1" NCoef="0" cType="1" depth="6" nType="-99" pos="r" purity="0.0e+00" res="-0.146462843" rms="0.0e+00"/>
                </Node>
                <Node Cut="1.69363248" IVar="0" NCoef="0" cType="1" depth="5" nType="0" pos="r" purity="0.0e+00" res="0.0e+00" rms="0.0e+00">
                  <Node Cut="-1.33176327" IVar="9" NCoef="0" cType="1" depth="6" nType="0" pos="l" purity="0.0e+00" res="0.0e+00" rms="0.0e+00">
                    <Node Cut="0.335624903" IVar="5" NCoef="0" cType="1" depth="7" nType="0" pos="l" purity="0.0e+00" res="0.0e+00" rms="0.0e+00">
                      <Node Cut="0.0e+00" IVar="-1" NCoef="0" cType="1" depth="8" nType="-99" pos="l" purity="0.0e+00" res="-0.148065254" rms="0.0e+00"/>
                      <Node Cut="0.21877338" IVar="7" NCoef="0" cType="1" depth="8" nType="0" pos="r" purity="0.0e+00" res="0.0e+00" rms="0.0e+00">
                        <Node Cut="0.0e+00" IVar="-1" NCoef="0" cType="1" depth="9" nType="-99" pos="l" purity="0.0e+00" res="-0.0795040503" rms="0.0e+00"/>
                        <Node Cut="0.0e+00" IVar="-1" NCoef="0" cType="1" depth="9" nType="-99" pos="r" purity="0.0e+00" res="-0.14780356" rms="0.0e+00"/>
                      </Node>
                    </Node>
                    <Node Cut="0.0e+00" IVar="-1" NCoef="0" cType="1" depth="7" nType="-99" pos="r" purity="0.0e+00" res="-0.14511013" rms="0.0e+00"/>
                  </Node>
                  <Node Cut="0.78002888" IVar="1" NCoef="0" cType="1" depth="6" nType="0" pos="r" purity="0.0e+00" res="0.0e+00" rms="0.0e+00">
                    <Node Cut="0.0e+00" IVar="-1" NCoef="0" cType="1" depth="7" nType="-99" pos="l" purity="0.0e+00" res="-0.106360607" rms="0.0e+00"/>
                    <Node Cut="0.824080408" IVar="9" NCoef="0" cType="1" depth="7" nType="0" pos="r" purity="0.0e+00" res="0.0e+00" rms="0.0e+00">
                      <Node Cut="0.0e+00" IVar="-1" NCoef="0" cType="1" depth="8" nType="-99" pos="l" purity="0.0e+00" res="-0.14672631" rms="0.0e+00"/>
                      <Node Cut="-0.424358159" IVar="11" NCoef="0" cType="1" depth="8" nType="0" pos="r" purity="0.0e+00" res="0.0e+00" rms="0.0e+00">
                        <Node Cut="0.0e+00" IVar="-1" NCoef="0" cType="1" depth="9" nType="-99" pos="l" purity="0.0e+00" res="-0.145736456" rms="0.0e+00"/>
                        <Node Cut="0.0e+00" IVar="-1" NCoef="0" cType="1" depth="9" nType="-99" pos="r" purity="0.0e+00" res="-0.106388994" rms="0.0e+00"/>
                      </Node>
                    </Node>
                  </Node>
                </Node>
              </Node>
            </Node>
          </Node>
          <Node Cut="0.0e+00" IVar="-1" NCoef="0" cType="1" depth="2" nType="-99" pos="r" purity="0.0e+00" res="0.016900003" rms="0.0e+00"/>
        </Node>
        <Node Cut="-0.768977284" IVar="9" NCoef="0" cType="1" depth="1" nType="0" pos="r" purity="0.0e+00" res="0.0e+00" rms="0.0e+00">
          <Node Cut="-1.18134975" IVar="9" NCoef="0" cType="1" depth="2" nType="0" pos="l" purity="0.0e+00" res="0.0e+00" rms="0.0e+00">
            <Node Cut="-0.95491612" IVar="1" NCoef="0" cType="1" depth="3" nType="0" pos="l" purity="0.0e+00" res="0.0e+00" rms="0.0e+00">
              <Node Cut="-1.57994628" IVar="9" NCoef="0" cType="1" depth="4" nType="0" pos="l" purity="0.0e+00" res="0.0e+00" rms="0.0e+00">
                <Node Cut="0.0e+00" IVar="-1" NCoef="0" cType="1" depth="5" nType="-99" pos="l" purity="0.0e+00" res="0.142886207" rms="0.0e+00"/>
                <Node Cut="0.0e+00" IVar="-1" NCoef="0" cType="1" depth="5" nType="-99" pos="r" purity="0.0e+00" res="0.139470801" rms="0.0e+00"/>
              </Node>
              <Node Cut="-1.52567005" IVar="9" NCoef="0" cType="1" depth="4" nType="0" pos="r" purity="0.0e+00" res="0.0e+00" rms="0.0e+00">
                <Node Cut="-1.58191919" IVar="9" NCoef="0" cType="1" depth="5" nType="0" pos="l" purity="0.0e+00" res="0.0e+00" rms="0.0e+00">
                  <Node Cut="0.0e+00" IVar="-1" NCoef="0" cType="1" depth="6" nType="-99" pos="l" purity="0.0e+00" res="0.139110893" rms="0.0e+00"/>
                  <Node Cut="0.083711274" IVar="10" NCoef="0" cType="1" depth="6" nType="0" pos="r" purity="0.0e+00" res="0.0e+00" rms="0.0e+00">
                    <Node Cut="0.0e+00" IVar="-1" NCoef="0" cType="1" depth="7" nType="-99" pos="l" purity="0.0e+00" res="0.120027855" rms="0.0e+00"/>
                    <Node Cut="0.0e+00" IVar="-1" NCoef="0" cType="1" depth="7" nType="-99" pos="r" purity="0.0e+00" res="0.137576357" rms="0.0e+00"/>
                  </Node>
                </Node>
                <Node Cut="-0.450451434" IVar="3" NCoef="0" cType="1" depth="5" nType="0" pos="r" purity="0.0e+00" res="0.0e+00" rms="0.0e+00">
                  <Node Cut="0.0e+00" IVar="-1" NCoef="0" cType="1" depth="6" nType="-99" pos="l" purity="0.0e+00" res="0.0471321121" rms="0.0e+00"/>
                  <Node Cut="0.0e+00" IVar="-1" NCoef="0" cType="1" depth="6" nType="-99" pos="r" purity="0.0e+00" res="0.0968530327" rms="0.0e+00"/>
                </Node>
              </Node>
            </Node>
            <Node Cut="-0.850887477" IVar="1" NCoef="0" cType="1" depth="3" nType="0" pos="r" purity="0.0e+00" res="0.0e+00" rms="0.0e+00">
              <Node Cut="0.0e+00" IVar="-1" NCoef="0" cType="1" depth="4" nType="-99" pos="l" purity="0.0e+00" res="0.110226534" rms="0.0e+00"/>
              <Node Cut="0.0e+00" IVar="-1" NCoef="0" cType="1" depth="4" nType="-99" pos="r" purity="0.0e+00" res="-0.0705797225" rms="0.0e+00"/>
            </Node>
          </Node>
          <Node Cut="-0.427425206" IVar="4" NCoef="0" cType="1" depth="2" nType="0" pos="r" purity="0.0e+00" res="0.0e+00" rms="0.0e+00">
            <Node Cut="0.0e+00" IVar="-1" NCoef="0" cType="1" depth="3" nType="-99" pos="l" purity="0.0e+00" res="-0.0860340595" rms="0.0e+00"/>
            <Node Cut="0.0e+00" IVar="-1" NCoef="0" cType="1" depth="3" nType="-99" pos="r" purity="0.0e+00" res="-0.157735288" rms="0.0e+00"/>
          </Node>
        </Node>
      </Node>
    </BinaryTree>
    <BinaryTree boostWeight="1.0e+00" itree="8" type="DecisionTree">
      <Node Cut="2.81411505" IVar="13" NCoef="0" cType="1" depth="0" nType="0" pos="s" purity="0.0e+00" res="0.0e+00" rms="0.0e+00">
        <Node Cut="-1.49529088" IVar="9" NCoef="0" cType="1" depth="1" nType="0" pos="l" purity="0.0e+00" res="0.0e+00" rms="0.0e+00">
          <Node Cut="2.15370703" IVar="12" NCoef="0" cType="1" depth="2" nType="0" pos="l" purity="0.0e+00" res="0.0e+00" rms="0.0e+00">
            <Node Cut="-1.55687141" IVar="9" NCoef="0" cType="1" depth="3" nType="0" pos="l" purity="0.0e+00" res="0.0e+00" rms="0.0e+00">
              <Node Cut="0.0e+00" IVar="-1" NCoef="0" cType="1" depth="4" nType="-99" pos="l" purity="0.0e+00" res="-0.148455471" rms="0.0e+00"/>
              <Node Cut="0.0e+00" IVar="-1" NCoef="0" cType="1" depth="4" nType="-99" pos="r" purity="0.0e+00" res="-0.122731529" rms="0.0e+00"/>
            </Node>
            <Node Cut="0.0e+00" IVar="-1" NCoef="0" cType="1" depth="3" nType="-99" pos="r" purity="0.0e+00" res="0.15726538" rms="0.0e+00"/>
          </Node>
          <Node Cut="-1.21691167" IVar="9" NCoef="0" cType="1" depth="2" nType="0" pos="r" purity="0.0e+00" res="0.0e+00" rms="0.0e+00">
            <Node Cut="0.758001924" IVar="13" NCoef="0" cType="1" depth="3" nType="0" pos="l" purity="0.0e+00" res="0.0e+00" rms="0.0e+00">
              <Node Cut="-0.162753016" IVar="2" NCoef="0" cType="1" depth="4" nType="0" pos="l" purity="0.0e+00" res="0.0e+00" rms="0.0e+00">
                <Node Cut="0.0e+00" IVar="-1" NCoef="0" cType="1" depth="5" nType="-99" pos="l" purity="0.0e+00" res="-0.14196375" rms="0.0e+00"/>
                <Node Cut="0.0e+00" IVar="-1" NCoef="0" cType="1" depth="5" nType="-99" pos="r" purity="0.0e+00" res="-0.116663381" rms="0.0e+00"/>
              </Node>
              <Node Cut="0.0e+00" IVar="-1" NCoef="0" cType="1" depth="4" nType="-99" pos="r" purity="0.0e+00" res="-0.0108601237" rms="0.0e+00"/>
            </Node>
            <Node Cut="0.468572915" IVar="0" NCoef="0" cType="1" depth="3" nType="0" pos="r" purity="0.0e+00" res="0.0e+00" rms="0.0e+00">
              <Node Cut="-1.01590216" IVar="1" NCoef="0" cType="1" depth="4" nType="0" pos="l" purity="0.0e+00" res="0.0e+00" rms="0.0e+00">
                <Node Cut="-0.478818029" IVar="3" NCoef="0" cType="1" depth="5" nType="0" pos="l" purity="0.0e+00" res="0.0e+00" rms="0.0e+00">
                  <Node Cut="0.0e+00" IVar="-1" NCoef="0" cType="1" depth="6" nType="-99" pos="l" purity="0.0e+00" res="-0.142651424" rms="0.0e+00"/>
                  <Node Cut="0.0e+00" IVar="-1" NCoef="0" cType="1" depth="6" nType="-99" pos="r" purity="0.0e+00" res="-0.102911435" rms="0.0e+00"/>
                </Node>
                <Node Cut="-0.491012543" IVar="3" NCoef="0" cType="1" depth="5" nType="0" pos="r" purity="0.0e+00" res="0.0e+00" rms="0.0e+00">
                  <Node Cut="0.738839924" IVar="7" NCoef="0" cType="1" depth="6" nType="0" pos="l" purity="0.0e+00" res="0.0e+00" rms="0.0e+00">
                    <Node Cut="-1.68116796" IVar="5" NCoef="0" cType="1" depth="7" nType="0" pos="l" purity="0.0e+00" res="0.0e+00" rms="0.0e+00">
                      <Node Cut="0.0e+00" IVar="-1" NCoef="0" cType="1" depth="8" nType="-99" pos="l" purity="0.0e+00" res="-0.125412717" rms="0.0e+00"/>
                      <Node Cut="0.0e+00" IVar="-1" NCoef="0" cType="1" depth="8" nType="-99" pos="r" purity="0.0e+00" res="-0.141760111" rms="0.0e+00"/>
                    </Node>
                    <Node Cut="1.14323521" IVar="10" NCoef="0" cType="1" depth="7" nType="0" pos="r" purity="0.0e+00" res="0.0e+00" rms="0.0e+00">
                      <Node Cut="-0.336589456" IVar="0" NCoef="0" cType="1" depth="8" nType="0" pos="l" purity="0.0e+00" res="0.0e+00" rms="0.0e+00">
                        <Node Cut="0.0e+00" IVar="-1" NCoef="0" cType="1" depth="9" nType="-99" pos="l" purity="0.0e+00" res="-0.0681849867" rms="0.0e+00"/>
                        <Node Cut="0.0e+00" IVar="-1" NCoef="0" cType="1" depth="9" nType="-99" pos="r" purity="0.0e+00" res="-0.14136003" rms="0.0e+00"/>
                      </Node>
                      <Node Cut="0.0e+00" IVar="-1" NCoef="0" cType="1" depth="8" nType="-99" pos="r" purity="0.0e+00" res="-0.14155823" rms="0.0e+00"/>
                    </Node>
                  </Node>
                  <Node Cut="0.0e+00" IVar="-1" NCoef="0" cType="1" depth="6" nType="-99" pos="r" purity="0.0e+00" res="-0.141573906" rms="0.0e+00"/>
                </Node>
              </Node>
              <Node Cut="0.646796882" IVar="0" NCoef="0" cType="1" depth="4" nType="0" pos="r" purity="0.0e+00" res="0.0e+00" rms="0.0e+00">
                <Node Cut="-0.8654387" IVar="6" NCoef="0" cType="1" depth="5" nType="0" pos="l" purity="0.0e+00" res="0.0e+00" rms="0.0e+00">
                  <Node Cut="0.0e+00" IVar="-1" NCoef="0" cType="1" depth="6" nType="-99" pos="l" purity="0.0e+00" res="-0.0438863784" rms="0.0e+00"/>
                  <Node Cut="-0.505615592" IVar="4" NCoef="0" cType="1" depth="6" nType="0" pos="r" purity="0.0e+00" res="0.0e+00" rms="0.0e+00">
                    <Node Cut="0.0e+00" IVar="-1" NCoef="0" cType="1" depth="7" nType="-99" pos="l" purity="0.0e+00" res="-0.117811672" rms="0.0e+00"/>
                    <Node Cut="0.0e+00" IVar="-1" NCoef="0" cType="1" depth="7" nType="-99" pos="r" purity="0.0e+00" res="-0.141859576" rms="0.0e+00"/>
                  </Node>
                </Node>
                <Node Cut="1.91068399" IVar="5" NCoef="0" cType="1" depth="5" nType="0" pos="r" purity="0.0e+00" res="0.0e+00" rms="0.0e+00">
                  <Node Cut="1.91634798" IVar="7" NCoef="0" cType="1" depth="6" nType="0" pos="l" purity="0.0e+00" res="0.0e+00" rms="0.0e+00">
                    <Node Cut="0.0e+00" IVar="-1" NCoef="0" cType="1" depth="7" nType="-99" pos="l" purity="0.0e+00" res="-0.142214358" rms="0.0e+00"/>
                    <Node Cut="0.0e+00" IVar="-1" NCoef="0" cType="1" depth="7" nType="-99" pos="r" purity="0.0e+00" res="-0.129922524" rms="0.0e+00"/>
                  </Node>
                  <Node Cut="0.0e+00" IVar="-1" NCoef="0" cType="1" depth="6" nType="-99" pos="r" purity="0.0e+00" res="-0.114488564" rms="0.0e+00"/>
                </Node>
              </Node>
            </Node>
          </Node>
        </Node>
        <Node Cut="-0.886031449" IVar="9" NCoef="0" cType="1" depth="1" nType="0" pos="r" purity="0.0e+00" res="0.0e+00" rms="0.0e+00">
          <Node Cut="-1.14388752" IVar="9" NCoef="0" cType="1" depth="2" nType="0" pos="l" purity="0.0e+00" res="0.0e+00" rms="0.0e+00">
            <Node Cut="-1.45542037" IVar="9" NCoef="0" cType="1" depth="3" nType="0" pos="l" purity="0.0e+00" res="0.0e+00" rms="0.0e+00">
              <Node Cut="-1.00569427" IVar="1" NCoef="0" cType="1" depth="4" nType="0" pos="l" purity="0.0e+00" res="0.0e+00" rms="0.0e+00">
                <Node Cut="0.0e+00" IVar="-1" NCoef="0" cType="1" depth="5" nType="-99" pos="l" purity="0.0e+00" res="0.138400555" rms="0.0e+00"/>
                <Node Cut="-1.51956773" IVar="9" NCoef="0" cType="1" depth="5" nType="0" pos="r" purity="0.0e+00" res="0.0e+00" rms="0.0e+00">
                  <Node Cut="-1.59419143" IVar="9" NCoef="0" cType="1" depth="6" nType="0" pos="l" purity="0.0e+00" res="0.0e+00" rms="0.0e+00">
                    <Node Cut="0.0e+00" IVar="-1" NCoef="0" cType="1" depth="7" nType="-99" pos="l" purity="0.0e+00" res="0.135058865" rms="0.0e+00"/>
                    <Node Cut="0.0e+00" IVar="-1" NCoef="0" cType="1" depth="7" nType="-99" pos="r" purity="0.0e+00" res="0.126543999" rms="0.0e+00"/>
                  </Node>
                  <Node Cut="0.0e+00" IVar="-1" NCoef="0" cType="1" depth="6" nType="-99" pos="r" purity="0.0e+00" res="0.0857312083" rms="0.0e+00"/>
                </Node>
              </Node>
              <Node Cut="-0.916868567" IVar="1" NCoef="0" cType="1" depth="4" nType="0" pos="r" purity="0.0e+00" res="0.0e+00" rms="0.0e+00">
                <Node Cut="0.0e+00" IVar="-1" NCoef="0" cType="1" depth="5" nType="-99" pos="l" purity="0.0e+00" res="0.130076408" rms="0.0e+00"/>
                <Node Cut="0.0e+00" IVar="-1" NCoef="0" cType="1" depth="5" nType="-99" pos="r" purity="0.0e+00" res="0.0394087546" rms="0.0e+00"/>
              </Node>
            </Node>
            <Node Cut="0.311018795" IVar="10" NCoef="0" cType="1" depth="3" nType="0" pos="r" purity="0.0e+00" res="0.0e+00" rms="0.0e+00">
              <Node Cut="0.0e+00" IVar="-1" NCoef="0" cType="1" depth="4" nType="-99" pos="l" purity="0.0e+00" res="0.00396903465" rms="0.0e+00"/>
              <Node Cut="0.0e+00" IVar="-1" NCoef="0" cType="1" depth="4" nType="-99" pos="r" purity="0.0e+00" res="0.103725225" rms="0.0e+00"/>
            </Node>
          </Node>
          <Node Cut="-0.575450301" IVar="0" NCoef="0" cType="1" depth="2" nType="0" pos="r" purity="0.0e+00" res="0.0e+00" rms="0.0e+00">
            <Node Cut="0.0e+00" IVar="-1" NCoef="0" cType="1" depth="3" nType="-99" pos="l" purity="0.0e+00" res="-0.0194302015" rms="0.0e+00"/>
            <Node Cut="3.26826239" IVar="13" NCoef="0" cType="1" depth="3" nType="0" pos="r" purity="0.0e+00" res="0.0e+00" rms="0.0e+00">
              <Node Cut="0.0e+00" IVar="-1" NCoef="0" cType="1" depth="4" nType="-99" pos="l" purity="0.0e+00" res="-0.105629593" rms="0.0e+00"/>
              <Node Cut="0.0e+00" IVar="-1" NCoef="0" cType="1" depth="4" nType="-99" pos="r" purity="0.0e+00" res="-0.149862528" rms="0.0e+00"/>
            </Node>
          </Node>
        </Node>
      </Node>
    </BinaryTree>
    <BinaryTree boostWeight="1.0e+00" itree="9" type="DecisionTree">
      <Node Cut="2.81411505" IVar="13" NCoef="0" cType="1" depth="0" nType="0" pos="s" purity="0.0e+00" res="0.0e+00" rms="0.0e+00">
        <Node Cut="-1.48641789" IVar="9" NCoef="0" cType="1" depth="1" nType="0" pos="l" purity="0.0e+00" res="0.0e+00" rms="0.0e+00">
          <Node Cut="1.9437753" IVar="12" NCoef="0" cType="1" depth="2" nType="0" pos="l" purity="0.0e+00" res="0.0e+00" rms="0.0e+00">
            <Node Cut="-1.55687141" IVar="9" NCoef="0" cType="1" depth="3" nType="0" pos="l" purity="0.0e+00" res="0.0e+00" rms="0.0e+00">
              <Node Cut="0.0e+00" IVar="-1" NCoef="0" cType="1" depth="4" nType="-99" pos="l" purity="0.0e+00" res="-0.143292576" rms="0.0e+00"/>
              <Node Cut="0.0e+00" IVar="-1" NCoef="0" cType="1" depth="4" nType="-99" pos="r" purity="0.0e+00" res="-0.1197716" rms="0.0e+00"/>
            </Node>
            <Node Cut="0.0e+00" IVar="-1" NCoef="0" cType="1" depth="3" nType="-99" pos="r" purity="0.0e+00" res="0.150790378" rms="0.0e+00"/>
          </Node>
          <Node Cut="0.438016325" IVar="13" NCoef="0" cType="1" depth="2" nType="0" pos="r" purity="0.0e+00" res="0.0e+00" rms="0.0e+00">
            <Node Cut="2.01843572" IVar="5" NCoef="0" cType="1" depth="3" nType="0" pos="l" purity="0.0e+00" res="0.0e+00" rms="0.0e+00">
              <Node Cut="1.91634798" IVar="7" NCoef="0" cType="1" depth="4" nType="0" pos="l" purity="0.0e+00" res="0.0e+00" rms="0.0e+00">
                <Node Cut="-0.42439571" IVar="11" NCoef="0" cType="1" depth="5" nType="0" pos="l" purity="0.0e+00" res="0.0e+00" rms="0.0e+00">
                  <Node Cut="0.0e+00" IVar="-1" NCoef="0" cType="1" depth="6" nType="-99" pos="l" purity="0.0e+00" res="-0.137994349" rms="0.0e+00"/>
                  <Node Cut="-0.424386293" IVar="11" NCoef="0" cType="1" depth="6" nType="0" pos="r" purity="0.0e+00" res="0.0e+00" rms="0.0e+00">
                    <Node Cut="0.999992669" IVar="8" NCoef="0" cType="1" depth="7" nType="0" pos="l" purity="0.0e+00" res="0.0e+00" rms="0.0e+00">
                      <Node Cut="0.0e+00" IVar="-1" NCoef="0" cType="1" depth="8" nType="-99" pos="l" purity="0.0e+00" res="-0.137947187" rms="0.0e+00"/>
                      <Node Cut="0.0e+00" IVar="-1" NCoef="0" cType="1" depth="8" nType="-99" pos="r" purity="0.0e+00" res="-0.0714478418" rms="0.0e+00"/>
                    </Node>
                    <Node Cut="-1.6829114" IVar="10" NCoef="0" cType="1" depth="7" nType="0" pos="r" purity="0.0e+00" res="0.0e+00" rms="0.0e+00">
                      <Node Cut="0.0e+00" IVar="-1" NCoef="0" cType="1" depth="8" nType="-99" pos="l" purity="0.0e+00" res="-0.12095955" rms="0.0e+00"/>
                      <Node Cut="-1.21691167" IVar="9" NCoef="0" cType="1" depth="8" nType="0" pos="r" purity="0.0e+00" res="0.0e+00" rms="0.0e+00">
                        <Node Cut="0.0e+00" IVar="-1" NCoef="0" cType="1" depth="9" nType="-99" pos="l" purity="0.0e+00" res="-0.124862336" rms="0.0e+00"/>
                        <Node Cut="0.0e+00" IVar="-1" NCoef="0" cType="1" depth="9" nType="-99" pos="r" purity="0.0e+00" res="-0.137388542" rms="0.0e+00"/>
                      </Node>
                    </Node>
                  </Node>
                </Node>
                <Node Cut="0.0e+00" IVar="-1" NCoef="0" cType="1" depth="5" nType="-99" pos="r" purity="0.0e+00" res="-0.111659735" rms="0.0e+00"/>
              </Node>
              <Node Cut="-0.431022704" IVar="3" NCoef="0" cType="1" depth="4" nType="0" pos="r" purity="0.0e+00" res="0.0e+00" rms="0.0e+00">
                <Node Cut="0.0e+00" IVar="-1" NCoef="0" cType="1" depth="5" nType="-99" pos="l" purity="0.0e+00" res="-0.0777735636" rms="0.0e+00"/>
                <Node Cut="0.0e+00" IVar="-1" NCoef="0" cType="1" depth="5" nType="-99" pos="r" purity="0.0e+00" res="-0.139671013" rms="0.0e+00"/>
              </Node>
            </Node>
            <Node Cut="-0.667231917" IVar="2" NCoef="0" cType="1" depth="3" nType="0" pos="r" purity="0.0e+00" res="0.0e+00" rms="0.0e+00">
              <Node Cut="0.0e+00" IVar="-1" NCoef="0" cType="1" depth="4" nType="-99" pos="l" purity="0.0e+00" res="-0.0357394554" rms="0.0e+00"/>
              <Node Cut="-0.731810033" IVar="9" NCoef="0" cType="1" depth="4" nType="0" pos="r" purity="0.0e+00" res="0.0e+00" rms="0.0e+00">
                <Node Cut="-0.19802092" IVar="2" NCoef="0" cType="1" depth="5" nType="0" pos="l" purity="0.0e+00" res="0.0e+00" rms="0.0e+00">
                  <Node Cut="0.00643122662" IVar="10" NCoef="0" cType="1" depth="6" nType="0" pos="l" purity="0.0e+00" res="0.0e+00" rms="0.0e+00">
                    <Node Cut="0.0e+00" IVar="-1" NCoef="0" cType="1" depth="7" nType="-99" pos="l" purity="0.0e+00" res="-0.143427178" rms="0.0e+00"/>
                    <Node Cut="0.0e+00" IVar="-1" NCoef="0" cType="1" depth="7" nType="-99" pos="r" purity="0.0e+00" res="-0.120079756" rms="0.0e+00"/>
                  </Node>
                  <Node Cut="0.0e+00" IVar="-1" NCoef="0" cType="1" depth="6" nType="-99" pos="r" purity="0.0e+00" res="-0.0674458519" rms="0.0e+00"/>
                </Node>
                <Node Cut="0.846132159" IVar="0" NCoef="0" cType="1" depth="5" nType="0" pos="r" purity="0.0e+00" res="0.0e+00" rms="0.0e+00">
                  <Node Cut="0.0e+00" IVar="-1" NCoef="0" cType="1" depth="6" nType="-99" pos="l" purity="0.0e+00" res="-0.139757961" rms="0.0e+00"/>
                  <Node Cut="0.0e+00" IVar="-1" NCoef="0" cType="1" depth="6" nType="-99" pos="r" purity="0.0e+00" res="-0.119071059" rms="0.0e+00"/>
                </Node>
              </Node>
            </Node>
          </Node>
        </Node>
        <Node Cut="-0.768977284" IVar="9" NCoef="0" cType="1" depth="1" nType="0" pos="r" purity="0.0e+00" res="0.0e+00" rms="0.0e+00">
          <Node Cut="-1.19919789" IVar="9" NCoef="0" cType="1" depth="2" nType="0" pos="l" purity="0.0e+00" res="0.0e+00" rms="0.0e+00">
            <Node Cut="-0.95491612" IVar="1" NCoef="0" cType="1" depth="3" nType="0" pos="l" purity="0.0e+00" res="0.0e+00" rms="0.0e+00">
              <Node Cut="-1.57171452" IVar="9" NCoef="0" cType="1" depth="4" nType="0" pos="l" purity="0.0e+00" res="0.0e+00" rms="0.0e+00">
                <Node Cut="0.0e+00" IVar="-1" NCoef="0" cType="1" depth="5" nType="-99" pos="l" purity="0.0e+00" res="0.134635508" rms="0.0e+00"/>
                <Node Cut="3.17544389" IVar="13" NCoef="0" cType="1" depth="5" nType="0" pos="r" purity="0.0e+00" res="0.0e+00" rms="0.0e+00">
                  <Node Cut="0.0e+00" IVar="-1" NCoef="0" cType="1" depth="6" nType="-99" pos="l" purity="0.0e+00" res="0.115656674" rms="0.0e+00"/>
                  <Node Cut="-0.730684876" IVar="0" NCoef="0" cType="1" depth="6" nType="0" pos="r" purity="0.0e+00" res="0.0e+00" rms="0.0e+00">
                    <Node Cut="-1.3478595" IVar="9" NCoef="0" cType="1" depth="7" nType="0" pos="l" purity="0.0e+00" res="0.0e+00" rms="0.0e+00">
                      <Node Cut="0.0e+00" IVar="-1" NCoef="0" cType="1" depth="8" nType="-99" pos="l" purity="0.0e+00" res="0.129223749" rms="0.0e+00"/>
                      <Node Cut="0.0e+00" IVar="-1" NCoef="0" cType="1" depth="8" nType="-99" pos="r" purity="0.0e+00" res="0.115668319" rms="0.0e+00"/>
                    </Node>
                    <Node Cut="0.0e+00" IVar="-1" NCoef="0" cType="1" depth="7" nType="-99" pos="r" purity="0.0e+00" res="0.135037988" rms="0.0e+00"/>
                  </Node>
                </Node>
              </Node>
              <Node Cut="-1.51956773" IVar="9" NCoef="0" cType="1" depth="4" nType="0" pos="r" purity="0.0e+00" res="0.0e+00" rms="0.0e+00">
                <Node Cut="-0.670541286" IVar="0" NCoef="0" cType="1" depth="5" nType="0" pos="l" purity="0.0e+00" res="0.0e+00" rms="0.0e+00">
                  <Node Cut="0.0e+00" IVar="-1" NCoef="0" cType="1" depth="6" nType="-99" pos="l" purity="0.0e+00" res="0.0830769986" rms="0.0e+00"/>
                  <Node Cut="-1.59773743" IVar="9" NCoef="0" cType="1" depth="6" nType="0" pos="r" purity="0.0e+00" res="0.0e+00" rms="0.0e+00">
                    <Node Cut="0.0e+00" IVar="-1" NCoef="0" cType="1" depth="7" nType="-99" pos="l" purity="0.0e+00" res="0.132536039" rms="0.0e+00"/>
                    <Node Cut="0.0e+00" IVar="-1" NCoef="0" cType="1" depth="7" nType="-99" pos="r" purity="0.0e+00" res="0.118906394" rms="0.0e+00"/>
                  </Node>
                </Node>
                <Node Cut="0.153892055" IVar="10" NCoef="0" cType="1" depth="5" nType="0" pos="r" purity="0.0e+00" res="0.0e+00" rms="0.0e+00">
                  <Node Cut="0.0e+00" IVar="-1" NCoef="0" cType="1" depth="6" nType="-99" pos="l" purity="0.0e+00" res="0.0551593676" rms="0.0e+00"/>
                  <Node Cut="0.0e+00" IVar="-1" NCoef="0" cType="1" depth="6" nType="-99" pos="r" purity="0.0e+00" res="0.104937792" rms="0.0e+00"/>
                </Node>
              </Node>
            </Node>
            <Node Cut="-0.883924246" IVar="1" NCoef="0" cType="1" depth="3" nType="0" pos="r" purity="0.0e+00" res="0.0e+00" rms="0.0e+00">
              <Node Cut="-1.21987629" IVar="6" NCoef="0" cType="1" depth="4" nType="0" pos="l" purity="0.0e+00" res="0.0e+00" rms="0.0e+00">
                <Node Cut="0.0e+00" IVar="-1" NCoef="0" cType="1" depth="5" nType="-99" pos="l" purity="0.0e+00" res="0.141881526" rms="0.0e+00"/>
                <Node Cut="0.277104676" IVar="10" NCoef="0" cType="1" depth="5" nType="0" pos="r" purity="0.0e+00" res="0.0e+00" rms="0.0e+00">
                  <Node Cut="0.0e+00" IVar="-1" NCoef="0" cType="1" depth="6" nType="-99" pos="l" purity="0.0e+00" res="0.0610608086" rms="0.0e+00"/>
                  <Node Cut="0.0e+00" IVar="-1" NCoef="0" cType="1" depth="6" nType="-99" pos="r" purity="0.0e+00" res="0.11788778" rms="0.0e+00"/>
                </Node>
              </Node>
              <Node Cut="0.0e+00" IVar="-1" NCoef="0" cType="1" depth="4" nType="-99" pos="r" purity="0.0e+00" res="-0.0637186766" rms="0.0e+00"/>
            </Node>
          </Node>
          <Node Cut="-0.445804328" IVar="4" NCoef="0" cType="1" depth="2" nType="0" pos="r" purity="0.0e+00" res="0.0e+00" rms="0.0e+00">
            <Node Cut="0.0e+00" IVar="-1" NCoef="0" cType="1" depth="3" nType="-99" pos="l" purity="0.0e+00" res="-0.155616581" rms="0.0e+00"/>
            <Node Cut="0.0e+00" IVar="-1" NCoef="0" cType="1" depth="3" nType="-99" pos="r" purity="0.0e+00" res="-0.100483172" rms="0.0e+00"/>
          </Node>
        </Node>
      </Node>
    </BinaryTree>
    <BinaryTree boostWeight="1.0e+00" itree="10" type="DecisionTree">
      <Node Cut="2.81411505" IVar="13" NCoef="0" cType="1" depth="0" nType="0" pos="s" purity="0.0e+00" res="0.0e+00" rms="0.0e+00">
        <Node Cut="2.76256847" IVar="12" NCoef="0" cType="1" depth="1" nType="0" pos="l" purity="0.0e+00" res="0.0e+00" rms="0.0e+00">
          <Node Cut="2.17931437" IVar="13" NCoef="0" cType="1" depth="2" nType="0" pos="l" purity="0.0e+00" res="0.0e+00" rms="0.0e+00">
            <Node Cut="0.0082832491" IVar="12" NCoef="0" cType="1" depth="3" nType="0" pos="l" purity="0.0e+00" res="0.0e+00" rms="0.0e+00">
              <Node Cut="-1.68863797" IVar="6" NCoef="0" cType="1" depth="4" nType="0" pos="l" purity="0.0e+00" res="0.0e+00" rms="0.0e+00">
                <Node Cut="-0.483936548" IVar="7" NCoef="0" cType="1" depth="5" nType="0" pos="l" purity="0.0e+00" res="0.0e+00" rms="0.0e+00">
                  <Node Cut="0.0e+00" IVar="-1" NCoef="0" cType="1" depth="6" nType="-99" pos="l" purity="0.0e+00" res="-0.0881565213" rms="0.0e+00"/>
                  <Node Cut="0.0e+00" IVar="-1" NCoef="0" cType="1" depth="6" nType="-99" pos="r" purity="0.0e+00" res="-0.135062054" rms="0.0e+00"/>
                </Node>
                <Node Cut="-0.0521872565" IVar="0" NCoef="0" cType="1" depth="5" nType="0" pos="r" purity="0.0e+00" res="0.0e+00" rms="0.0e+00">
                  <Node Cut="0.0e+00" IVar="-1" NCoef="0" cType="1" depth="6" nType="-99" pos="l" purity="0.0e+00" res="-0.13499026" rms="0.0e+00"/>
                  <Node Cut="0.152234629" IVar="1" NCoef="0" cType="1" depth="6" nType="0" pos="r" purity="0.0e+00" res="0.0e+00" rms="0.0e+00">
                    <Node Cut="-0.688230932" IVar="10" NCoef="0" cType="1" depth="7" nType="0" pos="l" purity="0.0e+00" res="0.0e+00" rms="0.0e+00">
                      <Node Cut="-0.3819516" IVar="4" NCoef="0" cType="1" depth="8" nType="0" pos="l" purity="0.0e+00" res="0.0e+00" rms="0.0e+00">
                        <Node Cut="0.0e+00" IVar="-1" NCoef="0" cType="1" depth="9" nType="-99" pos="l" purity="0.0e+00" res="-0.0604320839" rms="0.0e+00"/>
                        <Node Cut="0.0e+00" IVar="-1" NCoef="0" cType="1" depth="9" nType="-99" pos="r" purity="0.0e+00" res="-0.134177074" rms="0.0e+00"/>
                      </Node>
                      <Node Cut="-0.381640494" IVar="1" NCoef="0" cType="1" depth="8" nType="0" pos="r" purity="0.0e+00" res="0.0e+00" rms="0.0e+00">
                        <Node Cut="0.0e+00" IVar="-1" NCoef="0" cType="1" depth="9" nType="-99" pos="l" purity="0.0e+00" res="-0.115179151" rms="0.0e+00"/>
                        <Node Cut="0.0e+00" IVar="-1" NCoef="0" cType="1" depth="9" nType="-99" pos="r" purity="0.0e+00" res="-0.135149017" rms="0.0e+00"/>
                      </Node>
                    </Node>
                    <Node Cut="0.690373898" IVar="10" NCoef="0" cType="1" depth="7" nType="0" pos="r" purity="0.0e+00" res="0.0e+00" rms="0.0e+00">
                      <Node Cut="0.0e+00" IVar="-1" NCoef="0" cType="1" depth="8" nType="-99" pos="l" purity="0.0e+00" res="-0.135149285" rms="0.0e+00"/>
                      <Node Cut="2.31029487" IVar="0" NCoef="0" cType="1" depth="8" nType="0" pos="r" purity="0.0e+00" res="0.0e+00" rms="0.0e+00">
                        <Node Cut="1.17843676" IVar="7" NCoef="0" cType="1" depth="9" nType="0" pos="l" purity="0.0e+00" res="0.0e+00" rms="0.0e+00">
                          <Node Cut="0.0e+00" IVar="-1" NCoef="0" cType="1" depth="10" nType="-99" pos="l" purity="0.0e+00" res="-0.116501093" rms="0.0e+00"/>
                          <Node Cut="0.0e+00" IVar="-1" NCoef="0" cType="1" depth="10" nType="-99" pos="r" purity="0.0e+00" res="-0.135267794" rms="0.0e+00"/>
                        </Node>
                        <Node Cut="0.00644075871" IVar="6" NCoef="0" cType="1" depth="9" nType="0" pos="r" purity="0.0e+00" res="0.0e+00" rms="0.0e+00">
                          <Node Cut="0.0e+00" IVar="-1" NCoef="0" cType="1" depth="10" nType="-99" pos="l" purity="0.0e+00" res="-0.135528818" rms="0.0e+00"/>
                          <Node Cut="0.0e+00" IVar="-1" NCoef="0" cType="1" depth="10" nType="-99" pos="r" purity="0.0e+00" res="-0.091636464" rms="0.0e+00"/>
                        </Node>
                      </Node>
                    </Node>
                  </Node>
                </Node>
              </Node>
              <Node Cut="0.590830147" IVar="12" NCoef="0" cType="1" depth="4" nType="0" pos="r" purity="0.0e+00" res="0.0e+00" rms="0.0e+00">
                <Node Cut="-0.453808665" IVar="3" NCoef="0" cType="1" depth="5" nType="0" pos="l" purity="0.0e+00" res="0.0e+00" rms="0.0e+00">
                  <Node Cut="-0.0211821012" IVar="5" NCoef="0" cType="1" depth="6" nType="0" pos="l" purity="0.0e+00" res="0.0e+00" rms="0.0e+00">
                    <Node Cut="0.0e+00" IVar="-1" NCoef="0" cType="1" depth="7" nType="-99" pos="l" purity="0.0e+00" res="-0.118999884" rms="0.0e+00"/>
                    <Node Cut="0.0e+00" IVar="-1" NCoef="0" cType="1" depth="7" nType="-99" pos="r" purity="0.0e+00" res="-0.0535551384" rms="0.0e+00"/>
                  </Node>
