<?xml version="1.0"?>
<MethodSetup Method="BDT::BDT">
  <Variables NVar="14">
    <Variable Expression="f0" Internal="f0" Label="f0" Max="0.0e+00" Min="0.0e+00" Title="f0" Type="F" Unit="" VarIndex="0"/>
    <Variable Expression="f1" Internal="f1" Label="f1" Max="0.0e+00" Min="0.0e+00" Title="f1" Type="F" Unit="" VarIndex="1"/>
    <Variable Expression="f2" Internal="f2" Label="f2" Max="0.0e+00" Min="0.0e+00" Title="f2" Type="F" Unit="" VarIndex="2"/>
    <Variable Expression="f3" Internal="f3" Label="f3" Max="0.0e+00" Min="0.0e+00" Title="f3" Type="F" Unit="" VarIndex="3"/>
    <Variable Expression="f4" Internal="f4" Label="f4" Max="0.0e+00" Min="0.0e+00" Title="f4" Type="F" Unit="" VarIndex="4"/>
    <Variable Expression="f5" Internal="f5" Label="f5" Max="0.0e+00" Min="0.0e+00" Title="f5" Type="F" Unit="" VarIndex="5"/>
    <Variable Expression="f6" Internal="f6" Label="f6" Max="0.0e+00" Min="0.0e+00" Title="f6" Type="F" Unit="" VarIndex="6"/>
    <Variable Expression="f7" Internal="f7" Label="f7" Max="0.0e+00" Min="0.0e+00" Title="f7" Type="F" Unit="" VarIndex="7"/>
    <Variable Expression="f8" Internal="f8" Label="f8" Max="0.0e+00" Min="0.0e+00" Title="f8" Type="F" Unit="" VarIndex="8"/>
    <Variable Expression="f9" Internal="f9" Label="f9" Max="0.0e+00" Min="0.0e+00" Title="f9" Type="F" Unit="" VarIndex="9"/>
    <Variable Expression="f10" Internal="f10" Label="f10" Max="0.0e+00" Min="0.0e+00" Title="f10" Type="F" Unit="" VarIndex="10"/>
    <Variable Expression="f11" Internal="f11" Label="f11" Max="0.0e+00" Min="0.0e+00" Title="f11" Type="F" Unit="" VarIndex="11"/>
    <Variable Expression="f12" Internal="f12" Label="f12" Max="0.0e+00" Min="0.0e+00" Title="f12" Type="F" Unit="" VarIndex="12"/>
    <Variable Expression="f13" Internal="f13" Label="f13" Max="0.0e+00" Min="0.0e+00" Title="f13" Type="F" Unit="" VarIndex="13"/>
  </Variables>
  <GeneralInfo>
    <Info name="Creator" value="xgboost2TMVA"/>
    <Info name="AnalysisType" value="Classification"/>
  </GeneralInfo>
  <Options>
    <Option modified="No" name="NodePurityLimit">5.00e-01</Option>
    <Option modified="Yes" name="BoostType">Grad</Option>
  </Options>
  <Weights AnalysisType="1" NTrees="200">
    <BinaryTree boostWeight="1.0e+00" itree="0" type="DecisionTree">
      <Node Cut="3.20555615" IVar="13" NCoef="0" cType="1" depth="0" nType="0" pos="s" purity="0.0e+00" res="0.0e+00" rms="0.0e+00">
        <Node Cut="-1.63888466" IVar="9" NCoef="0" cType="1" depth="1" nType="0" pos="l" purity="0.0e+00" res="0.0e+00" rms="0.0e+00">
          <Node Cut="2.31884909" IVar="12" NCoef="0" cType="1" depth="2" nType="0" pos="l" purity="0.0e+00" res="0.0e+00" rms="0.0e+00">
            <Node Cut="-1.65905356" IVar="9" NCoef="0" cType="1" depth="3" nType="0" pos="l" purity="0.0e+00" res="0.0e+00" rms="0.0e+00">
              <Node Cut="0.0e+00" IVar="-1" NCoef="0" cType="1" depth="4" nType="-99" pos="l" purity="0.0e+00" res="-0.0757481232" rms="0.0e+00"/>
              <Node Cut="0.0e+00" IVar="-1" NCoef="0" cType="1" depth="4" nType="-99" pos="r" purity="0.0e+00" res="-0.0621605851" rms="0.0e+00"/>
            </Node>
            <Node Cut="-1.06980062" IVar="1" NCoef="0" cType="1" depth="3" nType="0" pos="r" purity="0.0e+00" res="0.0e+00" rms="0.0e+00">
              <Node Cut="0.0e+00" IVar="-1" NCoef="0" cType="1" depth="4" nType="-99" pos="l" purity="0.0e+00" res="0.225348473" rms="0.0e+00"/>
              <Node Cut="0.0e+00" IVar="-1" NCoef="0" cType="1" depth="4" nType="-99" pos="r" purity="0.0e+00" res="0.144009158" rms="0.0e+00"/>
            </Node>
          </Node>
          <Node Cut="-1.06980062" IVar="1" NCoef="0" cType="1" depth="2" nType="0" pos="r" purity="0.0e+00" res="0.0e+00" rms="0.0e+00">
            <Node Cut="2.93972397" IVar="12" NCoef="0" cType="1" depth="3" nType="0" pos="l" purity="0.0e+00" res="0.0e+00" rms="0.0e+00">
              <Node Cut="0.57915622" IVar="12" NCoef="0" cType="1" depth="4" nType="0" pos="l" purity="0.0e+00" res="0.0e+00" rms="0.0e+00">
                <Node Cut="-0.764178574" IVar="0" NCoef="0" cType="1" depth="5" nType="0" pos="l" purity="0.0e+00" res="0.0e+00" rms="0.0e+00">
                  <Node Cut="-1.09773076" IVar="1" NCoef="0" cType="1" depth="6" nType="0" pos="l" purity="0.0e+00" res="0.0e+00" rms="0.0e+00">
                    <Node Cut="-0.734815657" IVar="2" NCoef="0" cType="1" depth="7" nType="0" pos="l" purity="0.0e+00" res="0.0e+00" rms="0.0e+00">
                      <Node Cut="0.0e+00" IVar="-1" NCoef="0" cType="1" depth="8" nType="-99" pos="l" purity="0.0e+00" res="-0.0755476877" rms="0.0e+00"/>
                      <Node Cut="0.0e+00" IVar="-1" NCoef="0" cType="1" depth="8" nType="-99" pos="r" purity="0.0e+00" res="-0.0523653924" rms="0.0e+00"/>
                    </Node>
                    <Node Cut="0.0e+00" IVar="-1" NCoef="0" cType="1" depth="7" nType="-99" pos="r" purity="0.0e+00" res="-0.0757607371" rms="0.0e+00"/>
                  </Node>
                  <Node Cut="0.0e+00" IVar="-1" NCoef="0" cType="1" depth="6" nType="-99" pos="r" purity="0.0e+00" res="-0.0576215908" rms="0.0e+00"/>
                </Node>
                <Node Cut="0.0e+00" IVar="-1" NCoef="0" cType="1" depth="5" nType="-99" pos="r" purity="0.0e+00" res="-0.0167315342" rms="0.0e+00"/>
              </Node>
              <Node Cut="0.0e+00" IVar="-1" NCoef="0" cType="1" depth="4" nType="-99" pos="r" purity="0.0e+00" res="0.169583768" rms="0.0e+00"/>
            </Node>
            <Node Cut="3.01809812" IVar="13" NCoef="0" cType="1" depth="3" nType="0" pos="r" purity="0.0e+00" res="0.0e+00" rms="0.0e+00">
              <Node Cut="-1.04639888" IVar="1" NCoef="0" cType="1" depth="4" nType="0" pos="l" purity="0.0e+00" res="0.0e+00" rms="0.0e+00">
                <Node Cut="-1.33183837" IVar="9" NCoef="0" cType="1" depth="5" nType="0" pos="l" purity="0.0e+00" res="0.0e+00" rms="0.0e+00">
                  <Node Cut="0.0e+00" IVar="-1" NCoef="0" cType="1" depth="6" nType="-99" pos="l" purity="0.0e+00" res="0.0131964283" rms="0.0e+00"/>
                  <Node Cut="0.0e+00" IVar="-1" NCoef="0" cType="1" depth="6" nType="-99" pos="r" purity="0.0e+00" res="-0.0757553503" rms="0.0e+00"/>
                </Node>
                <Node Cut="1.6145277" IVar="7" NCoef="0" cType="1" depth="5" nType="0" pos="r" purity="0.0e+00" res="0.0e+00" rms="0.0e+00">
                  <Node Cut="0.0e+00" IVar="-1" NCoef="0" cType="1" depth="6" nType="-99" pos="l" purity="0.0e+00" res="-0.0754198655" rms="0.0e+00"/>
                  <Node Cut="0.265986264" IVar="2" NCoef="0" cType="1" depth="6" nType="0" pos="r" purity="0.0e+00" res="0.0e+00" rms="0.0e+00">
                    <Node Cut="0.467514992" IVar="0" NCoef="0" cType="1" depth="7" nType="0" pos="l" purity="0.0e+00" res="0.0e+00" rms="0.0e+00">
                      <Node Cut="0.0e+00" IVar="-1" NCoef="0" cType="1" depth="8" nType="-99" pos="l" purity="0.0e+00" res="-0.0755020231" rms="0.0e+00"/>
                      <Node Cut="0.0e+00" IVar="-1" NCoef="0" cType="1" depth="8" nType="-99" pos="r" purity="0.0e+00" res="-0.0118840244" rms="0.0e+00"/>
                    </Node>
                    <Node Cut="0.0e+00" IVar="-1" NCoef="0" cType="1" depth="7" nType="-99" pos="r" purity="0.0e+00" res="-0.0750167072" rms="0.0e+00"/>
                  </Node>
                </Node>
              </Node>
              <Node Cut="-0.573341727" IVar="0" NCoef="0" cType="1" depth="4" nType="0" pos="r" purity="0.0e+00" res="0.0e+00" rms="0.0e+00">
                <Node Cut="0.0e+00" IVar="-1" NCoef="0" cType="1" depth="5" nType="-99" pos="l" purity="0.0e+00" res="-0.0110785197" rms="0.0e+00"/>
                <Node Cut="-1.25490141" IVar="7" NCoef="0" cType="1" depth="5" nType="0" pos="r" purity="0.0e+00" res="0.0e+00" rms="0.0e+00">
                  <Node Cut="0.0e+00" IVar="-1" NCoef="0" cType="1" depth="6" nType="-99" pos="l" purity="0.0e+00" res="-0.0530072078" rms="0.0e+00"/>
                  <Node Cut="0.0e+00" IVar="-1" NCoef="0" cType="1" depth="6" nType="-99" pos="r" purity="0.0e+00" res="-0.0757114291" rms="0.0e+00"/>
                </Node>
              </Node>
            </Node>
          </Node>
        </Node>
        <Node Cut="-1.22510397" IVar="9" NCoef="0" cType="1" depth="1" nType="0" pos="r" purity="0.0e+00" res="0.0e+00" rms="0.0e+00">
          <Node Cut="0.253866047" IVar="7" NCoef="0" cType="1" depth="2" nType="0" pos="l" purity="0.0e+00" res="0.0e+00" rms="0.0e+00">
            <Node Cut="-1.45394659" IVar="9" NCoef="0" cType="1" depth="3" nType="0" pos="l" purity="0.0e+00" res="0.0e+00" rms="0.0e+00">
              <Node Cut="-1.59593058" IVar="9" NCoef="0" cType="1" depth="4" nType="0" pos="l" purity="0.0e+00" res="0.0e+00" rms="0.0e+00">
                <Node Cut="-1.08267927" IVar="1" NCoef="0" cType="1" depth="5" nType="0" pos="l" purity="0.0e+00" res="0.0e+00" rms="0.0e+00">
                  <Node Cut="0.0e+00" IVar="-1" NCoef="0" cType="1" depth="6" nType="-99" pos="l" purity="0.0e+00" res="0.2253187" rms="0.0e+00"/>
                  <Node Cut="-0.700533986" IVar="0" NCoef="0" cType="1" depth="6" nType="0" pos="r" purity="0.0e+00" res="0.0e+00" rms="0.0e+00">
                    <Node Cut="-1.06980062" IVar="1" NCoef="0" cType="1" depth="7" nType="0" pos="l" purity="0.0e+00" res="0.0e+00" rms="0.0e+00">
                      <Node Cut="-0.578328907" IVar="4" NCoef="0" cType="1" depth="8" nType="0" pos="l" purity="0.0e+00" res="0.0e+00" rms="0.0e+00">
                        <Node Cut="0.0e+00" IVar="-1" NCoef="0" cType="1" depth="9" nType="-99" pos="l" purity="0.0e+00" res="0.194515005" rms="0.0e+00"/>
                        <Node Cut="0.0e+00" IVar="-1" NCoef="0" cType="1" depth="9" nType="-99" pos="r" purity="0.0e+00" res="0.224845827" rms="0.0e+00"/>
                      </Node>
                      <Node Cut="0.0e+00" IVar="-1" NCoef="0" cType="1" depth="8" nType="-99" pos="r" purity="0.0e+00" res="0.195051223" rms="0.0e+00"/>
                    </Node>
                    <Node Cut="0.0e+00" IVar="-1" NCoef="0" cType="1" depth="7" nType="-99" pos="r" purity="0.0e+00" res="0.223621577" rms="0.0e+00"/>
                  </Node>
                </Node>
                <Node Cut="-1.02789009" IVar="1" NCoef="0" cType="1" depth="5" nType="0" pos="r" purity="0.0e+00" res="0.0e+00" rms="0.0e+00">
                  <Node Cut="-0.695909321" IVar="2" NCoef="0" cType="1" depth="6" nType="0" pos="l" purity="0.0e+00" res="0.0e+00" rms="0.0e+00">
                    <Node Cut="0.0e+00" IVar="-1" NCoef="0" cType="1" depth="7" nType="-99" pos="l" purity="0.0e+00" res="0.223036706" rms="0.0e+00"/>
                    <Node Cut="-0.760080695" IVar="0" NCoef="0" cType="1" depth="7" nType="0" pos="r" purity="0.0e+00" res="0.0e+00" rms="0.0e+00">
                      <Node Cut="0.0e+00" IVar="-1" NCoef="0" cType="1" depth="8" nType="-99" pos="l" purity="0.0e+00" res="0.185983852" rms="0.0e+00"/>
                      <Node Cut="0.0e+00" IVar="-1" NCoef="0" cType="1" depth="8" nType="-99" pos="r" purity="0.0e+00" res="0.222974613" rms="0.0e+00"/>
                    </Node>
                  </Node>
                  <Node Cut="0.112787135" IVar="10" NCoef="0" cType="1" depth="6" nType="0" pos="r" purity="0.0e+00" res="0.0e+00" rms="0.0e+00">
                    <Node Cut="0.0e+00" IVar="-1" NCoef="0" cType="1" depth="7" nType="-99" pos="l" purity="0.0e+00" res="0.141428664" rms="0.0e+00"/>
                    <Node Cut="0.0e+00" IVar="-1" NCoef="0" cType="1" depth="7" nType="-99" pos="r" purity="0.0e+00" res="0.208250508" rms="0.0e+00"/>
                  </Node>
                </Node>
              </Node>
              <Node Cut="-0.529326916" IVar="0" NCoef="0" cType="1" depth="4" nType="0" pos="r" purity="0.0e+00" res="0.0e+00" rms="0.0e+00">
                <Node Cut="3.60896087" IVar="13" NCoef="0" cType="1" depth="5" nType="0" pos="l" purity="0.0e+00" res="0.0e+00" rms="0.0e+00">
                  <Node Cut="-0.475781739" IVar="3" NCoef="0" cType="1" depth="6" nType="0" pos="l" purity="0.0e+00" res="0.0e+00" rms="0.0e+00">
                    <Node Cut="0.0e+00" IVar="-1" NCoef="0" cType="1" depth="7" nType="-99" pos="l" purity="0.0e+00" res="0.107076004" rms="0.0e+00"/>
                    <Node Cut="0.0e+00" IVar="-1" NCoef="0" cType="1" depth="7" nType="-99" pos="r" purity="0.0e+00" res="0.188549697" rms="0.0e+00"/>
                  </Node>
                  <Node Cut="-1.05833244" IVar="1" NCoef="0" cType="1" depth="6" nType="0" pos="r" purity="0.0e+00" res="0.0e+00" rms="0.0e+00">
                    <Node Cut="-0.234787896" IVar="10" NCoef="0" cType="1" depth="7" nType="0" pos="l" purity="0.0e+00" res="0.0e+00" rms="0.0e+00">
                      <Node Cut="0.0e+00" IVar="-1" NCoef="0" cType="1" depth="8" nType="-99" pos="l" purity="0.0e+00" res="0.169739738" rms="0.0e+00"/>
                      <Node Cut="3.26149464" IVar="12" NCoef="0" cType="1" depth="8" nType="0" pos="r" purity="0.0e+00" res="0.0e+00" rms="0.0e+00">
                        <Node Cut="0.0e+00" IVar="-1" NCoef="0" cType="1" depth="9" nType="-99" pos="l" purity="0.0e+00" res="0.174913004" rms="0.0e+00"/>
                        <Node Cut="-0.569236219" IVar="5" NCoef="0" cType="1" depth="9" nType="0" pos="r" purity="0.0e+00" res="0.0e+00" rms="0.0e+00">
                          <Node Cut="0.0e+00" IVar="-1" NCoef="0" cType="1" depth="10" nType="-99" pos="l" purity="0.0e+00" res="0.205507413" rms="0.0e+00"/>
                          <Node Cut="0.0e+00" IVar="-1" NCoef="0" cType="1" depth="10" nType="-99" pos="r" purity="0.0e+00" res="0.22265406" rms="0.0e+00"/>
                        </Node>
                      </Node>
                    </Node>
                    <Node Cut="-0.206040844" IVar="10" NCoef="0" cType="1" depth="7" nType="0" pos="r" purity="0.0e+00" res="0.0e+00" rms="0.0e+00">
                      <Node Cut="0.0e+00" IVar="-1" NCoef="0" cType="1" depth="8" nType="-99" pos="l" purity="0.0e+00" res="0.210663438" rms="0.0e+00"/>
                      <Node Cut="0.0e+00" IVar="-1" NCoef="0" cType="1" depth="8" nType="-99" pos="r" purity="0.0e+00" res="0.130070105" rms="0.0e+00"/>
                    </Node>
                  </Node>
                </Node>
                <Node Cut="0.0e+00" IVar="-1" NCoef="0" cType="1" depth="5" nType="-99" pos="r" purity="0.0e+00" res="0.100208081" rms="0.0e+00"/>
              </Node>
            </Node>
            <Node Cut="0.0e+00" IVar="-1" NCoef="0" cType="1" depth="3" nType="-99" pos="r" purity="0.0e+00" res="-0.0571010001" rms="0.0e+00"/>
          </Node>
          <Node Cut="-0.994770527" IVar="1" NCoef="0" cType="1" depth="2" nType="0" pos="r" purity="0.0e+00" res="0.0e+00" rms="0.0e+00">
            <Node Cut="-0.461865187" IVar="4" NCoef="0" cType="1" depth="3" nType="0" pos="l" purity="0.0e+00" res="0.0e+00" rms="0.0e+00">
              <Node Cut="-0.522269368" IVar="4" NCoef="0" cType="1" depth="4" nType="0" pos="l" purity="0.0e+00" res="0.0e+00" rms="0.0e+00">
                <Node Cut="0.0e+00" IVar="-1" NCoef="0" cType="1" depth="5" nType="-99" pos="l" purity="0.0e+00" res="0.0936645642" rms="0.0e+00"/>
                <Node Cut="0.0e+00" IVar="-1" NCoef="0" cType="1" depth="5" nType="-99" pos="r" purity="0.0e+00" res="0.194537789" rms="0.0e+00"/>
              </Node>
              <Node Cut="0.140502766" IVar="7" NCoef="0" cType="1" depth="4" nType="0" pos="r" purity="0.0e+00" res="0.0e+00" rms="0.0e+00">
                <Node Cut="0.0e+00" IVar="-1" NCoef="0" cType="1" depth="5" nType="-99" pos="l" purity="0.0e+00" res="-0.0124873454" rms="0.0e+00"/>
                <Node Cut="0.0e+00" IVar="-1" NCoef="0" cType="1" depth="5" nType="-99" pos="r" purity="0.0e+00" res="0.107849173" rms="0.0e+00"/>
              </Node>
            </Node>
            <Node Cut="-0.841219306" IVar="9" NCoef="0" cType="1" depth="3" nType="0" pos="r" purity="0.0e+00" res="0.0e+00" rms="0.0e+00">
              <Node Cut="-0.478622079" IVar="2" NCoef="0" cType="1" depth="4" nType="0" pos="l" purity="0.0e+00" res="0.0e+00" rms="0.0e+00">
                <Node Cut="-0.575065732" IVar="2" NCoef="0" cType="1" depth="5" nType="0" pos="l" purity="0.0e+00" res="0.0e+00" rms="0.0e+00">
                  <Node Cut="0.0e+00" IVar="-1" NCoef="0" cType="1" depth="6" nType="-99" pos="l" purity="0.0e+00" res="-0.00935053546" rms="0.0e+00"/>
                  <Node Cut="0.0e+00" IVar="-1" NCoef="0" cType="1" depth="6" nType="-99" pos="r" purity="0.0e+00" res="0.0444676951" rms="0.0e+00"/>
                </Node>
                <Node Cut="0.0e+00" IVar="-1" NCoef="0" cType="1" depth="5" nType="-99" pos="r" purity="0.0e+00" res="-0.0756363645" rms="0.0e+00"/>
              </Node>
              <Node Cut="1.58170104" IVar="3" NCoef="0" cType="1" depth="4" nType="0" pos="r" purity="0.0e+00" res="0.0e+00" rms="0.0e+00">
                <Node Cut="0.0e+00" IVar="-1" NCoef="0" cType="1" depth="5" nType="-99" pos="l" purity="0.0e+00" res="-0.0746719316" rms="0.0e+00"/>
                <Node Cut="0.0e+00" IVar="-1" NCoef="0" cType="1" depth="5" nType="-99" pos="r" purity="0.0e+00" res="-0.0535897575" rms="0.0e+00"/>
              </Node>
            </Node>
          </Node>
        </Node>
      </Node>
    </BinaryTree>
    <BinaryTree boostWeight="1.0e+00" itree="1" type="DecisionTree">
      <Node Cut="3.20555615" IVar="13" NCoef="0" cType="1" depth="0" nType="0" pos="s" purity="0.0e+00" res="0.0e+00" rms="0.0e+00">
        <Node Cut="-1.63888466" IVar="9" NCoef="0" cType="1" depth="1" nType="0" pos="l" purity="0.0e+00" res="0.0e+00" rms="0.0e+00">
          <Node Cut="2.4526155" IVar="12" NCoef="0" cType="1" depth="2" nType="0" pos="l" purity="0.0e+00" res="0.0e+00" rms="0.0e+00">
            <Node Cut="0.0e+00" IVar="-1" NCoef="0" cType="1" depth="3" nType="-99" pos="l" purity="0.0e+00" res="-0.074063167" rms="0.0e+00"/>
            <Node Cut="1.40276027" IVar="6" NCoef="0" cType="1" depth="3" nType="0" pos="r" purity="0.0e+00" res="0.0e+00" rms="0.0e+00">
              <Node Cut="0.0e+00" IVar="-1" NCoef="0" cType="1" depth="4" nType="-99" pos="l" purity="0.0e+00" res="0.134481028" rms="0.0e+00"/>
              <Node Cut="0.0e+00" IVar="-1" NCoef="0" cType="1" depth="4" nType="-99" pos="r" purity="0.0e+00" res="0.187517121" rms="0.0e+00"/>
            </Node>
          </Node>
          <Node Cut="-1.0775069" IVar="1" NCoef="0" cType="1" depth="2" nType="0" pos="r" purity="0.0e+00" res="0.0e+00" rms="0.0e+00">
            <Node Cut="2.75922298" IVar="12" NCoef="0" cType="1" depth="3" nType="0" pos="l" purity="0.0e+00" res="0.0e+00" rms="0.0e+00">
              <Node Cut="0.187216938" IVar="12" NCoef="0" cType="1" depth="4" nType="0" pos="l" purity="0.0e+00" res="0.0e+00" rms="0.0e+00">
                <Node Cut="0.0e+00" IVar="-1" NCoef="0" cType="1" depth="5" nType="-99" pos="l" purity="0.0e+00" res="-0.0738880038" rms="0.0e+00"/>
                <Node Cut="0.0e+00" IVar="-1" NCoef="0" cType="1" depth="5" nType="-99" pos="r" purity="0.0e+00" res="-0.0303047486" rms="0.0e+00"/>
              </Node>
              <Node Cut="0.0e+00" IVar="-1" NCoef="0" cType="1" depth="4" nType="-99" pos="r" purity="0.0e+00" res="0.136923105" rms="0.0e+00"/>
            </Node>
            <Node Cut="3.01809812" IVar="13" NCoef="0" cType="1" depth="3" nType="0" pos="r" purity="0.0e+00" res="0.0e+00" rms="0.0e+00">
              <Node Cut="3.35697389" IVar="11" NCoef="0" cType="1" depth="4" nType="0" pos="l" purity="0.0e+00" res="0.0e+00" rms="0.0e+00">
                <Node Cut="-0.71178031" IVar="2" NCoef="0" cType="1" depth="5" nType="0" pos="l" purity="0.0e+00" res="0.0e+00" rms="0.0e+00">
                  <Node Cut="-1.41619384" IVar="9" NCoef="0" cType="1" depth="6" nType="0" pos="l" purity="0.0e+00" res="0.0e+00" rms="0.0e+00">
                    <Node Cut="0.0e+00" IVar="-1" NCoef="0" cType="1" depth="7" nType="-99" pos="l" purity="0.0e+00" res="-0.00198754086" rms="0.0e+00"/>
                    <Node Cut="0.0e+00" IVar="-1" NCoef="0" cType="1" depth="7" nType="-99" pos="r" purity="0.0e+00" res="-0.0739798769" rms="0.0e+00"/>
                  </Node>
                  <Node Cut="0.0e+00" IVar="-1" NCoef="0" cType="1" depth="6" nType="-99" pos="r" purity="0.0e+00" res="-0.0734853223" rms="0.0e+00"/>
                </Node>
                <Node Cut="0.0e+00" IVar="-1" NCoef="0" cType="1" depth="5" nType="-99" pos="r" purity="0.0e+00" res="-0.0483743325" rms="0.0e+00"/>
              </Node>
              <Node Cut="-0.665228724" IVar="0" NCoef="0" cType="1" depth="4" nType="0" pos="r" purity="0.0e+00" res="0.0e+00" rms="0.0e+00">
                <Node Cut="0.0e+00" IVar="-1" NCoef="0" cType="1" depth="5" nType="-99" pos="l" purity="0.0e+00" res="0.0122385109" rms="0.0e+00"/>
                <Node Cut="-0.751052439" IVar="6" NCoef="0" cType="1" depth="5" nType="0" pos="r" purity="0.0e+00" res="0.0e+00" rms="0.0e+00">
                  <Node Cut="0.0e+00" IVar="-1" NCoef="0" cType="1" depth="6" nType="-99" pos="l" purity="0.0e+00" res="-0.0484060347" rms="0.0e+00"/>
                  <Node Cut="0.0e+00" IVar="-1" NCoef="0" cType="1" depth="6" nType="-99" pos="r" purity="0.0e+00" res="-0.0740058273" rms="0.0e+00"/>
                </Node>
              </Node>
            </Node>
          </Node>
        </Node>
        <Node Cut="-1.17869139" IVar="9" NCoef="0" cType="1" depth="1" nType="0" pos="r" purity="0.0e+00" res="0.0e+00" rms="0.0e+00">
          <Node Cut="0.253866047" IVar="7" NCoef="0" cType="1" depth="2" nType="0" pos="l" purity="0.0e+00" res="0.0e+00" rms="0.0e+00">
            <Node Cut="-0.263053983" IVar="7" NCoef="0" cType="1" depth="3" nType="0" pos="l" purity="0.0e+00" res="0.0e+00" rms="0.0e+00">
              <Node Cut="0.0e+00" IVar="-1" NCoef="0" cType="1" depth="4" nType="-99" pos="l" purity="0.0e+00" res="-0.0775821358" rms="0.0e+00"/>
              <Node Cut="-1.39885437" IVar="9" NCoef="0" cType="1" depth="4" nType="0" pos="r" purity="0.0e+00" res="0.0e+00" rms="0.0e+00">
                <Node Cut="-1.61560643" IVar="9" NCoef="0" cType="1" depth="5" nType="0" pos="l" purity="0.0e+00" res="0.0e+00" rms="0.0e+00">
                  <Node Cut="0.0e+00" IVar="-1" NCoef="0" cType="1" depth="6" nType="-99" pos="l" purity="0.0e+00" res="0.181008622" rms="0.0e+00"/>
                  <Node Cut="-1.08890915" IVar="1" NCoef="0" cType="1" depth="6" nType="0" pos="r" purity="0.0e+00" res="0.0e+00" rms="0.0e+00">
                    <Node Cut="3.56543756" IVar="13" NCoef="0" cType="1" depth="7" nType="0" pos="l" purity="0.0e+00" res="0.0e+00" rms="0.0e+00">
                      <Node Cut="0.0e+00" IVar="-1" NCoef="0" cType="1" depth="8" nType="-99" pos="l" purity="0.0e+00" res="0.164367989" rms="0.0e+00"/>
                      <Node Cut="0.0e+00" IVar="-1" NCoef="0" cType="1" depth="8" nType="-99" pos="r" purity="0.0e+00" res="0.180083156" rms="0.0e+00"/>
                    </Node>
                    <Node Cut="3.40182471" IVar="11" NCoef="0" cType="1" depth="7" nType="0" pos="r" purity="0.0e+00" res="0.0e+00" rms="0.0e+00">
                      <Node Cut="-0.771176517" IVar="0" NCoef="0" cType="1" depth="8" nType="0" pos="l" purity="0.0e+00" res="0.0e+00" rms="0.0e+00">
                        <Node Cut="-1.14436758" IVar="6" NCoef="0" cType="1" depth="9" nType="0" pos="l" purity="0.0e+00" res="0.0e+00" rms="0.0e+00">
                          <Node Cut="0.0e+00" IVar="-1" NCoef="0" cType="1" depth="10" nType="-99" pos="l" purity="0.0e+00" res="0.178648517" rms="0.0e+00"/>
                          <Node Cut="0.0e+00" IVar="-1" NCoef="0" cType="1" depth="10" nType="-99" pos="r" purity="0.0e+00" res="0.149078712" rms="0.0e+00"/>
                        </Node>
                        <Node Cut="0.239480928" IVar="5" NCoef="0" cType="1" depth="9" nType="0" pos="r" purity="0.0e+00" res="0.0e+00" rms="0.0e+00">
                          <Node Cut="0.0e+00" IVar="-1" NCoef="0" cType="1" depth="10" nType="-99" pos="l" purity="0.0e+00" res="0.18062079" rms="0.0e+00"/>
                          <Node Cut="0.0e+00" IVar="-1" NCoef="0" cType="1" depth="10" nType="-99" pos="r" purity="0.0e+00" res="0.169179693" rms="0.0e+00"/>
                        </Node>
                      </Node>
                      <Node Cut="0.0e+00" IVar="-1" NCoef="0" cType="1" depth="8" nType="-99" pos="r" purity="0.0e+00" res="0.134796664" rms="0.0e+00"/>
                    </Node>
                  </Node>
                </Node>
                <Node Cut="3.0361743" IVar="11" NCoef="0" cType="1" depth="5" nType="0" pos="r" purity="0.0e+00" res="0.0e+00" rms="0.0e+00">
                  <Node Cut="0.0e+00" IVar="-1" NCoef="0" cType="1" depth="6" nType="-99" pos="l" purity="0.0e+00" res="0.121742241" rms="0.0e+00"/>
                  <Node Cut="3.3614924" IVar="11" NCoef="0" cType="1" depth="6" nType="0" pos="r" purity="0.0e+00" res="0.0e+00" rms="0.0e+00">
                    <Node Cut="-0.274908602" IVar="10" NCoef="0" cType="1" depth="7" nType="0" pos="l" purity="0.0e+00" res="0.0e+00" rms="0.0e+00">
                      <Node Cut="0.0e+00" IVar="-1" NCoef="0" cType="1" depth="8" nType="-99" pos="l" purity="0.0e+00" res="0.139949724" rms="0.0e+00"/>
                      <Node Cut="3.56543756" IVar="13" NCoef="0" cType="1" depth="8" nType="0" pos="r" purity="0.0e+00" res="0.0e+00" rms="0.0e+00">
                        <Node Cut="0.0e+00" IVar="-1" NCoef="0" cType="1" depth="9" nType="-99" pos="l" purity="0.0e+00" res="0.143989801" rms="0.0e+00"/>
                        <Node Cut="0.601011157" IVar="6" NCoef="0" cType="1" depth="9" nType="0" pos="r" purity="0.0e+00" res="0.0e+00" rms="0.0e+00">
                          <Node Cut="0.0e+00" IVar="-1" NCoef="0" cType="1" depth="10" nType="-99" pos="l" purity="0.0e+00" res="0.185494721" rms="0.0e+00"/>
                          <Node Cut="0.0e+00" IVar="-1" NCoef="0" cType="1" depth="10" nType="-99" pos="r" purity="0.0e+00" res="0.15977262" rms="0.0e+00"/>
                        </Node>
                      </Node>
                    </Node>
                    <Node Cut="-0.46397686" IVar="4" NCoef="0" cType="1" depth="7" nType="0" pos="r" purity="0.0e+00" res="0.0e+00" rms="0.0e+00">
                      <Node Cut="0.0e+00" IVar="-1" NCoef="0" cType="1" depth="8" nType="-99" pos="l" purity="0.0e+00" res="0.189458996" rms="0.0e+00"/>
                      <Node Cut="0.0e+00" IVar="-1" NCoef="0" cType="1" depth="8" nType="-99" pos="r" purity="0.0e+00" res="0.0803770795" rms="0.0e+00"/>
                    </Node>
                  </Node>
                </Node>
              </Node>
            </Node>
            <Node Cut="0.0e+00" IVar="-1" NCoef="0" cType="1" depth="3" nType="-99" pos="r" purity="0.0e+00" res="-0.0212608017" rms="0.0e+00"/>
          </Node>
          <Node Cut="-0.961631536" IVar="1" NCoef="0" cType="1" depth="2" nType="0" pos="r" purity="0.0e+00" res="0.0e+00" rms="0.0e+00">
            <Node Cut="0.253866047" IVar="7" NCoef="0" cType="1" depth="3" nType="0" pos="l" purity="0.0e+00" res="0.0e+00" rms="0.0e+00">
              <Node Cut="0.160007954" IVar="7" NCoef="0" cType="1" depth="4" nType="0" pos="l" purity="0.0e+00" res="0.0e+00" rms="0.0e+00">
                <Node Cut="-0.419363379" IVar="10" NCoef="0" cType="1" depth="5" nType="0" pos="l" purity="0.0e+00" res="0.0e+00" rms="0.0e+00">
                  <Node Cut="0.0e+00" IVar="-1" NCoef="0" cType="1" depth="6" nType="-99" pos="l" purity="0.0e+00" res="0.115612932" rms="0.0e+00"/>
                  <Node Cut="0.0e+00" IVar="-1" NCoef="0" cType="1" depth="6" nType="-99" pos="r" purity="0.0e+00" res="0.0131902993" rms="0.0e+00"/>
                </Node>
                <Node Cut="-0.76745075" IVar="0" NCoef="0" cType="1" depth="5" nType="0" pos="r" purity="0.0e+00" res="0.0e+00" rms="0.0e+00">
                  <Node Cut="0.0e+00" IVar="-1" NCoef="0" cType="1" depth="6" nType="-99" pos="l" purity="0.0e+00" res="0.168777689" rms="0.0e+00"/>
                  <Node Cut="0.0e+00" IVar="-1" NCoef="0" cType="1" depth="6" nType="-99" pos="r" purity="0.0e+00" res="0.100080915" rms="0.0e+00"/>
                </Node>
              </Node>
              <Node Cut="0.0e+00" IVar="-1" NCoef="0" cType="1" depth="4" nType="-99" pos="r" purity="0.0e+00" res="-0.039197512" rms="0.0e+00"/>
            </Node>
            <Node Cut="-1.07854462" IVar="9" NCoef="0" cType="1" depth="3" nType="0" pos="r" purity="0.0e+00" res="0.0e+00" rms="0.0e+00">
              <Node Cut="0.0e+00" IVar="-1" NCoef="0" cType="1" depth="4" nType="-99" pos="l" purity="0.0e+00" res="-0.029168075" rms="0.0e+00"/>
              <Node Cut="-1.58479178" IVar="6" NCoef="0" cType="1" depth="4" nType="0" pos="r" purity="0.0e+00" res="0.0e+00" rms="0.0e+00">
                <Node Cut="0.179170594" IVar="7" NCoef="0" cType="1" depth="5" nType="0" pos="l" purity="0.0e+00" res="0.0e+00" rms="0.0e+00">
                  <Node Cut="0.0e+00" IVar="-1" NCoef="0" cType="1" depth="6" nType="-99" pos="l" purity="0.0e+00" res="-0.0319835469" rms="0.0e+00"/>
                  <Node Cut="0.0e+00" IVar="-1" NCoef="0" cType="1" depth="6" nType="-99" pos="r" purity="0.0e+00" res="-0.0741982758" rms="0.0e+00"/>
                </Node>
                <Node Cut="0.0e+00" IVar="-1" NCoef="0" cType="1" depth="5" nType="-99" pos="r" purity="0.0e+00" res="-0.0740726218" rms="0.0e+00"/>
              </Node>
            </Node>
          </Node>
        </Node>
      </Node>
    </BinaryTree>
    <BinaryTree boostWeight="1.0e+00" itree="2" type="DecisionTree">
      <Node Cut="3.20555615" IVar="13" NCoef="0" cType="1" depth="0" nType="0" pos="s" purity="0.0e+00" res="0.0e+00" rms="0.0e+00">
        <Node Cut="-1.65433621" IVar="9" NCoef="0" cType="1" depth="1" nType="0" pos="l" purity="0.0e+00" res="0.0e+00" rms="0.0e+00">
          <Node Cut="2.56953096" IVar="12" NCoef="0" cType="1" depth="2" nType="0" pos="l" purity="0.0e+00" res="0.0e+00" rms="0.0e+00">
            <Node Cut="0.0515261106" IVar="10" NCoef="0" cType="1" depth="3" nType="0" pos="l" purity="0.0e+00" res="0.0e+00" rms="0.0e+00">
              <Node Cut="0.0e+00" IVar="-1" NCoef="0" cType="1" depth="4" nType="-99" pos="l" purity="0.0e+00" res="-0.0724167451" rms="0.0e+00"/>
              <Node Cut="0.0e+00" IVar="-1" NCoef="0" cType="1" depth="4" nType="-99" pos="r" purity="0.0e+00" res="-0.0538785756" rms="0.0e+00"/>
            </Node>
            <Node Cut="0.960932851" IVar="6" NCoef="0" cType="1" depth="3" nType="0" pos="r" purity="0.0e+00" res="0.0e+00" rms="0.0e+00">
              <Node Cut="0.0e+00" IVar="-1" NCoef="0" cType="1" depth="4" nType="-99" pos="l" purity="0.0e+00" res="0.114340492" rms="0.0e+00"/>
              <Node Cut="0.0e+00" IVar="-1" NCoef="0" cType="1" depth="4" nType="-99" pos="r" purity="0.0e+00" res="0.155646205" rms="0.0e+00"/>
            </Node>
          </Node>
          <Node Cut="3.45539975" IVar="12" NCoef="0" cType="1" depth="2" nType="0" pos="r" purity="0.0e+00" res="0.0e+00" rms="0.0e+00">
            <Node Cut="-0.78729862" IVar="0" NCoef="0" cType="1" depth="3" nType="0" pos="l" purity="0.0e+00" res="0.0e+00" rms="0.0e+00">
              <Node Cut="1.38795996" IVar="13" NCoef="0" cType="1" depth="4" nType="0" pos="l" purity="0.0e+00" res="0.0e+00" rms="0.0e+00">
                <Node Cut="0.0e+00" IVar="-1" NCoef="0" cType="1" depth="5" nType="-99" pos="l" purity="0.0e+00" res="-0.0722922161" rms="0.0e+00"/>
                <Node Cut="0.0e+00" IVar="-1" NCoef="0" cType="1" depth="5" nType="-99" pos="r" purity="0.0e+00" res="0.0908990726" rms="0.0e+00"/>
              </Node>
              <Node Cut="3.01809812" IVar="13" NCoef="0" cType="1" depth="4" nType="0" pos="r" purity="0.0e+00" res="0.0e+00" rms="0.0e+00">
                <Node Cut="1.89247239" IVar="5" NCoef="0" cType="1" depth="5" nType="0" pos="l" purity="0.0e+00" res="0.0e+00" rms="0.0e+00">
                  <Node Cut="2.33593535" IVar="13" NCoef="0" cType="1" depth="6" nType="0" pos="l" purity="0.0e+00" res="0.0e+00" rms="0.0e+00">
                    <Node Cut="3.29797983" IVar="12" NCoef="0" cType="1" depth="7" nType="0" pos="l" purity="0.0e+00" res="0.0e+00" rms="0.0e+00">
                      <Node Cut="0.0e+00" IVar="-1" NCoef="0" cType="1" depth="8" nType="-99" pos="l" purity="0.0e+00" res="-0.0720583275" rms="0.0e+00"/>
                      <Node Cut="0.0e+00" IVar="-1" NCoef="0" cType="1" depth="8" nType="-99" pos="r" purity="0.0e+00" res="-0.0562691391" rms="0.0e+00"/>
                    </Node>
                    <Node Cut="-1.02612782" IVar="9" NCoef="0" cType="1" depth="7" nType="0" pos="r" purity="0.0e+00" res="0.0e+00" rms="0.0e+00">
                      <Node Cut="-0.0215137545" IVar="4" NCoef="0" cType="1" depth="8" nType="0" pos="l" purity="0.0e+00" res="0.0e+00" rms="0.0e+00">
                        <Node Cut="-0.35915342" IVar="5" NCoef="0" cType="1" depth="9" nType="0" pos="l" purity="0.0e+00" res="0.0e+00" rms="0.0e+00">
                          <Node Cut="0.0e+00" IVar="-1" NCoef="0" cType="1" depth="10" nType="-99" pos="l" purity="0.0e+00" res="-0.0512104146" rms="0.0e+00"/>
                          <Node Cut="0.0e+00" IVar="-1" NCoef="0" cType="1" depth="10" nType="-99" pos="r" purity="0.0e+00" res="-0.0723480061" rms="0.0e+00"/>
                        </Node>
                        <Node Cut="0.0e+00" IVar="-1" NCoef="0" cType="1" depth="9" nType="-99" pos="r" purity="0.0e+00" res="-0.0026428306" rms="0.0e+00"/>
                      </Node>
                      <Node Cut="0.0e+00" IVar="-1" NCoef="0" cType="1" depth="8" nType="-99" pos="r" purity="0.0e+00" res="-0.0723265409" rms="0.0e+00"/>
                    </Node>
                  </Node>
                  <Node Cut="1.50278306" IVar="6" NCoef="0" cType="1" depth="6" nType="0" pos="r" purity="0.0e+00" res="0.0e+00" rms="0.0e+00">
                    <Node Cut="0.157724828" IVar="4" NCoef="0" cType="1" depth="7" nType="0" pos="l" purity="0.0e+00" res="0.0e+00" rms="0.0e+00">
                      <Node Cut="0.0e+00" IVar="-1" NCoef="0" cType="1" depth="8" nType="-99" pos="l" purity="0.0e+00" res="-0.072258532" rms="0.0e+00"/>
                      <Node Cut="0.297296166" IVar="4" NCoef="0" cType="1" depth="8" nType="0" pos="r" purity="0.0e+00" res="0.0e+00" rms="0.0e+00">
                        <Node Cut="0.0e+00" IVar="-1" NCoef="0" cType="1" depth="9" nType="-99" pos="l" purity="0.0e+00" res="-0.0129485549" rms="0.0e+00"/>
                        <Node Cut="0.0e+00" IVar="-1" NCoef="0" cType="1" depth="9" nType="-99" pos="r" purity="0.0e+00" res="-0.0722070113" rms="0.0e+00"/>
                      </Node>
                    </Node>
                    <Node Cut="-0.401589602" IVar="12" NCoef="0" cType="1" depth="7" nType="0" pos="r" purity="0.0e+00" res="0.0e+00" rms="0.0e+00">
                      <Node Cut="0.0e+00" IVar="-1" NCoef="0" cType="1" depth="8" nType="-99" pos="l" purity="0.0e+00" res="-0.0721186623" rms="0.0e+00"/>
                      <Node Cut="0.0e+00" IVar="-1" NCoef="0" cType="1" depth="8" nType="-99" pos="r" purity="0.0e+00" res="-0.0025727516" rms="0.0e+00"/>
                    </Node>
                  </Node>
                </Node>
                <Node Cut="-1.2126683" IVar="5" NCoef="0" cType="1" depth="5" nType="0" pos="r" purity="0.0e+00" res="0.0e+00" rms="0.0e+00">
                  <Node Cut="0.0e+00" IVar="-1" NCoef="0" cType="1" depth="6" nType="-99" pos="l" purity="0.0e+00" res="-0.00552341575" rms="0.0e+00"/>
                  <Node Cut="0.831234992" IVar="6" NCoef="0" cType="1" depth="6" nType="0" pos="r" purity="0.0e+00" res="0.0e+00" rms="0.0e+00">
                    <Node Cut="0.0e+00" IVar="-1" NCoef="0" cType="1" depth="7" nType="-99" pos="l" purity="0.0e+00" res="-0.0729458779" rms="0.0e+00"/>
                    <Node Cut="0.0e+00" IVar="-1" NCoef="0" cType="1" depth="7" nType="-99" pos="r" purity="0.0e+00" res="-0.0546983443" rms="0.0e+00"/>
                  </Node>
                </Node>
              </Node>
            </Node>
            <Node Cut="0.0e+00" IVar="-1" NCoef="0" cType="1" depth="3" nType="-99" pos="r" purity="0.0e+00" res="0.0196846575" rms="0.0e+00"/>
          </Node>
        </Node>
        <Node Cut="-1.06467748" IVar="9" NCoef="0" cType="1" depth="1" nType="0" pos="r" purity="0.0e+00" res="0.0e+00" rms="0.0e+00">
          <Node Cut="0.253866047" IVar="7" NCoef="0" cType="1" depth="2" nType="0" pos="l" purity="0.0e+00" res="0.0e+00" rms="0.0e+00">
            <Node Cut="-0.291065753" IVar="7" NCoef="0" cType="1" depth="3" nType="0" pos="l" purity="0.0e+00" res="0.0e+00" rms="0.0e+00">
              <Node Cut="0.0e+00" IVar="-1" NCoef="0" cType="1" depth="4" nType="-99" pos="l" purity="0.0e+00" res="-0.0749486759" rms="0.0e+00"/>
              <Node Cut="-1.30105948" IVar="9" NCoef="0" cType="1" depth="4" nType="0" pos="r" purity="0.0e+00" res="0.0e+00" rms="0.0e+00">
                <Node Cut="-0.187906399" IVar="7" NCoef="0" cType="1" depth="5" nType="0" pos="l" purity="0.0e+00" res="0.0e+00" rms="0.0e+00">
                  <Node Cut="0.0e+00" IVar="-1" NCoef="0" cType="1" depth="6" nType="-99" pos="l" purity="0.0e+00" res="0.111432321" rms="0.0e+00"/>
                  <Node Cut="0.119083822" IVar="7" NCoef="0" cType="1" depth="6" nType="0" pos="r" purity="0.0e+00" res="0.0e+00" rms="0.0e+00">
                    <Node Cut="-1.41619384" IVar="9" NCoef="0" cType="1" depth="7" nType="0" pos="l" purity="0.0e+00" res="0.0e+00" rms="0.0e+00">
                      <Node Cut="-0.141847402" IVar="7" NCoef="0" cType="1" depth="8" nType="0" pos="l" purity="0.0e+00" res="0.0e+00" rms="0.0e+00">
                        <Node Cut="0.0e+00" IVar="-1" NCoef="0" cType="1" depth="9" nType="-99" pos="l" purity="0.0e+00" res="0.139989048" rms="0.0e+00"/>
                        <Node Cut="0.0e+00" IVar="-1" NCoef="0" cType="1" depth="9" nType="-99" pos="r" purity="0.0e+00" res="0.153025612" rms="0.0e+00"/>
                      </Node>
                      <Node Cut="-0.141847402" IVar="7" NCoef="0" cType="1" depth="8" nType="0" pos="r" purity="0.0e+00" res="0.0e+00" rms="0.0e+00">
                        <Node Cut="3.25331855" IVar="11" NCoef="0" cType="1" depth="9" nType="0" pos="l" purity="0.0e+00" res="0.0e+00" rms="0.0e+00">
                          <Node Cut="0.0e+00" IVar="-1" NCoef="0" cType="1" depth="10" nType="-99" pos="l" purity="0.0e+00" res="0.166223243" rms="0.0e+00"/>
                          <Node Cut="0.0e+00" IVar="-1" NCoef="0" cType="1" depth="10" nType="-99" pos="r" purity="0.0e+00" res="0.143787682" rms="0.0e+00"/>
                        </Node>
                        <Node Cut="0.0e+00" IVar="-1" NCoef="0" cType="1" depth="9" nType="-99" pos="r" purity="0.0e+00" res="0.109834179" rms="0.0e+00"/>
                      </Node>
                    </Node>
                    <Node Cut="0.584882379" IVar="5" NCoef="0" cType="1" depth="7" nType="0" pos="r" purity="0.0e+00" res="0.0e+00" rms="0.0e+00">
                      <Node Cut="-0.504120648" IVar="3" NCoef="0" cType="1" depth="8" nType="0" pos="l" purity="0.0e+00" res="0.0e+00" rms="0.0e+00">
                        <Node Cut="0.0e+00" IVar="-1" NCoef="0" cType="1" depth="9" nType="-99" pos="l" purity="0.0e+00" res="0.132449463" rms="0.0e+00"/>
                        <Node Cut="0.0e+00" IVar="-1" NCoef="0" cType="1" depth="9" nType="-99" pos="r" purity="0.0e+00" res="0.15399456" rms="0.0e+00"/>
                      </Node>
                      <Node Cut="3.33071613" IVar="11" NCoef="0" cType="1" depth="8" nType="0" pos="r" purity="0.0e+00" res="0.0e+00" rms="0.0e+00">
                        <Node Cut="0.0e+00" IVar="-1" NCoef="0" cType="1" depth="9" nType="-99" pos="l" purity="0.0e+00" res="0.100934744" rms="0.0e+00"/>
                        <Node Cut="0.0e+00" IVar="-1" NCoef="0" cType="1" depth="9" nType="-99" pos="r" purity="0.0e+00" res="0.14322117" rms="0.0e+00"/>
                      </Node>
                    </Node>
                  </Node>
                </Node>
                <Node Cut="2.92428803" IVar="11" NCoef="0" cType="1" depth="5" nType="0" pos="r" purity="0.0e+00" res="0.0e+00" rms="0.0e+00">
                  <Node Cut="0.0e+00" IVar="-1" NCoef="0" cType="1" depth="6" nType="-99" pos="l" purity="0.0e+00" res="0.0441461578" rms="0.0e+00"/>
                  <Node Cut="3.8763268" IVar="13" NCoef="0" cType="1" depth="6" nType="0" pos="r" purity="0.0e+00" res="0.0e+00" rms="0.0e+00">
                    <Node Cut="0.41001761" IVar="5" NCoef="0" cType="1" depth="7" nType="0" pos="l" purity="0.0e+00" res="0.0e+00" rms="0.0e+00">
                      <Node Cut="-0.731431544" IVar="0" NCoef="0" cType="1" depth="8" nType="0" pos="l" purity="0.0e+00" res="0.0e+00" rms="0.0e+00">
                        <Node Cut="0.0e+00" IVar="-1" NCoef="0" cType="1" depth="9" nType="-99" pos="l" purity="0.0e+00" res="0.076978378" rms="0.0e+00"/>
                        <Node Cut="0.0e+00" IVar="-1" NCoef="0" cType="1" depth="9" nType="-99" pos="r" purity="0.0e+00" res="0.150874898" rms="0.0e+00"/>
                      </Node>
                      <Node Cut="0.234011427" IVar="10" NCoef="0" cType="1" depth="8" nType="0" pos="r" purity="0.0e+00" res="0.0e+00" rms="0.0e+00">
                        <Node Cut="0.0e+00" IVar="-1" NCoef="0" cType="1" depth="9" nType="-99" pos="l" purity="0.0e+00" res="0.106554233" rms="0.0e+00"/>
                        <Node Cut="0.0e+00" IVar="-1" NCoef="0" cType="1" depth="9" nType="-99" pos="r" purity="0.0e+00" res="0.156679779" rms="0.0e+00"/>
                      </Node>
                    </Node>
                    <Node Cut="0.0e+00" IVar="-1" NCoef="0" cType="1" depth="7" nType="-99" pos="r" purity="0.0e+00" res="0.157284766" rms="0.0e+00"/>
                  </Node>
                </Node>
              </Node>
            </Node>
            <Node Cut="3.73912287" IVar="13" NCoef="0" cType="1" depth="3" nType="0" pos="r" purity="0.0e+00" res="0.0e+00" rms="0.0e+00">
              <Node Cut="0.0e+00" IVar="-1" NCoef="0" cType="1" depth="4" nType="-99" pos="l" purity="0.0e+00" res="-0.0737271532" rms="0.0e+00"/>
              <Node Cut="0.0e+00" IVar="-1" NCoef="0" cType="1" depth="4" nType="-99" pos="r" purity="0.0e+00" res="-0.00514900871" rms="0.0e+00"/>
            </Node>
          </Node>
          <Node Cut="-0.934298575" IVar="1" NCoef="0" cType="1" depth="2" nType="0" pos="r" purity="0.0e+00" res="0.0e+00" rms="0.0e+00">
            <Node Cut="3.43159246" IVar="13" NCoef="0" cType="1" depth="3" nType="0" pos="l" purity="0.0e+00" res="0.0e+00" rms="0.0e+00">
              <Node Cut="0.0e+00" IVar="-1" NCoef="0" cType="1" depth="4" nType="-99" pos="l" purity="0.0e+00" res="-0.0554888509" rms="0.0e+00"/>
              <Node Cut="-0.994770527" IVar="1" NCoef="0" cType="1" depth="4" nType="0" pos="r" purity="0.0e+00" res="0.0e+00" rms="0.0e+00">
                <Node Cut="0.0e+00" IVar="-1" NCoef="0" cType="1" depth="5" nType="-99" pos="l" purity="0.0e+00" res="0.0922234952" rms="0.0e+00"/>
                <Node Cut="0.0e+00" IVar="-1" NCoef="0" cType="1" depth="5" nType="-99" pos="r" purity="0.0e+00" res="0.0146645661" rms="0.0e+00"/>
              </Node>
            </Node>
            <Node Cut="-0.902890623" IVar="9" NCoef="0" cType="1" depth="3" nType="0" pos="r" purity="0.0e+00" res="0.0e+00" rms="0.0e+00">
              <Node Cut="0.0e+00" IVar="-1" NCoef="0" cType="1" depth="4" nType="-99" pos="l" purity="0.0e+00" res="-0.0311294682" rms="0.0e+00"/>
              <Node Cut="0.896582305" IVar="10" NCoef="0" cType="1" depth="4" nType="0" pos="r" purity="0.0e+00" res="0.0e+00" rms="0.0e+00">
                <Node Cut="0.0e+00" IVar="-1" NCoef="0" cType="1" depth="5" nType="-99" pos="l" purity="0.0e+00" res="-0.0725279674" rms="0.0e+00"/>
                <Node Cut="-0.458500385" IVar="3" NCoef="0" cType="1" depth="5" nType="0" pos="r" purity="0.0e+00" res="0.0e+00" rms="0.0e+00">
                  <Node Cut="0.0e+00" IVar="-1" NCoef="0" cType="1" depth="6" nType="-99" pos="l" purity="0.0e+00" res="-0.0719856024" rms="0.0e+00"/>
                  <Node Cut="0.0e+00" IVar="-1" NCoef="0" cType="1" depth="6" nType="-99" pos="r" purity="0.0e+00" res="-0.0487508588" rms="0.0e+00"/>
                </Node>
              </Node>
            </Node>
          </Node>
        </Node>
      </Node>
    </BinaryTree>
    <BinaryTree boostWeight="1.0e+00" itree="3" type="DecisionTree">
      <Node Cut="3.20555615" IVar="13" NCoef="0" cType="1" depth="0" nType="0" pos="s" purity="0.0e+00" res="0.0e+00" rms="0.0e+00">
        <Node Cut="-1.62355208" IVar="9" NCoef="0" cType="1" depth="1" nType="0" pos="l" purity="0.0e+00" res="0.0e+00" rms="0.0e+00">
          <Node Cut="2.75922298" IVar="12" NCoef="0" cType="1" depth="2" nType="0" pos="l" purity="0.0e+00" res="0.0e+00" rms="0.0e+00">
            <Node Cut="-0.924892962" IVar="5" NCoef="0" cType="1" depth="3" nType="0" pos="l" purity="0.0e+00" res="0.0e+00" rms="0.0e+00">
              <Node Cut="0.0e+00" IVar="-1" NCoef="0" cType="1" depth="4" nType="-99" pos="l" purity="0.0e+00" res="-0.0477429517" rms="0.0e+00"/>
              <Node Cut="0.0409916379" IVar="10" NCoef="0" cType="1" depth="4" nType="0" pos="r" purity="0.0e+00" res="0.0e+00" rms="0.0e+00">
                <Node Cut="0.0e+00" IVar="-1" NCoef="0" cType="1" depth="5" nType="-99" pos="l" purity="0.0e+00" res="-0.0712488294" rms="0.0e+00"/>
                <Node Cut="0.0e+00" IVar="-1" NCoef="0" cType="1" depth="5" nType="-99" pos="r" purity="0.0e+00" res="-0.0583955012" rms="0.0e+00"/>
              </Node>
            </Node>
            <Node Cut="3.37260771" IVar="12" NCoef="0" cType="1" depth="3" nType="0" pos="r" purity="0.0e+00" res="0.0e+00" rms="0.0e+00">
              <Node Cut="1.57384002" IVar="6" NCoef="0" cType="1" depth="4" nType="0" pos="l" purity="0.0e+00" res="0.0e+00" rms="0.0e+00">
                <Node Cut="0.0e+00" IVar="-1" NCoef="0" cType="1" depth="5" nType="-99" pos="l" purity="0.0e+00" res="0.120911665" rms="0.0e+00"/>
                <Node Cut="0.0e+00" IVar="-1" NCoef="0" cType="1" depth="5" nType="-99" pos="r" purity="0.0e+00" res="0.140614718" rms="0.0e+00"/>
              </Node>
              <Node Cut="0.0e+00" IVar="-1" NCoef="0" cType="1" depth="4" nType="-99" pos="r" purity="0.0e+00" res="0.14527148" rms="0.0e+00"/>
            </Node>
          </Node>
          <Node Cut="3.01809812" IVar="13" NCoef="0" cType="1" depth="2" nType="0" pos="r" purity="0.0e+00" res="0.0e+00" rms="0.0e+00">
            <Node Cut="-1.0775069" IVar="1" NCoef="0" cType="1" depth="3" nType="0" pos="l" purity="0.0e+00" res="0.0e+00" rms="0.0e+00">
              <Node Cut="1.38795996" IVar="13" NCoef="0" cType="1" depth="4" nType="0" pos="l" purity="0.0e+00" res="0.0e+00" rms="0.0e+00">
                <Node Cut="-1.24747908" IVar="6" NCoef="0" cType="1" depth="5" nType="0" pos="l" purity="0.0e+00" res="0.0e+00" rms="0.0e+00">
                  <Node Cut="0.0e+00" IVar="-1" NCoef="0" cType="1" depth="6" nType="-99" pos="l" purity="0.0e+00" res="-0.0370528661" rms="0.0e+00"/>
                  <Node Cut="0.0e+00" IVar="-1" NCoef="0" cType="1" depth="6" nType="-99" pos="r" purity="0.0e+00" res="-0.0708236322" rms="0.0e+00"/>
                </Node>
                <Node Cut="0.0e+00" IVar="-1" NCoef="0" cType="1" depth="5" nType="-99" pos="r" purity="0.0e+00" res="0.0145126237" rms="0.0e+00"/>
              </Node>
              <Node Cut="-0.735645771" IVar="2" NCoef="0" cType="1" depth="4" nType="0" pos="r" purity="0.0e+00" res="0.0e+00" rms="0.0e+00">
                <Node Cut="-0.896306038" IVar="1" NCoef="0" cType="1" depth="5" nType="0" pos="l" purity="0.0e+00" res="0.0e+00" rms="0.0e+00">
                  <Node Cut="0.0e+00" IVar="-1" NCoef="0" cType="1" depth="6" nType="-99" pos="l" purity="0.0e+00" res="-0.0706262067" rms="0.0e+00"/>
                  <Node Cut="0.0e+00" IVar="-1" NCoef="0" cType="1" depth="6" nType="-99" pos="r" purity="0.0e+00" res="-0.0494104624" rms="0.0e+00"/>
                </Node>
                <Node Cut="1.8930887" IVar="7" NCoef="0" cType="1" depth="5" nType="0" pos="r" purity="0.0e+00" res="0.0e+00" rms="0.0e+00">
                  <Node Cut="0.266229481" IVar="9" NCoef="0" cType="1" depth="6" nType="0" pos="l" purity="0.0e+00" res="0.0e+00" rms="0.0e+00">
                    <Node Cut="2.07635951" IVar="5" NCoef="0" cType="1" depth="7" nType="0" pos="l" purity="0.0e+00" res="0.0e+00" rms="0.0e+00">
                      <Node Cut="1.01655805" IVar="10" NCoef="0" cType="1" depth="8" nType="0" pos="l" purity="0.0e+00" res="0.0e+00" rms="0.0e+00">
                        <Node Cut="2.65286136" IVar="11" NCoef="0" cType="1" depth="9" nType="0" pos="l" purity="0.0e+00" res="0.0e+00" rms="0.0e+00">
                          <Node Cut="0.0e+00" IVar="-1" NCoef="0" cType="1" depth="10" nType="-99" pos="l" purity="0.0e+00" res="-0.0701840073" rms="0.0e+00"/>
                          <Node Cut="0.0e+00" IVar="-1" NCoef="0" cType="1" depth="10" nType="-99" pos="r" purity="0.0e+00" res="-0.0656189546" rms="0.0e+00"/>
                        </Node>
                        <Node Cut="0.0e+00" IVar="-1" NCoef="0" cType="1" depth="9" nType="-99" pos="r" purity="0.0e+00" res="-0.0580497235" rms="0.0e+00"/>
                      </Node>
                      <Node Cut="0.295363426" IVar="0" NCoef="0" cType="1" depth="8" nType="0" pos="r" purity="0.0e+00" res="0.0e+00" rms="0.0e+00">
                        <Node Cut="0.0e+00" IVar="-1" NCoef="0" cType="1" depth="9" nType="-99" pos="l" purity="0.0e+00" res="-0.0372150764" rms="0.0e+00"/>
                        <Node Cut="0.0e+00" IVar="-1" NCoef="0" cType="1" depth="9" nType="-99" pos="r" purity="0.0e+00" res="-0.0707661957" rms="0.0e+00"/>
                      </Node>
                    </Node>
                    <Node Cut="0.0e+00" IVar="-1" NCoef="0" cType="1" depth="7" nType="-99" pos="r" purity="0.0e+00" res="-0.070788525" rms="0.0e+00"/>
                  </Node>
                  <Node Cut="1.49570692" IVar="1" NCoef="0" cType="1" depth="6" nType="0" pos="r" purity="0.0e+00" res="0.0e+00" rms="0.0e+00">
                    <Node Cut="0.0e+00" IVar="-1" NCoef="0" cType="1" depth="7" nType="-99" pos="l" purity="0.0e+00" res="-0.0351768099" rms="0.0e+00"/>
                    <Node Cut="0.0e+00" IVar="-1" NCoef="0" cType="1" depth="7" nType="-99" pos="r" purity="0.0e+00" res="-0.0707625449" rms="0.0e+00"/>
                  </Node>
                </Node>
              </Node>
            </Node>
            <Node Cut="-0.986866832" IVar="1" NCoef="0" cType="1" depth="3" nType="0" pos="r" purity="0.0e+00" res="0.0e+00" rms="0.0e+00">
              <Node Cut="0.0e+00" IVar="-1" NCoef="0" cType="1" depth="4" nType="-99" pos="l" purity="0.0e+00" res="0.0394841023" rms="0.0e+00"/>
              <Node Cut="-1.2126683" IVar="5" NCoef="0" cType="1" depth="4" nType="0" pos="r" purity="0.0e+00" res="0.0e+00" rms="0.0e+00">
                <Node Cut="0.0e+00" IVar="-1" NCoef="0" cType="1" depth="5" nType="-99" pos="l" purity="0.0e+00" res="0.0060619521" rms="0.0e+00"/>
                <Node Cut="0.0e+00" IVar="-1" NCoef="0" cType="1" depth="5" nType="-99" pos="r" purity="0.0e+00" res="-0.0712737218" rms="0.0e+00"/>
              </Node>
            </Node>
          </Node>
        </Node>
        <Node Cut="-1.11943495" IVar="9" NCoef="0" cType="1" depth="1" nType="0" pos="r" purity="0.0e+00" res="0.0e+00" rms="0.0e+00">
          <Node Cut="0.279068232" IVar="7" NCoef="0" cType="1" depth="2" nType="0" pos="l" purity="0.0e+00" res="0.0e+00" rms="0.0e+00">
            <Node Cut="-0.291065753" IVar="7" NCoef="0" cType="1" depth="3" nType="0" pos="l" purity="0.0e+00" res="0.0e+00" rms="0.0e+00">
              <Node Cut="0.0e+00" IVar="-1" NCoef="0" cType="1" depth="4" nType="-99" pos="l" purity="0.0e+00" res="-0.0735762268" rms="0.0e+00"/>
              <Node Cut="-1.41619384" IVar="9" NCoef="0" cType="1" depth="4" nType="0" pos="r" purity="0.0e+00" res="0.0e+00" rms="0.0e+00">
                <Node Cut="-1.59593058" IVar="9" NCoef="0" cType="1" depth="5" nType="0" pos="l" purity="0.0e+00" res="0.0e+00" rms="0.0e+00">
                  <Node Cut="0.0e+00" IVar="-1" NCoef="0" cType="1" depth="6" nType="-99" pos="l" purity="0.0e+00" res="0.133491293" rms="0.0e+00"/>
                  <Node Cut="-0.784291565" IVar="0" NCoef="0" cType="1" depth="6" nType="0" pos="r" purity="0.0e+00" res="0.0e+00" rms="0.0e+00">
                    <Node Cut="0.0e+00" IVar="-1" NCoef="0" cType="1" depth="7" nType="-99" pos="l" purity="0.0e+00" res="0.132362247" rms="0.0e+00"/>
                    <Node Cut="3.56543756" IVar="13" NCoef="0" cType="1" depth="7" nType="0" pos="r" purity="0.0e+00" res="0.0e+00" rms="0.0e+00">
                      <Node Cut="0.0896218792" IVar="7" NCoef="0" cType="1" depth="8" nType="0" pos="l" purity="0.0e+00" res="0.0e+00" rms="0.0e+00">
                        <Node Cut="0.0e+00" IVar="-1" NCoef="0" cType="1" depth="9" nType="-99" pos="l" purity="0.0e+00" res="0.127034456" rms="0.0e+00"/>
                        <Node Cut="0.0e+00" IVar="-1" NCoef="0" cType="1" depth="9" nType="-99" pos="r" purity="0.0e+00" res="0.0660796762" rms="0.0e+00"/>
                      </Node>
                      <Node Cut="-1.05833244" IVar="1" NCoef="0" cType="1" depth="8" nType="0" pos="r" purity="0.0e+00" res="0.0e+00" rms="0.0e+00">
                        <Node Cut="-0.704039752" IVar="2" NCoef="0" cType="1" depth="9" nType="0" pos="l" purity="0.0e+00" res="0.0e+00" rms="0.0e+00">
                          <Node Cut="0.0e+00" IVar="-1" NCoef="0" cType="1" depth="10" nType="-99" pos="l" purity="0.0e+00" res="0.13296932" rms="0.0e+00"/>
                          <Node Cut="0.0e+00" IVar="-1" NCoef="0" cType="1" depth="10" nType="-99" pos="r" purity="0.0e+00" res="0.116601817" rms="0.0e+00"/>
                        </Node>
                        <Node Cut="1.00033009" IVar="8" NCoef="0" cType="1" depth="9" nType="0" pos="r" purity="0.0e+00" res="0.0e+00" rms="0.0e+00">
                          <Node Cut="0.0e+00" IVar="-1" NCoef="0" cType="1" depth="10" nType="-99" pos="l" purity="0.0e+00" res="0.0920517147" rms="0.0e+00"/>
                          <Node Cut="0.0e+00" IVar="-1" NCoef="0" cType="1" depth="10" nType="-99" pos="r" purity="0.0e+00" res="0.120936535" rms="0.0e+00"/>
                        </Node>
                      </Node>
                    </Node>
                  </Node>
                </Node>
                <Node Cut="1.61842263" IVar="6" NCoef="0" cType="1" depth="5" nType="0" pos="r" purity="0.0e+00" res="0.0e+00" rms="0.0e+00">
                  <Node Cut="-0.511109769" IVar="4" NCoef="0" cType="1" depth="6" nType="0" pos="l" purity="0.0e+00" res="0.0e+00" rms="0.0e+00">
                    <Node Cut="-0.575501561" IVar="4" NCoef="0" cType="1" depth="7" nType="0" pos="l" purity="0.0e+00" res="0.0e+00" rms="0.0e+00">
                      <Node Cut="-0.482430071" IVar="3" NCoef="0" cType="1" depth="8" nType="0" pos="l" purity="0.0e+00" res="0.0e+00" rms="0.0e+00">
                        <Node Cut="0.0e+00" IVar="-1" NCoef="0" cType="1" depth="9" nType="-99" pos="l" purity="0.0e+00" res="0.110166408" rms="0.0e+00"/>
                        <Node Cut="0.0e+00" IVar="-1" NCoef="0" cType="1" depth="9" nType="-99" pos="r" purity="0.0e+00" res="0.141450509" rms="0.0e+00"/>
                      </Node>
                      <Node Cut="-1.07412112" IVar="1" NCoef="0" cType="1" depth="8" nType="0" pos="r" purity="0.0e+00" res="0.0e+00" rms="0.0e+00">
                        <Node Cut="0.0e+00" IVar="-1" NCoef="0" cType="1" depth="9" nType="-99" pos="l" purity="0.0e+00" res="0.0312050208" rms="0.0e+00"/>
                        <Node Cut="-0.496838301" IVar="3" NCoef="0" cType="1" depth="9" nType="0" pos="r" purity="0.0e+00" res="0.0e+00" rms="0.0e+00">
                          <Node Cut="0.0e+00" IVar="-1" NCoef="0" cType="1" depth="10" nType="-99" pos="l" purity="0.0e+00" res="0.125796407" rms="0.0e+00"/>
                          <Node Cut="0.0e+00" IVar="-1" NCoef="0" cType="1" depth="10" nType="-99" pos="r" purity="0.0e+00" res="0.0748914704" rms="0.0e+00"/>
                        </Node>
                      </Node>
                    </Node>
                    <Node Cut="0.774071097" IVar="5" NCoef="0" cType="1" depth="7" nType="0" pos="r" purity="0.0e+00" res="0.0e+00" rms="0.0e+00">
                      <Node Cut="-0.506311297" IVar="3" NCoef="0" cType="1" depth="8" nType="0" pos="l" purity="0.0e+00" res="0.0e+00" rms="0.0e+00">
                        <Node Cut="0.0e+00" IVar="-1" NCoef="0" cType="1" depth="9" nType="-99" pos="l" purity="0.0e+00" res="0.0860650465" rms="0.0e+00"/>
                        <Node Cut="-0.308654279" IVar="10" NCoef="0" cType="1" depth="9" nType="0" pos="r" purity="0.0e+00" res="0.0e+00" rms="0.0e+00">
                          <Node Cut="0.0e+00" IVar="-1" NCoef="0" cType="1" depth="10" nType="-99" pos="l" purity="0.0e+00" res="0.163471654" rms="0.0e+00"/>
                          <Node Cut="0.0e+00" IVar="-1" NCoef="0" cType="1" depth="10" nType="-99" pos="r" purity="0.0e+00" res="0.129440382" rms="0.0e+00"/>
                        </Node>
                      </Node>
                      <Node Cut="-1.31559145" IVar="9" NCoef="0" cType="1" depth="8" nType="0" pos="r" purity="0.0e+00" res="0.0e+00" rms="0.0e+00">
                        <Node Cut="0.0e+00" IVar="-1" NCoef="0" cType="1" depth="9" nType="-99" pos="l" purity="0.0e+00" res="0.123735055" rms="0.0e+00"/>
                        <Node Cut="0.0e+00" IVar="-1" NCoef="0" cType="1" depth="9" nType="-99" pos="r" purity="0.0e+00" res="0.0736702308" rms="0.0e+00"/>
                      </Node>
                    </Node>
                  </Node>
                  <Node Cut="0.0e+00" IVar="-1" NCoef="0" cType="1" depth="6" nType="-99" pos="r" purity="0.0e+00" res="0.066817455" rms="0.0e+00"/>
                </Node>
              </Node>
            </Node>
            <Node Cut="0.0e+00" IVar="-1" NCoef="0" cType="1" depth="3" nType="-99" pos="r" purity="0.0e+00" res="-0.0727999136" rms="0.0e+00"/>
          </Node>
          <Node Cut="-0.749155045" IVar="0" NCoef="0" cType="1" depth="2" nType="0" pos="r" purity="0.0e+00" res="0.0e+00" rms="0.0e+00">
            <Node Cut="1.00033009" IVar="8" NCoef="0" cType="1" depth="3" nType="0" pos="l" purity="0.0e+00" res="0.0e+00" rms="0.0e+00">
              <Node Cut="0.0e+00" IVar="-1" NCoef="0" cType="1" depth="4" nType="-99" pos="l" purity="0.0e+00" res="0.0567510277" rms="0.0e+00"/>
              <Node Cut="0.0e+00" IVar="-1" NCoef="0" cType="1" depth="4" nType="-99" pos="r" purity="0.0e+00" res="0.0766321123" rms="0.0e+00"/>
            </Node>
            <Node Cut="-0.584550619" IVar="2" NCoef="0" cType="1" depth="3" nType="0" pos="r" purity="0.0e+00" res="0.0e+00" rms="0.0e+00">
              <Node Cut="-0.425578445" IVar="4" NCoef="0" cType="1" depth="4" nType="0" pos="l" purity="0.0e+00" res="0.0e+00" rms="0.0e+00">
                <Node Cut="1.00033009" IVar="8" NCoef="0" cType="1" depth="5" nType="0" pos="l" purity="0.0e+00" res="0.0e+00" rms="0.0e+00">
                  <Node Cut="0.0e+00" IVar="-1" NCoef="0" cType="1" depth="6" nType="-99" pos="l" purity="0.0e+00" res="0.0143866921" rms="0.0e+00"/>
                  <Node Cut="0.0e+00" IVar="-1" NCoef="0" cType="1" depth="6" nType="-99" pos="r" purity="0.0e+00" res="-0.00118359737" rms="0.0e+00"/>
                </Node>
                <Node Cut="0.0e+00" IVar="-1" NCoef="0" cType="1" depth="5" nType="-99" pos="r" purity="0.0e+00" res="-0.0748327225" rms="0.0e+00"/>
              </Node>
              <Node Cut="0.0e+00" IVar="-1" NCoef="0" cType="1" depth="4" nType="-99" pos="r" purity="0.0e+00" res="-0.0712406188" rms="0.0e+00"/>
            </Node>
          </Node>
        </Node>
      </Node>
    </BinaryTree>
    <BinaryTree boostWeight="1.0e+00" itree="4" type="DecisionTree">
      <Node Cut="3.01809812" IVar="13" NCoef="0" cType="1" depth="0" nType="0" pos="s" purity="0.0e+00" res="0.0e+00" rms="0.0e+00">
        <Node Cut="-1.07953584" IVar="1" NCoef="0" cType="1" depth="1" nType="0" pos="l" purity="0.0e+00" res="0.0e+00" rms="0.0e+00">
          <Node Cut="2.18688703" IVar="12" NCoef="0" cType="1" depth="2" nType="0" pos="l" purity="0.0e+00" res="0.0e+00" rms="0.0e+00">
            <Node Cut="-0.780020952" IVar="0" NCoef="0" cType="1" depth="3" nType="0" pos="l" purity="0.0e+00" res="0.0e+00" rms="0.0e+00">
              <Node Cut="0.0e+00" IVar="-1" NCoef="0" cType="1" depth="4" nType="-99" pos="l" purity="0.0e+00" res="-0.0695207119" rms="0.0e+00"/>
              <Node Cut="-0.79056704" IVar="9" NCoef="0" cType="1" depth="4" nType="0" pos="r" purity="0.0e+00" res="0.0e+00" rms="0.0e+00">
                <Node Cut="0.0e+00" IVar="-1" NCoef="0" cType="1" depth="5" nType="-99" pos="l" purity="0.0e+00" res="-0.0101871323" rms="0.0e+00"/>
                <Node Cut="0.0e+00" IVar="-1" NCoef="0" cType="1" depth="5" nType="-99" pos="r" purity="0.0e+00" res="-0.0694153458" rms="0.0e+00"/>
              </Node>
            </Node>
            <Node Cut="3.16052675" IVar="12" NCoef="0" cType="1" depth="3" nType="0" pos="r" purity="0.0e+00" res="0.0e+00" rms="0.0e+00">
              <Node Cut="0.0e+00" IVar="-1" NCoef="0" cType="1" depth="4" nType="-99" pos="l" purity="0.0e+00" res="0.0708276331" rms="0.0e+00"/>
              <Node Cut="0.0e+00" IVar="-1" NCoef="0" cType="1" depth="4" nType="-99" pos="r" purity="0.0e+00" res="0.12601006" rms="0.0e+00"/>
            </Node>
          </Node>
          <Node Cut="-1.63197482" IVar="9" NCoef="0" cType="1" depth="2" nType="0" pos="r" purity="0.0e+00" res="0.0e+00" rms="0.0e+00">
            <Node Cut="0.792608321" IVar="13" NCoef="0" cType="1" depth="3" nType="0" pos="l" purity="0.0e+00" res="0.0e+00" rms="0.0e+00">
              <Node Cut="0.0e+00" IVar="-1" NCoef="0" cType="1" depth="4" nType="-99" pos="l" purity="0.0e+00" res="-0.0698046461" rms="0.0e+00"/>
              <Node Cut="0.0e+00" IVar="-1" NCoef="0" cType="1" depth="4" nType="-99" pos="r" purity="0.0e+00" res="0.0189826768" rms="0.0e+00"/>
            </Node>
            <Node Cut="1.94644094" IVar="5" NCoef="0" cType="1" depth="3" nType="0" pos="r" purity="0.0e+00" res="0.0e+00" rms="0.0e+00">
              <Node Cut="0.897474945" IVar="13" NCoef="0" cType="1" depth="4" nType="0" pos="l" purity="0.0e+00" res="0.0e+00" rms="0.0e+00">
                <Node Cut="0.0e+00" IVar="-1" NCoef="0" cType="1" depth="5" nType="-99" pos="l" purity="0.0e+00" res="-0.0692907572" rms="0.0e+00"/>
                <Node Cut="-0.702073336" IVar="2" NCoef="0" cType="1" depth="5" nType="0" pos="r" purity="0.0e+00" res="0.0e+00" rms="0.0e+00">
                  <Node Cut="0.0e+00" IVar="-1" NCoef="0" cType="1" depth="6" nType="-99" pos="l" purity="0.0e+00" res="-0.0286387429" rms="0.0e+00"/>
                  <Node Cut="-1.01557553" IVar="1" NCoef="0" cType="1" depth="6" nType="0" pos="r" purity="0.0e+00" res="0.0e+00" rms="0.0e+00">
                    <Node Cut="0.0e+00" IVar="-1" NCoef="0" cType="1" depth="7" nType="-99" pos="l" purity="0.0e+00" res="-0.0490595438" rms="0.0e+00"/>
                    <Node Cut="0.686648607" IVar="12" NCoef="0" cType="1" depth="7" nType="0" pos="r" purity="0.0e+00" res="0.0e+00" rms="0.0e+00">
                      <Node Cut="-0.500825584" IVar="10" NCoef="0" cType="1" depth="8" nType="0" pos="l" purity="0.0e+00" res="0.0e+00" rms="0.0e+00">
                        <Node Cut="0.0e+00" IVar="-1" NCoef="0" cType="1" depth="9" nType="-99" pos="l" purity="0.0e+00" res="-0.0365476906" rms="0.0e+00"/>
                        <Node Cut="0.0e+00" IVar="-1" NCoef="0" cType="1" depth="9" nType="-99" pos="r" purity="0.0e+00" res="-0.0694381297" rms="0.0e+00"/>
                      </Node>
                      <Node Cut="0.0e+00" IVar="-1" NCoef="0" cType="1" depth="8" nType="-99" pos="r" purity="0.0e+00" res="-0.0692336559" rms="0.0e+00"/>
                    </Node>
                  </Node>
                </Node>
              </Node>
              <Node Cut="-0.289800107" IVar="1" NCoef="0" cType="1" depth="4" nType="0" pos="r" purity="0.0e+00" res="0.0e+00" rms="0.0e+00">
                <Node Cut="0.0e+00" IVar="-1" NCoef="0" cType="1" depth="5" nType="-99" pos="l" purity="0.0e+00" res="-0.0441182815" rms="0.0e+00"/>
                <Node Cut="2.00705934" IVar="5" NCoef="0" cType="1" depth="5" nType="0" pos="r" purity="0.0e+00" res="0.0e+00" rms="0.0e+00">
                  <Node Cut="0.287589371" IVar="4" NCoef="0" cType="1" depth="6" nType="0" pos="l" purity="0.0e+00" res="0.0e+00" rms="0.0e+00">
                    <Node Cut="0.0e+00" IVar="-1" NCoef="0" cType="1" depth="7" nType="-99" pos="l" purity="0.0e+00" res="-0.0693796203" rms="0.0e+00"/>
                    <Node Cut="0.0e+00" IVar="-1" NCoef="0" cType="1" depth="7" nType="-99" pos="r" purity="0.0e+00" res="-0.0279438216" rms="0.0e+00"/>
                  </Node>
                  <Node Cut="0.0e+00" IVar="-1" NCoef="0" cType="1" depth="6" nType="-99" pos="r" purity="0.0e+00" res="-0.0695624202" rms="0.0e+00"/>
                </Node>
              </Node>
            </Node>
          </Node>
        </Node>
        <Node Cut="-1.1341325" IVar="9" NCoef="0" cType="1" depth="1" nType="0" pos="r" purity="0.0e+00" res="0.0e+00" rms="0.0e+00">
          <Node Cut="0.253866047" IVar="7" NCoef="0" cType="1" depth="2" nType="0" pos="l" purity="0.0e+00" res="0.0e+00" rms="0.0e+00">
            <Node Cut="-0.291065753" IVar="7" NCoef="0" cType="1" depth="3" nType="0" pos="l" purity="0.0e+00" res="0.0e+00" rms="0.0e+00">
              <Node Cut="0.0e+00" IVar="-1" NCoef="0" cType="1" depth="4" nType="-99" pos="l" purity="0.0e+00" res="-0.0717464834" rms="0.0e+00"/>
              <Node Cut="-0.212585434" IVar="7" NCoef="0" cType="1" depth="4" nType="0" pos="r" purity="0.0e+00" res="0.0e+00" rms="0.0e+00">
                <Node Cut="-0.133688658" IVar="4" NCoef="0" cType="1" depth="5" nType="0" pos="l" purity="0.0e+00" res="0.0e+00" rms="0.0e+00">
                  <Node Cut="0.0e+00" IVar="-1" NCoef="0" cType="1" depth="6" nType="-99" pos="l" purity="0.0e+00" res="0.0351251587" rms="0.0e+00"/>
                  <Node Cut="0.0e+00" IVar="-1" NCoef="0" cType="1" depth="6" nType="-99" pos="r" purity="0.0e+00" res="0.112711146" rms="0.0e+00"/>
                </Node>
                <Node Cut="0.248216525" IVar="10" NCoef="0" cType="1" depth="5" nType="0" pos="r" purity="0.0e+00" res="0.0e+00" rms="0.0e+00">
                  <Node Cut="3.20555615" IVar="13" NCoef="0" cType="1" depth="6" nType="0" pos="l" purity="0.0e+00" res="0.0e+00" rms="0.0e+00">
                    <Node Cut="-0.710627735" IVar="0" NCoef="0" cType="1" depth="7" nType="0" pos="l" purity="0.0e+00" res="0.0e+00" rms="0.0e+00">
                      <Node Cut="0.0e+00" IVar="-1" NCoef="0" cType="1" depth="8" nType="-99" pos="l" purity="0.0e+00" res="0.126551226" rms="0.0e+00"/>
                      <Node Cut="0.0e+00" IVar="-1" NCoef="0" cType="1" depth="8" nType="-99" pos="r" purity="0.0e+00" res="0.168500081" rms="0.0e+00"/>
                    </Node>
                    <Node Cut="-1.59593058" IVar="9" NCoef="0" cType="1" depth="7" nType="0" pos="r" purity="0.0e+00" res="0.0e+00" rms="0.0e+00">
                      <Node Cut="-0.117525935" IVar="7" NCoef="0" cType="1" depth="8" nType="0" pos="l" purity="0.0e+00" res="0.0e+00" rms="0.0e+00">
                        <Node Cut="0.0e+00" IVar="-1" NCoef="0" cType="1" depth="9" nType="-99" pos="l" purity="0.0e+00" res="0.0707839578" rms="0.0e+00"/>
                        <Node Cut="0.0e+00" IVar="-1" NCoef="0" cType="1" depth="9" nType="-99" pos="r" purity="0.0e+00" res="0.119039655" rms="0.0e+00"/>
                      </Node>
                      <Node Cut="1.61842263" IVar="6" NCoef="0" cType="1" depth="8" nType="0" pos="r" purity="0.0e+00" res="0.0e+00" rms="0.0e+00">
                        <Node Cut="-0.308654279" IVar="10" NCoef="0" cType="1" depth="9" nType="0" pos="l" purity="0.0e+00" res="0.0e+00" rms="0.0e+00">
                          <Node Cut="0.0e+00" IVar="-1" NCoef="0" cType="1" depth="10" nType="-99" pos="l" purity="0.0e+00" res="0.144754872" rms="0.0e+00"/>
                          <Node Cut="0.0e+00" IVar="-1" NCoef="0" cType="1" depth="10" nType="-99" pos="r" purity="0.0e+00" res="0.114641376" rms="0.0e+00"/>
                        </Node>
                        <Node Cut="0.0e+00" IVar="-1" NCoef="0" cType="1" depth="9" nType="-99" pos="r" purity="0.0e+00" res="0.0724734813" rms="0.0e+00"/>
                      </Node>
                    </Node>
                  </Node>
                  <Node Cut="0.261085272" IVar="10" NCoef="0" cType="1" depth="6" nType="0" pos="r" purity="0.0e+00" res="0.0e+00" rms="0.0e+00">
                    <Node Cut="0.0e+00" IVar="-1" NCoef="0" cType="1" depth="7" nType="-99" pos="l" purity="0.0e+00" res="0.071534954" rms="0.0e+00"/>
                    <Node Cut="-0.545418739" IVar="4" NCoef="0" cType="1" depth="7" nType="0" pos="r" purity="0.0e+00" res="0.0e+00" rms="0.0e+00">
                      <Node Cut="0.0e+00" IVar="-1" NCoef="0" cType="1" depth="8" nType="-99" pos="l" purity="0.0e+00" res="0.0665775016" rms="0.0e+00"/>
                      <Node Cut="-0.73601675" IVar="0" NCoef="0" cType="1" depth="8" nType="0" pos="r" purity="0.0e+00" res="0.0e+00" rms="0.0e+00">
                        <Node Cut="-0.477187842" IVar="4" NCoef="0" cType="1" depth="9" nType="0" pos="l" purity="0.0e+00" res="0.0e+00" rms="0.0e+00">
                          <Node Cut="0.0e+00" IVar="-1" NCoef="0" cType="1" depth="10" nType="-99" pos="l" purity="0.0e+00" res="0.130503863" rms="0.0e+00"/>
                          <Node Cut="0.0e+00" IVar="-1" NCoef="0" cType="1" depth="10" nType="-99" pos="r" purity="0.0e+00" res="0.0917457044" rms="0.0e+00"/>
                        </Node>
                        <Node Cut="0.0e+00" IVar="-1" NCoef="0" cType="1" depth="9" nType="-99" pos="r" purity="0.0e+00" res="0.138370261" rms="0.0e+00"/>
                      </Node>
                    </Node>
                  </Node>
                </Node>
              </Node>
            </Node>
            <Node Cut="3.10618353" IVar="11" NCoef="0" cType="1" depth="3" nType="0" pos="r" purity="0.0e+00" res="0.0e+00" rms="0.0e+00">
              <Node Cut="0.0e+00" IVar="-1" NCoef="0" cType="1" depth="4" nType="-99" pos="l" purity="0.0e+00" res="-0.0480778143" rms="0.0e+00"/>
              <Node Cut="0.0e+00" IVar="-1" NCoef="0" cType="1" depth="4" nType="-99" pos="r" purity="0.0e+00" res="-0.0725642368" rms="0.0e+00"/>
            </Node>
          </Node>
          <Node Cut="-0.986866832" IVar="1" NCoef="0" cType="1" depth="2" nType="0" pos="r" purity="0.0e+00" res="0.0e+00" rms="0.0e+00">
            <Node Cut="-0.370910048" IVar="10" NCoef="0" cType="1" depth="3" nType="0" pos="l" purity="0.0e+00" res="0.0e+00" rms="0.0e+00">
              <Node Cut="-1.02162278" IVar="1" NCoef="0" cType="1" depth="4" nType="0" pos="l" purity="0.0e+00" res="0.0e+00" rms="0.0e+00">
                <Node Cut="0.0e+00" IVar="-1" NCoef="0" cType="1" depth="5" nType="-99" pos="l" purity="0.0e+00" res="0.0890399069" rms="0.0e+00"/>
                <Node Cut="0.0e+00" IVar="-1" NCoef="0" cType="1" depth="5" nType="-99" pos="r" purity="0.0e+00" res="0.0377077572" rms="0.0e+00"/>
              </Node>
              <Node Cut="-1.02789009" IVar="1" NCoef="0" cType="1" depth="4" nType="0" pos="r" purity="0.0e+00" res="0.0e+00" rms="0.0e+00">
                <Node Cut="0.335744053" IVar="10" NCoef="0" cType="1" depth="5" nType="0" pos="l" purity="0.0e+00" res="0.0e+00" rms="0.0e+00">
                  <Node Cut="0.0e+00" IVar="-1" NCoef="0" cType="1" depth="6" nType="-99" pos="l" purity="0.0e+00" res="-0.0358327329" rms="0.0e+00"/>
                  <Node Cut="0.0e+00" IVar="-1" NCoef="0" cType="1" depth="6" nType="-99" pos="r" purity="0.0e+00" res="0.0763589069" rms="0.0e+00"/>
                </Node>
                <Node Cut="0.0e+00" IVar="-1" NCoef="0" cType="1" depth="5" nType="-99" pos="r" purity="0.0e+00" res="-0.0575222336" rms="0.0e+00"/>
              </Node>
            </Node>
            <Node Cut="-0.902890623" IVar="9" NCoef="0" cType="1" depth="3" nType="0" pos="r" purity="0.0e+00" res="0.0e+00" rms="0.0e+00">
              <Node Cut="-0.527559698" IVar="2" NCoef="0" cType="1" depth="4" nType="0" pos="l" purity="0.0e+00" res="0.0e+00" rms="0.0e+00">
                <Node Cut="0.0e+00" IVar="-1" NCoef="0" cType="1" depth="5" nType="-99" pos="l" purity="0.0e+00" res="0.0179333016" rms="0.0e+00"/>
                <Node Cut="0.0e+00" IVar="-1" NCoef="0" cType="1" depth="5" nType="-99" pos="r" purity="0.0e+00" res="-0.0702855289" rms="0.0e+00"/>
              </Node>
              <Node Cut="-1.59102881" IVar="5" NCoef="0" cType="1" depth="4" nType="0" pos="r" purity="0.0e+00" res="0.0e+00" rms="0.0e+00">
                <Node Cut="0.0e+00" IVar="-1" NCoef="0" cType="1" depth="5" nType="-99" pos="l" purity="0.0e+00" res="-0.0456095785" rms="0.0e+00"/>
                <Node Cut="0.0e+00" IVar="-1" NCoef="0" cType="1" depth="5" nType="-99" pos="r" purity="0.0e+00" res="-0.0688657761" rms="0.0e+00"/>
              </Node>
            </Node>
          </Node>
        </Node>
      </Node>
    </BinaryTree>
    <BinaryTree boostWeight="1.0e+00" itree="5" type="DecisionTree">
      <Node Cut="3.20555615" IVar="13" NCoef="0" cType="1" depth="0" nType="0" pos="s" purity="0.0e+00" res="0.0e+00" rms="0.0e+00">
        <Node Cut="-1.61560643" IVar="9" NCoef="0" cType="1" depth="1" nType="0" pos="l" purity="0.0e+00" res="0.0e+00" rms="0.0e+00">
          <Node Cut="-0.704039752" IVar="2" NCoef="0" cType="1" depth="2" nType="0" pos="l" purity="0.0e+00" res="0.0e+00" rms="0.0e+00">
            <Node Cut="0.804635048" IVar="6" NCoef="0" cType="1" depth="3" nType="0" pos="l" purity="0.0e+00" res="0.0e+00" rms="0.0e+00">
              <Node Cut="0.0e+00" IVar="-1" NCoef="0" cType="1" depth="4" nType="-99" pos="l" purity="0.0e+00" res="0.0827703699" rms="0.0e+00"/>
              <Node Cut="-0.704675794" IVar="5" NCoef="0" cType="1" depth="4" nType="0" pos="r" purity="0.0e+00" res="0.0e+00" rms="0.0e+00">
                <Node Cut="0.0e+00" IVar="-1" NCoef="0" cType="1" depth="5" nType="-99" pos="l" purity="0.0e+00" res="0.136697754" rms="0.0e+00"/>
                <Node Cut="0.0e+00" IVar="-1" NCoef="0" cType="1" depth="5" nType="-99" pos="r" purity="0.0e+00" res="0.112347446" rms="0.0e+00"/>
              </Node>
            </Node>
            <Node Cut="0.0657702386" IVar="10" NCoef="0" cType="1" depth="3" nType="0" pos="r" purity="0.0e+00" res="0.0e+00" rms="0.0e+00">
              <Node Cut="0.0e+00" IVar="-1" NCoef="0" cType="1" depth="4" nType="-99" pos="l" purity="0.0e+00" res="-0.0695534647" rms="0.0e+00"/>
              <Node Cut="0.0e+00" IVar="-1" NCoef="0" cType="1" depth="4" nType="-99" pos="r" purity="0.0e+00" res="-0.0515398122" rms="0.0e+00"/>
            </Node>
          </Node>
          <Node Cut="-1.07953584" IVar="1" NCoef="0" cType="1" depth="2" nType="0" pos="r" purity="0.0e+00" res="0.0e+00" rms="0.0e+00">
            <Node Cut="1.27098358" IVar="13" NCoef="0" cType="1" depth="3" nType="0" pos="l" purity="0.0e+00" res="0.0e+00" rms="0.0e+00">
              <Node Cut="-1.24747908" IVar="6" NCoef="0" cType="1" depth="4" nType="0" pos="l" purity="0.0e+00" res="0.0e+00" rms="0.0e+00">
                <Node Cut="0.0e+00" IVar="-1" NCoef="0" cType="1" depth="5" nType="-99" pos="l" purity="0.0e+00" res="-0.0466534421" rms="0.0e+00"/>
                <Node Cut="0.0e+00" IVar="-1" NCoef="0" cType="1" depth="5" nType="-99" pos="r" purity="0.0e+00" res="-0.0683285445" rms="0.0e+00"/>
              </Node>
              <Node Cut="0.0e+00" IVar="-1" NCoef="0" cType="1" depth="4" nType="-99" pos="r" purity="0.0e+00" res="0.0514992401" rms="0.0e+00"/>
            </Node>
            <Node Cut="3.01809812" IVar="13" NCoef="0" cType="1" depth="3" nType="0" pos="r" purity="0.0e+00" res="0.0e+00" rms="0.0e+00">
              <Node Cut="1.8930887" IVar="7" NCoef="0" cType="1" depth="4" nType="0" pos="l" purity="0.0e+00" res="0.0e+00" rms="0.0e+00">
                <Node Cut="2.6176784" IVar="13" NCoef="0" cType="1" depth="5" nType="0" pos="l" purity="0.0e+00" res="0.0e+00" rms="0.0e+00">
                  <Node Cut="3.29797983" IVar="12" NCoef="0" cType="1" depth="6" nType="0" pos="l" purity="0.0e+00" res="0.0e+00" rms="0.0e+00">
                    <Node Cut="0.0e+00" IVar="-1" NCoef="0" cType="1" depth="7" nType="-99" pos="l" purity="0.0e+00" res="-0.0681084767" rms="0.0e+00"/>
                    <Node Cut="0.0e+00" IVar="-1" NCoef="0" cType="1" depth="7" nType="-99" pos="r" purity="0.0e+00" res="-0.0567950383" rms="0.0e+00"/>
                  </Node>
                  <Node Cut="2.35995793" IVar="11" NCoef="0" cType="1" depth="6" nType="0" pos="r" purity="0.0e+00" res="0.0e+00" rms="0.0e+00">
                    <Node Cut="-0.281393707" IVar="4" NCoef="0" cType="1" depth="7" nType="0" pos="l" purity="0.0e+00" res="0.0e+00" rms="0.0e+00">
                      <Node Cut="0.0e+00" IVar="-1" NCoef="0" cType="1" depth="8" nType="-99" pos="l" purity="0.0e+00" res="-0.0682817772" rms="0.0e+00"/>
                      <Node Cut="0.0e+00" IVar="-1" NCoef="0" cType="1" depth="8" nType="-99" pos="r" purity="0.0e+00" res="-0.0286112502" rms="0.0e+00"/>
                    </Node>
                    <Node Cut="0.0e+00" IVar="-1" NCoef="0" cType="1" depth="7" nType="-99" pos="r" purity="0.0e+00" res="-0.0686676279" rms="0.0e+00"/>
                  </Node>
                </Node>
                <Node Cut="1.49570692" IVar="1" NCoef="0" cType="1" depth="5" nType="0" pos="r" purity="0.0e+00" res="0.0e+00" rms="0.0e+00">
                  <Node Cut="0.0e+00" IVar="-1" NCoef="0" cType="1" depth="6" nType="-99" pos="l" purity="0.0e+00" res="-0.0305793807" rms="0.0e+00"/>
                  <Node Cut="0.0e+00" IVar="-1" NCoef="0" cType="1" depth="6" nType="-99" pos="r" purity="0.0e+00" res="-0.0683133751" rms="0.0e+00"/>
                </Node>
              </Node>
              <Node Cut="-0.665228724" IVar="0" NCoef="0" cType="1" depth="4" nType="0" pos="r" purity="0.0e+00" res="0.0e+00" rms="0.0e+00">
                <Node Cut="0.0e+00" IVar="-1" NCoef="0" cType="1" depth="5" nType="-99" pos="l" purity="0.0e+00" res="0.014832194" rms="0.0e+00"/>
                <Node Cut="-0.411812782" IVar="3" NCoef="0" cType="1" depth="5" nType="0" pos="r" purity="0.0e+00" res="0.0e+00" rms="0.0e+00">
                  <Node Cut="0.0e+00" IVar="-1" NCoef="0" cType="1" depth="6" nType="-99" pos="l" purity="0.0e+00" res="-0.0689710528" rms="0.0e+00"/>
                  <Node Cut="0.0e+00" IVar="-1" NCoef="0" cType="1" depth="6" nType="-99" pos="r" purity="0.0e+00" res="-0.0461634286" rms="0.0e+00"/>
                </Node>
              </Node>
            </Node>
          </Node>
        </Node>
        <Node Cut="-1.1341325" IVar="9" NCoef="0" cType="1" depth="1" nType="0" pos="r" purity="0.0e+00" res="0.0e+00" rms="0.0e+00">
          <Node Cut="-0.263053983" IVar="7" NCoef="0" cType="1" depth="2" nType="0" pos="l" purity="0.0e+00" res="0.0e+00" rms="0.0e+00">
            <Node Cut="0.0e+00" IVar="-1" NCoef="0" cType="1" depth="3" nType="-99" pos="l" purity="0.0e+00" res="-0.0714789182" rms="0.0e+00"/>
            <Node Cut="0.253866047" IVar="7" NCoef="0" cType="1" depth="3" nType="0" pos="r" purity="0.0e+00" res="0.0e+00" rms="0.0e+00">
              <Node Cut="-1.31559145" IVar="9" NCoef="0" cType="1" depth="4" nType="0" pos="l" purity="0.0e+00" res="0.0e+00" rms="0.0e+00">
                <Node Cut="0.119083822" IVar="7" NCoef="0" cType="1" depth="5" nType="0" pos="l" purity="0.0e+00" res="0.0e+00" rms="0.0e+00">
                  <Node Cut="-1.59593058" IVar="9" NCoef="0" cType="1" depth="6" nType="0" pos="l" purity="0.0e+00" res="0.0e+00" rms="0.0e+00">
                    <Node Cut="0.0e+00" IVar="-1" NCoef="0" cType="1" depth="7" nType="-99" pos="l" purity="0.0e+00" res="0.108071938" rms="0.0e+00"/>
                    <Node Cut="-0.156307951" IVar="4" NCoef="0" cType="1" depth="7" nType="0" pos="r" purity="0.0e+00" res="0.0e+00" rms="0.0e+00">
                      <Node Cut="-0.234787896" IVar="10" NCoef="0" cType="1" depth="8" nType="0" pos="l" purity="0.0e+00" res="0.0e+00" rms="0.0e+00">
                        <Node Cut="0.0e+00" IVar="-1" NCoef="0" cType="1" depth="9" nType="-99" pos="l" purity="0.0e+00" res="0.119777337" rms="0.0e+00"/>
                        <Node Cut="-1.0639447" IVar="1" NCoef="0" cType="1" depth="9" nType="0" pos="r" purity="0.0e+00" res="0.0e+00" rms="0.0e+00">
                          <Node Cut="0.0e+00" IVar="-1" NCoef="0" cType="1" depth="10" nType="-99" pos="l" purity="0.0e+00" res="0.107336722" rms="0.0e+00"/>
                          <Node Cut="0.0e+00" IVar="-1" NCoef="0" cType="1" depth="10" nType="-99" pos="r" purity="0.0e+00" res="0.0911801085" rms="0.0e+00"/>
                        </Node>
                      </Node>
                      <Node Cut="-0.0576051921" IVar="5" NCoef="0" cType="1" depth="8" nType="0" pos="r" purity="0.0e+00" res="0.0e+00" rms="0.0e+00">
                        <Node Cut="3.80626488" IVar="13" NCoef="0" cType="1" depth="9" nType="0" pos="l" purity="0.0e+00" res="0.0e+00" rms="0.0e+00">
                          <Node Cut="0.0e+00" IVar="-1" NCoef="0" cType="1" depth="10" nType="-99" pos="l" purity="0.0e+00" res="0.0706211403" rms="0.0e+00"/>
                          <Node Cut="0.0e+00" IVar="-1" NCoef="0" cType="1" depth="10" nType="-99" pos="r" purity="0.0e+00" res="0.100180104" rms="0.0e+00"/>
                        </Node>
                        <Node Cut="-0.451945722" IVar="3" NCoef="0" cType="1" depth="9" nType="0" pos="r" purity="0.0e+00" res="0.0e+00" rms="0.0e+00">
                          <Node Cut="0.0e+00" IVar="-1" NCoef="0" cType="1" depth="10" nType="-99" pos="l" purity="0.0e+00" res="0.109007828" rms="0.0e+00"/>
                          <Node Cut="0.0e+00" IVar="-1" NCoef="0" cType="1" depth="10" nType="-99" pos="r" purity="0.0e+00" res="0.096526362" rms="0.0e+00"/>
                        </Node>
                      </Node>
                    </Node>
                  </Node>
                  <Node Cut="-0.719507277" IVar="2" NCoef="0" cType="1" depth="6" nType="0" pos="r" purity="0.0e+00" res="0.0e+00" rms="0.0e+00">
                    <Node Cut="0.0e+00" IVar="-1" NCoef="0" cType="1" depth="7" nType="-99" pos="l" purity="0.0e+00" res="0.109648228" rms="0.0e+00"/>
                    <Node Cut="-0.432248592" IVar="4" NCoef="0" cType="1" depth="7" nType="0" pos="r" purity="0.0e+00" res="0.0e+00" rms="0.0e+00">
                      <Node Cut="-0.485341638" IVar="3" NCoef="0" cType="1" depth="8" nType="0" pos="l" purity="0.0e+00" res="0.0e+00" rms="0.0e+00">
                        <Node Cut="0.0e+00" IVar="-1" NCoef="0" cType="1" depth="9" nType="-99" pos="l" purity="0.0e+00" res="0.0944171101" rms="0.0e+00"/>
                        <Node Cut="0.0e+00" IVar="-1" NCoef="0" cType="1" depth="9" nType="-99" pos="r" purity="0.0e+00" res="0.0354747996" rms="0.0e+00"/>
                      </Node>
                      <Node Cut="-0.762311757" IVar="0" NCoef="0" cType="1" depth="8" nType="0" pos="r" purity="0.0e+00" res="0.0e+00" rms="0.0e+00">
                        <Node Cut="0.0e+00" IVar="-1" NCoef="0" cType="1" depth="9" nType="-99" pos="l" purity="0.0e+00" res="0.0933203176" rms="0.0e+00"/>
                        <Node Cut="-1.05833244" IVar="1" NCoef="0" cType="1" depth="9" nType="0" pos="r" purity="0.0e+00" res="0.0e+00" rms="0.0e+00">
                          <Node Cut="0.0e+00" IVar="-1" NCoef="0" cType="1" depth="10" nType="-99" pos="l" purity="0.0e+00" res="0.115530491" rms="0.0e+00"/>
                          <Node Cut="0.0e+00" IVar="-1" NCoef="0" cType="1" depth="10" nType="-99" pos="r" purity="0.0e+00" res="0.100011006" rms="0.0e+00"/>
                        </Node>
                      </Node>
                    </Node>
                  </Node>
                </Node>
                <Node Cut="3.70666981" IVar="13" NCoef="0" cType="1" depth="5" nType="0" pos="r" purity="0.0e+00" res="0.0e+00" rms="0.0e+00">
                  <Node Cut="-0.465816975" IVar="4" NCoef="0" cType="1" depth="6" nType="0" pos="l" purity="0.0e+00" res="0.0e+00" rms="0.0e+00">
                    <Node Cut="0.0e+00" IVar="-1" NCoef="0" cType="1" depth="7" nType="-99" pos="l" purity="0.0e+00" res="0.0906853601" rms="0.0e+00"/>
                    <Node Cut="0.0e+00" IVar="-1" NCoef="0" cType="1" depth="7" nType="-99" pos="r" purity="0.0e+00" res="0.00683748955" rms="0.0e+00"/>
                  </Node>
                  <Node Cut="-0.212585434" IVar="7" NCoef="0" cType="1" depth="6" nType="0" pos="r" purity="0.0e+00" res="0.0e+00" rms="0.0e+00">
                    <Node Cut="0.0e+00" IVar="-1" NCoef="0" cType="1" depth="7" nType="-99" pos="l" purity="0.0e+00" res="0.039725408" rms="0.0e+00"/>
                    <Node Cut="3.11567783" IVar="11" NCoef="0" cType="1" depth="7" nType="0" pos="r" purity="0.0e+00" res="0.0e+00" rms="0.0e+00">
                      <Node Cut="0.0e+00" IVar="-1" NCoef="0" cType="1" depth="8" nType="-99" pos="l" purity="0.0e+00" res="0.0664115921" rms="0.0e+00"/>
                      <Node Cut="3.79486895" IVar="13" NCoef="0" cType="1" depth="8" nType="0" pos="r" purity="0.0e+00" res="0.0e+00" rms="0.0e+00">
                        <Node Cut="0.274586409" IVar="10" NCoef="0" cType="1" depth="9" nType="0" pos="l" purity="0.0e+00" res="0.0e+00" rms="0.0e+00">
                          <Node Cut="0.0e+00" IVar="-1" NCoef="0" cType="1" depth="10" nType="-99" pos="l" purity="0.0e+00" res="0.0763245523" rms="0.0e+00"/>
                          <Node Cut="0.0e+00" IVar="-1" NCoef="0" cType="1" depth="10" nType="-99" pos="r" purity="0.0e+00" res="0.122367986" rms="0.0e+00"/>
                        </Node>
                        <Node Cut="0.0e+00" IVar="-1" NCoef="0" cType="1" depth="9" nType="-99" pos="r" purity="0.0e+00" res="0.119656578" rms="0.0e+00"/>
                      </Node>
                    </Node>
                  </Node>
                </Node>
              </Node>
              <Node Cut="0.0e+00" IVar="-1" NCoef="0" cType="1" depth="4" nType="-99" pos="r" purity="0.0e+00" res="-0.0543586239" rms="0.0e+00"/>
            </Node>
          </Node>
          <Node Cut="-0.934298575" IVar="1" NCoef="0" cType="1" depth="2" nType="0" pos="r" purity="0.0e+00" res="0.0e+00" rms="0.0e+00">
            <Node Cut="0.335744053" IVar="10" NCoef="0" cType="1" depth="3" nType="0" pos="l" purity="0.0e+00" res="0.0e+00" rms="0.0e+00">
              <Node Cut="-0.450195611" IVar="4" NCoef="0" cType="1" depth="4" nType="0" pos="l" purity="0.0e+00" res="0.0e+00" rms="0.0e+00">
                <Node Cut="0.0e+00" IVar="-1" NCoef="0" cType="1" depth="5" nType="-99" pos="l" purity="0.0e+00" res="0.0353617035" rms="0.0e+00"/>
                <Node Cut="0.0e+00" IVar="-1" NCoef="0" cType="1" depth="5" nType="-99" pos="r" purity="0.0e+00" res="-0.0538544953" rms="0.0e+00"/>
              </Node>
              <Node Cut="3.21794057" IVar="12" NCoef="0" cType="1" depth="4" nType="0" pos="r" purity="0.0e+00" res="0.0e+00" rms="0.0e+00">
                <Node Cut="0.0e+00" IVar="-1" NCoef="0" cType="1" depth="5" nType="-99" pos="l" purity="0.0e+00" res="0.0197626874" rms="0.0e+00"/>
                <Node Cut="3.39645696" IVar="12" NCoef="0" cType="1" depth="5" nType="0" pos="r" purity="0.0e+00" res="0.0e+00" rms="0.0e+00">
                  <Node Cut="0.0e+00" IVar="-1" NCoef="0" cType="1" depth="6" nType="-99" pos="l" purity="0.0e+00" res="0.102226809" rms="0.0e+00"/>
                  <Node Cut="0.0e+00" IVar="-1" NCoef="0" cType="1" depth="6" nType="-99" pos="r" purity="0.0e+00" res="0.0607739314" rms="0.0e+00"/>
                </Node>
              </Node>
            </Node>
            <Node Cut="1.58170104" IVar="3" NCoef="0" cType="1" depth="3" nType="0" pos="r" purity="0.0e+00" res="0.0e+00" rms="0.0e+00">
              <Node Cut="-1.58479178" IVar="6" NCoef="0" cType="1" depth="4" nType="0" pos="l" purity="0.0e+00" res="0.0e+00" rms="0.0e+00">
                <Node Cut="1.00033009" IVar="8" NCoef="0" cType="1" depth="5" nType="0" pos="l" purity="0.0e+00" res="0.0e+00" rms="0.0e+00">
                  <Node Cut="0.0e+00" IVar="-1" NCoef="0" cType="1" depth="6" nType="-99" pos="l" purity="0.0e+00" res="-0.0495366119" rms="0.0e+00"/>
                  <Node Cut="0.0e+00" IVar="-1" NCoef="0" cType="1" depth="6" nType="-99" pos="r" purity="0.0e+00" res="-0.0281850137" rms="0.0e+00"/>
                </Node>
                <Node Cut="0.0e+00" IVar="-1" NCoef="0" cType="1" depth="5" nType="-99" pos="r" purity="0.0e+00" res="-0.068724364" rms="0.0e+00"/>
              </Node>
              <Node Cut="0.0e+00" IVar="-1" NCoef="0" cType="1" depth="4" nType="-99" pos="r" purity="0.0e+00" res="-0.00100927101" rms="0.0e+00"/>
            </Node>
          </Node>
        </Node>
      </Node>
    </BinaryTree>
    <BinaryTree boostWeight="1.0e+00" itree="6" type="DecisionTree">
      <Node Cut="3.12820339" IVar="13" NCoef="0" cType="1" depth="0" nType="0" pos="s" purity="0.0e+00" res="0.0e+00" rms="0.0e+00">
        <Node Cut="-1.08114088" IVar="1" NCoef="0" cType="1" depth="1" nType="0" pos="l" purity="0.0e+00" res="0.0e+00" rms="0.0e+00">
          <Node Cut="-1.47353363" IVar="9" NCoef="0" cType="1" depth="2" nType="0" pos="l" purity="0.0e+00" res="0.0e+00" rms="0.0e+00">
            <Node Cut="1.53781831" IVar="6" NCoef="0" cType="1" depth="3" nType="0" pos="l" purity="0.0e+00" res="0.0e+00" rms="0.0e+00">
              <Node Cut="0.0e+00" IVar="-1" NCoef="0" cType="1" depth="4" nType="-99" pos="l" purity="0.0e+00" res="0.0868352503" rms="0.0e+00"/>
              <Node Cut="0.0e+00" IVar="-1" NCoef="0" cType="1" depth="4" nType="-99" pos="r" purity="0.0e+00" res="0.114665978" rms="0.0e+00"/>
            </Node>
            <Node Cut="0.269753128" IVar="11" NCoef="0" cType="1" depth="3" nType="0" pos="r" purity="0.0e+00" res="0.0e+00" rms="0.0e+00">
              <Node Cut="0.0e+00" IVar="-1" NCoef="0" cType="1" depth="4" nType="-99" pos="l" purity="0.0e+00" res="-0.0671581849" rms="0.0e+00"/>
              <Node Cut="0.0e+00" IVar="-1" NCoef="0" cType="1" depth="4" nType="-99" pos="r" purity="0.0e+00" res="-0.037135765" rms="0.0e+00"/>
            </Node>
          </Node>
          <Node Cut="-1.6959331" IVar="9" NCoef="0" cType="1" depth="2" nType="0" pos="r" purity="0.0e+00" res="0.0e+00" rms="0.0e+00">
            <Node Cut="0.792608321" IVar="13" NCoef="0" cType="1" depth="3" nType="0" pos="l" purity="0.0e+00" res="0.0e+00" rms="0.0e+00">
              <Node Cut="0.0e+00" IVar="-1" NCoef="0" cType="1" depth="4" nType="-99" pos="l" purity="0.0e+00" res="-0.0676035732" rms="0.0e+00"/>
              <Node Cut="0.0e+00" IVar="-1" NCoef="0" cType="1" depth="4" nType="-99" pos="r" purity="0.0e+00" res="0.0519525036" rms="0.0e+00"/>
            </Node>
            <Node Cut="3.01809812" IVar="13" NCoef="0" cType="1" depth="3" nType="0" pos="r" purity="0.0e+00" res="0.0e+00" rms="0.0e+00">
              <Node Cut="-1.04639888" IVar="1" NCoef="0" cType="1" depth="4" nType="0" pos="l" purity="0.0e+00" res="0.0e+00" rms="0.0e+00">
                <Node Cut="1.93935478" IVar="11" NCoef="0" cType="1" depth="5" nType="0" pos="l" purity="0.0e+00" res="0.0e+00" rms="0.0e+00">
                  <Node Cut="0.0e+00" IVar="-1" NCoef="0" cType="1" depth="6" nType="-99" pos="l" purity="0.0e+00" res="-0.0674082935" rms="0.0e+00"/>
                  <Node Cut="0.0e+00" IVar="-1" NCoef="0" cType="1" depth="6" nType="-99" pos="r" purity="0.0e+00" res="0.0156443585" rms="0.0e+00"/>
                </Node>
                <Node Cut="-0.76745075" IVar="0" NCoef="0" cType="1" depth="5" nType="0" pos="r" purity="0.0e+00" res="0.0e+00" rms="0.0e+00">
                  <Node Cut="-0.422344029" IVar="4" NCoef="0" cType="1" depth="6" nType="0" pos="l" purity="0.0e+00" res="0.0e+00" rms="0.0e+00">
                    <Node Cut="0.0e+00" IVar="-1" NCoef="0" cType="1" depth="7" nType="-99" pos="l" purity="0.0e+00" res="-0.0668732226" rms="0.0e+00"/>
                    <Node Cut="0.0e+00" IVar="-1" NCoef="0" cType="1" depth="7" nType="-99" pos="r" purity="0.0e+00" res="-0.0348561481" rms="0.0e+00"/>
                  </Node>
                  <Node Cut="-0.702073336" IVar="2" NCoef="0" cType="1" depth="6" nType="0" pos="r" purity="0.0e+00" res="0.0e+00" rms="0.0e+00">
                    <Node Cut="-0.425578445" IVar="4" NCoef="0" cType="1" depth="7" nType="0" pos="l" purity="0.0e+00" res="0.0e+00" rms="0.0e+00">
                      <Node Cut="0.0e+00" IVar="-1" NCoef="0" cType="1" depth="8" nType="-99" pos="l" purity="0.0e+00" res="-0.0677053258" rms="0.0e+00"/>
                      <Node Cut="0.107854031" IVar="5" NCoef="0" cType="1" depth="8" nType="0" pos="r" purity="0.0e+00" res="0.0e+00" rms="0.0e+00">
                        <Node Cut="0.0e+00" IVar="-1" NCoef="0" cType="1" depth="9" nType="-99" pos="l" purity="0.0e+00" res="-0.0676087067" rms="0.0e+00"/>
                        <Node Cut="-0.0776355043" IVar="10" NCoef="0" cType="1" depth="9" nType="0" pos="r" purity="0.0e+00" res="0.0e+00" rms="0.0e+00">
                          <Node Cut="0.0e+00" IVar="-1" NCoef="0" cType="1" depth="10" nType="-99" pos="l" purity="0.0e+00" res="-0.0673400983" rms="0.0e+00"/>
                          <Node Cut="0.0e+00" IVar="-1" NCoef="0" cType="1" depth="10" nType="-99" pos="r" purity="0.0e+00" res="-0.0254261568" rms="0.0e+00"/>
                        </Node>
                      </Node>
                    </Node>
                    <Node Cut="0.0e+00" IVar="-1" NCoef="0" cType="1" depth="7" nType="-99" pos="r" purity="0.0e+00" res="-0.0670168772" rms="0.0e+00"/>
                  </Node>
                </Node>
              </Node>
              <Node Cut="0.253866047" IVar="7" NCoef="0" cType="1" depth="4" nType="0" pos="r" purity="0.0e+00" res="0.0e+00" rms="0.0e+00">
                <Node Cut="0.0e+00" IVar="-1" NCoef="0" cType="1" depth="5" nType="-99" pos="l" purity="0.0e+00" res="-0.0207808129" rms="0.0e+00"/>
                <Node Cut="0.0e+00" IVar="-1" NCoef="0" cType="1" depth="5" nType="-99" pos="r" purity="0.0e+00" res="-0.0678845942" rms="0.0e+00"/>
              </Node>
            </Node>
          </Node>
        </Node>
        <Node Cut="-1.06467748" IVar="9" NCoef="0" cType="1" depth="1" nType="0" pos="r" purity="0.0e+00" res="0.0e+00" rms="0.0e+00">
          <Node Cut="0.253866047" IVar="7" NCoef="0" cType="1" depth="2" nType="0" pos="l" purity="0.0e+00" res="0.0e+00" rms="0.0e+00">
            <Node Cut="-0.291065753" IVar="7" NCoef="0" cType="1" depth="3" nType="0" pos="l" purity="0.0e+00" res="0.0e+00" rms="0.0e+00">
              <Node Cut="0.0e+00" IVar="-1" NCoef="0" cType="1" depth="4" nType="-99" pos="l" purity="0.0e+00" res="-0.069121711" rms="0.0e+00"/>
              <Node Cut="-1.25488865" IVar="9" NCoef="0" cType="1" depth="4" nType="0" pos="r" purity="0.0e+00" res="0.0e+00" rms="0.0e+00">
                <Node Cut="-0.117525935" IVar="7" NCoef="0" cType="1" depth="5" nType="0" pos="l" purity="0.0e+00" res="0.0e+00" rms="0.0e+00">
                  <Node Cut="3.39645696" IVar="12" NCoef="0" cType="1" depth="6" nType="0" pos="l" purity="0.0e+00" res="0.0e+00" rms="0.0e+00">
                    <Node Cut="-1.0639447" IVar="1" NCoef="0" cType="1" depth="7" nType="0" pos="l" purity="0.0e+00" res="0.0e+00" rms="0.0e+00">
                      <Node Cut="0.0448376089" IVar="6" NCoef="0" cType="1" depth="8" nType="0" pos="l" purity="0.0e+00" res="0.0e+00" rms="0.0e+00">
                        <Node Cut="0.0e+00" IVar="-1" NCoef="0" cType="1" depth="9" nType="-99" pos="l" purity="0.0e+00" res="0.0809830651" rms="0.0e+00"/>
                        <Node Cut="0.0e+00" IVar="-1" NCoef="0" cType="1" depth="9" nType="-99" pos="r" purity="0.0e+00" res="0.103209645" rms="0.0e+00"/>
                      </Node>
                      <Node Cut="0.0e+00" IVar="-1" NCoef="0" cType="1" depth="8" nType="-99" pos="r" purity="0.0e+00" res="0.0367250182" rms="0.0e+00"/>
                    </Node>
                    <Node Cut="3.42887044" IVar="12" NCoef="0" cType="1" depth="7" nType="0" pos="r" purity="0.0e+00" res="0.0e+00" rms="0.0e+00">
                      <Node Cut="0.0e+00" IVar="-1" NCoef="0" cType="1" depth="8" nType="-99" pos="l" purity="0.0e+00" res="0.108986564" rms="0.0e+00"/>
                      <Node Cut="3.45104647" IVar="12" NCoef="0" cType="1" depth="8" nType="0" pos="r" purity="0.0e+00" res="0.0e+00" rms="0.0e+00">
                        <Node Cut="0.0e+00" IVar="-1" NCoef="0" cType="1" depth="9" nType="-99" pos="l" purity="0.0e+00" res="0.0718080774" rms="0.0e+00"/>
                        <Node Cut="0.0e+00" IVar="-1" NCoef="0" cType="1" depth="9" nType="-99" pos="r" purity="0.0e+00" res="0.102679737" rms="0.0e+00"/>
                      </Node>
                    </Node>
                  </Node>
                  <Node Cut="-1.39885437" IVar="9" NCoef="0" cType="1" depth="6" nType="0" pos="r" purity="0.0e+00" res="0.0e+00" rms="0.0e+00">
                    <Node Cut="-0.685358226" IVar="2" NCoef="0" cType="1" depth="7" nType="0" pos="l" purity="0.0e+00" res="0.0e+00" rms="0.0e+00">
                      <Node Cut="0.160007954" IVar="7" NCoef="0" cType="1" depth="8" nType="0" pos="l" purity="0.0e+00" res="0.0e+00" rms="0.0e+00">
                        <Node Cut="0.0e+00" IVar="-1" NCoef="0" cType="1" depth="9" nType="-99" pos="l" purity="0.0e+00" res="0.0995185524" rms="0.0e+00"/>
                        <Node Cut="0.0e+00" IVar="-1" NCoef="0" cType="1" depth="9" nType="-99" pos="r" purity="0.0e+00" res="0.0502479039" rms="0.0e+00"/>
                      </Node>
                      <Node Cut="0.0e+00" IVar="-1" NCoef="0" cType="1" depth="8" nType="-99" pos="r" purity="0.0e+00" res="0.101739839" rms="0.0e+00"/>
                    </Node>
                    <Node Cut="0.119083822" IVar="7" NCoef="0" cType="1" depth="7" nType="0" pos="r" purity="0.0e+00" res="0.0e+00" rms="0.0e+00">
                      <Node Cut="0.0e+00" IVar="-1" NCoef="0" cType="1" depth="8" nType="-99" pos="l" purity="0.0e+00" res="0.0506470613" rms="0.0e+00"/>
                      <Node Cut="-0.503071845" IVar="3" NCoef="0" cType="1" depth="8" nType="0" pos="r" purity="0.0e+00" res="0.0e+00" rms="0.0e+00">
                        <Node Cut="0.0e+00" IVar="-1" NCoef="0" cType="1" depth="9" nType="-99" pos="l" purity="0.0e+00" res="0.0745476633" rms="0.0e+00"/>
                        <Node Cut="-0.745033145" IVar="0" NCoef="0" cType="1" depth="9" nType="0" pos="r" purity="0.0e+00" res="0.0e+00" rms="0.0e+00">
                          <Node Cut="0.0e+00" IVar="-1" NCoef="0" cType="1" depth="10" nType="-99" pos="l" purity="0.0e+00" res="0.107811913" rms="0.0e+00"/>
                          <Node Cut="0.0e+00" IVar="-1" NCoef="0" cType="1" depth="10" nType="-99" pos="r" purity="0.0e+00" res="0.0881839767" rms="0.0e+00"/>
                        </Node>
                      </Node>
                    </Node>
                  </Node>
                </Node>
